{"learner":{"attributes":{"best_iteration":"1","best_score":"1.0"},"feature_names":["dns__query_count","dns__query_rate_per_minute","dns__avg_query_length","dns__max_query_length","dns__avg_entropy","dns__max_entropy","dns__avg_subdomain_depth","dns__max_label_length","dns__avg_label_length","dns__label_entropy_max","dns__unique_subdomain_ratio","dns__base64_pattern_count","dns__hex_pattern_count","dns__numeric_ratio","dns__subdomain_has_numbers_ratio","dns__unique_base_domains","dns__top_domain_query_ratio","dns__max_unique_subdomains_per_domain","dns__txt_record_ratio","dns__null_record_ratio","dns__mx_record_ratio","dns__cname_record_ratio","dns__any_record_ratio","dns__tunneling_type_ratio","dns__record_type_count","dns__avg_response_size","dns__max_response_size","dns__response_variance","dns__nxdomain_ratio","dns__fast_flux_ratio","dns__min_ttl","dns__ttl_variance","dns__inter_query_interval_mean","dns__inter_query_interval_cv","dns__unique_process_count","dns__non_browser_dns_ratio","dns__non_standard_dns_ratio","dns__nx_subdomains_per_top_domain","dns__nx_top_domain_query_ratio","dns__consonant_run_max","dns__digit_letter_run_max","dns__vowel_ratio_min","auth__total_auth_events","auth__successful_logon_count","auth__failed_logon_count","auth__failed_logon_ratio","auth__network_logon_count","auth__interactive_logon_count","auth__remote_interactive_logon_count","auth__service_logon_count","auth__cleartext_logon_count","auth__network_logon_ratio","auth__explicit_credential_count","auth__ntlm_count","auth__kerberos_tgt_count","auth__kerberos_tgs_count","auth__special_logon_count","auth__unique_privileged_users","auth__unique_users","auth__unique_target_hosts","auth__unique_source_ips","auth__lateral_velocity_per_min","auth__max_hosts_per_user","auth__max_failures_per_user","auth__unique_failed_users","auth__max_users_per_source","auth__account_created_count","auth__account_enabled_count","auth__password_reset_count","auth__account_disabled_count","auth__account_deleted_count","auth__account_changed_count","auth__success_after_failures","auth__time_to_first_success_secs","auth__offhours_logon_count","auth__offhours_interactive_count","auth__psexec_invocations","auth__wmic_invocations","auth__winrm_invocations","auth__schtasks_invocations","auth__powershell_encoded_count","auth__lsass_access_count","process__total_process_events","process__credential_tool_count","process__lsass_access_count","process__image_load_count","process__remote_thread_count","process__process_tamper_count","process__psexec_count","process__wmic_count","process__mshta_count","process__rundll32_count","process__regsvr32_count","process__certutil_count","process__bitsadmin_count","process__schtasks_count","process__esentutl_count","process__total_lolbin_count","process__powershell_count","process__encoded_command_count","process__download_command_count","process__amsi_bypass_count","process__office_to_shell_count","process__browser_to_shell_count","process__pipe_event_count","process__pipe_attack_count","process__archive_drop_count","process__user_exe_drop_count","process__file_create_count","process__unique_image_count","process__unique_parent_count","network__total_connections","network__connections_per_minute","network__total_lateral_count","network__smb_count","network__rdp_count","network__winrm_count","network__wmi_count","network__ssh_count","network__netbios_count","network__telnet_count","network__unique_dest_ips","network__unique_dest_ports","network__unique_source_processes","network__internal_connection_count","network__external_connection_count","network__internal_to_external_ratio","network__shell_initiated_count","network__lolbin_initiated_count","network__shell_lateral_count","network__total_bytes_sent","network__total_bytes_received","network__max_bytes_per_connection","temporal__total_event_count","temporal__window_duration_seconds","temporal__events_per_minute","temporal__burst_factor","temporal__per_minute_stdev","temporal__active_minute_count","temporal__off_hours_ratio","temporal__night_hours_ratio","temporal__weekend_ratio","temporal__inter_event_interval_mean","temporal__inter_event_interval_cv","temporal__inter_event_interval_min","temporal__inter_event_interval_max","behavioral__pth_chain_count","behavioral__bruteforce_success_count","behavioral__auth_then_network_count","behavioral__auth_then_process_count","behavioral__priv_escalation_chain","behavioral__unique_users_overall","behavioral__unique_hosts_overall","behavioral__unique_processes_overall","behavioral__host_user_pair_count","behavioral__entity_diversity_score"],"feature_types":[],"gradient_booster":{"model":{"cats":{"enc":[],"feature_segments":[],"sorted_idx":[]},"gbtree_model_param":{"num_parallel_tree":"1","num_trees":"22"},"iteration_indptr":[0,1,2,3,4,5,6,7,8,9,10,11,12,13,14,15,16,17,18,19,20,21,22],"tree_info":[0,0,0,0,0,0,0,0,0,0,0,0,0,0,0,0,0,0,0,0,0,0],"trees":[{"base_weights":[-1.1609852E-1,-1.9976078E-1,1.9786932E0,1.987987E0,-1.2727273E-1,-1.2727273E-1,1.9973242E-1],"categories":[],"categories_nodes":[],"categories_segments":[],"categories_sizes":[],"default_left":[0,0,0,0,0,0,0],"id":0,"left_children":[1,-1,3,5,-1,-1,-1],"loss_changes":[6.254719E3,0E0,2.5221924E1,2.5351807E1,0E0,0E0,0E0],"parents":[2147483647,0,0,2,2,3,3],"right_children":[2,-1,4,6,-1,-1,-1],"split_conditions":[1.3406593E1,-1.9976078E-1,3E2,1.3E1,-1.2727273E-1,-1.2727273E-1,1.9973242E-1],"split_indices":[135,0,30,134,0,0,0],"split_type":[0,0,0,0,0,0,0],"sum_hessian":[1.5849375E3,8.35E2,7.499375E2,7.481875E2,1.75E0,1.75E0,7.464375E2],"tree_param":{"num_deleted":"0","num_feature":"156","num_nodes":"7","size_leaf_vector":"1"}},{"base_weights":[8.692417E-2,1.5878317E0,-1.8166485E-1,-1.790965E-1,1.8071662E0,1.816983E-1,-1.3186406E-1],"categories":[],"categories_nodes":[],"categories_segments":[],"categories_sizes":[],"default_left":[0,0,0,0,0,0,0],"id":1,"left_children":[1,3,-1,-1,5,-1,-1],"loss_changes":[5.0432856E3,7.346521E2,0E0,0E0,3.0850098E1,0E0,0E0],"parents":[2147483647,0,0,1,1,4,4],"right_children":[2,4,-1,-1,6,-1,-1],"split_conditions":[4.9666667E0,4.3849386E-2,-1.8166485E-1,-1.790965E-1,3E2,1.816983E-1,-1.3186406E-1],"split_indices":[142,143,0,0,30,0,0],"split_type":[0,0,0,0,0,0,0],"sum_hessian":[1.763175E3,9.8595013E2,7.77225E2,5.9664658E1,9.2628546E2,9.238029E2,2.482564E0],"tree_param":{"num_deleted":"0","num_feature":"156","num_nodes":"7","size_leaf_vector":"1"}},{"base_weights":[1.3876808E-1,1.4872508E0,-1.6807102E-1,-1.656302E-1,1.6724353E0,1.6811323E-1,-1.23845756E-1],"categories":[],"categories_nodes":[],"categories_segments":[],"categories_sizes":[],"default_left":[0,0,0,0,0,0,0],"id":2,"left_children":[1,3,-1,-1,5,-1,-1],"loss_changes":[4.3558174E3,5.963052E2,0E0,0E0,2.6470459E1,0E0,0E0],"parents":[2147483647,0,0,1,1,4,4],"right_children":[2,4,-1,-1,6,-1,-1],"split_conditions":[4.9666667E0,4E0,-1.6807102E-1,-1.656302E-1,3E2,1.6811323E-1,-1.23845756E-1],"split_indices":[142,133,0,0,30,0,0],"split_type":[0,0,0,0,0,0,0],"sum_hessian":[1.7733043E3,1.0185797E3,7.547246E2,5.6223732E1,9.6235596E2,9.5991046E2,2.4455006E0],"tree_param":{"num_deleted":"0","num_feature":"156","num_nodes":"7","size_leaf_vector":"1"}},{"base_weights":[-3.8242225E-2,-1.575534E-1,1.5578712E0,1.567081E0,-1.1350477E-1,-1.0621015E-1,1.5751146E-1],"categories":[],"categories_nodes":[],"categories_segments":[],"categories_sizes":[],"default_left":[0,0,0,0,0,0,0],"id":3,"left_children":[1,-1,3,5,-1,-1,-1],"loss_changes":[3.7788127E3,0E0,2.0518066E1,1.7586182E1,0E0,0E0,0E0],"parents":[2147483647,0,0,2,2,3,3],"right_children":[2,-1,4,6,-1,-1,-1],"split_conditions":[1.3406593E1,-1.575534E-1,4.740741E0,4E0,-1.1350477E-1,-1.0621015E-1,1.5751146E-1],"split_indices":[135,0,32,133,0,0,0],"split_type":[0,0,0,0,0,0,0],"sum_hessian":[1.5380513E3,7.834687E2,7.545826E2,7.5242737E2,2.155218E0,1.8923415E0,7.5053503E2],"tree_param":{"num_deleted":"0","num_feature":"156","num_nodes":"7","size_leaf_vector":"1"}},{"base_weights":[-3.0535582E-2,1.2781596E0,-1.4910185E-1,-1.4696202E-1,1.4811826E0,1.49101E-1,-1.0947348E-1],"categories":[],"categories_nodes":[],"categories_segments":[],"categories_sizes":[],"default_left":[0,0,0,0,0,0,0],"id":4,"left_children":[1,3,-1,-1,5,-1,-1],"loss_changes":[2.795208E3,4.3246436E2,0E0,0E0,1.982666E1,0E0,0E0],"parents":[2147483647,0,0,1,1,4,4],"right_children":[2,4,-1,-1,6,-1,-1],"split_conditions":[4.9666667E0,4.3849386E-2,-1.4910185E-1,-1.4696202E-1,3E2,1.49101E-1,-1.0947348E-1],"split_indices":[142,143,0,0,30,0,0],"split_type":[0,0,0,0,0,0,0],"sum_hessian":[1.4604464E3,7.7031494E2,6.901314E2,5.2570435E1,7.177445E2,7.154363E2,2.3082755E0],"tree_param":{"num_deleted":"0","num_feature":"156","num_nodes":"7","size_leaf_vector":"1"}},{"base_weights":[-3.5196297E-2,1.2182199E0,-1.4226694E-1,-1.4011963E-1,1.4120082E0,1.4226896E-1,-1.08117424E-1],"categories":[],"categories_nodes":[],"categories_segments":[],"categories_sizes":[],"default_left":[0,0,0,0,0,0,0],"id":5,"left_children":[1,3,-1,-1,5,-1,-1],"loss_changes":[2.416713E3,3.7259155E2,0E0,0E0,1.9655396E1,0E0,0E0],"parents":[2147483647,0,0,1,1,4,4],"right_children":[2,4,-1,-1,6,-1,-1],"split_conditions":[4.9666667E0,4E0,-1.4226694E-1,-1.4011963E-1,3E2,1.4226896E-1,-1.08117424E-1],"split_indices":[142,133,0,0,30,0,0],"split_type":[0,0,0,0,0,0,0],"sum_hessian":[1.3876527E3,7.291105E2,6.5854224E2,4.9795773E1,6.793147E2,6.768443E2,2.4703965E0],"tree_param":{"num_deleted":"0","num_feature":"156","num_nodes":"7","size_leaf_vector":"1"}},{"base_weights":[-3.1756647E-2,-1.3667499E-1,1.3523443E0,-8.878531E-2,1.3595788E0,1.3663124E-1,-8.854624E-2],"categories":[],"categories_nodes":[],"categories_segments":[],"categories_sizes":[],"default_left":[0,0,0,0,0,0,0],"id":6,"left_children":[1,-1,3,-1,5,-1,-1],"loss_changes":[2.4108582E3,0E0,1.1589233E1,0E0,1.0868652E1,0E0,0E0],"parents":[2147483647,0,0,2,2,4,4],"right_children":[2,-1,4,-1,6,-1,-1],"split_conditions":[1.3406593E1,-1.3667499E-1,4E0,-8.878531E-2,4.740741E0,1.3663124E-1,-8.854624E-2],"split_indices":[135,0,133,0,32,0,0],"split_type":[0,0,0,0,0,0,0],"sum_hessian":[1.3027422E3,6.631414E2,6.396007E2,1.6670467E0,6.3793365E2,6.3641626E2,1.517405E0],"tree_param":{"num_deleted":"0","num_feature":"156","num_nodes":"7","size_leaf_vector":"1"}},{"base_weights":[-3.0787017E-2,-1.3195486E-1,1.3043296E0,1.3119304E0,-8.895029E-2,-8.531868E-2,1.3191883E-1],"categories":[],"categories_nodes":[],"categories_segments":[],"categories_sizes":[],"default_left":[0,0,0,0,0,0,0],"id":7,"left_children":[1,-1,3,5,-1,-1,-1],"loss_changes":[2.1006545E3,0E0,1.1166077E1,1.0522461E1,0E0,0E0,0E0],"parents":[2147483647,0,0,2,2,3,3],"right_children":[2,-1,4,6,-1,-1,-1],"split_conditions":[1.3406593E1,-1.3195486E-1,3E2,3E0,-8.895029E-2,-8.531868E-2,1.3191883E-1],"split_indices":[135,0,30,153,0,0,0],"split_type":[0,0,0,0,0,0,0],"sum_hessian":[1.2188513E3,6.201981E2,5.9865326E2,5.9698694E2,1.6663291E0,1.6051314E0,5.953818E2],"tree_param":{"num_deleted":"0","num_feature":"156","num_nodes":"7","size_leaf_vector":"1"}},{"base_weights":[1.1994116E-2,-1.2797423E-1,1.2664958E0,-8.215769E-2,1.2732416E0,1.2795402E-1,-8.157495E-2],"categories":[],"categories_nodes":[],"categories_segments":[],"categories_sizes":[],"default_left":[0,0,0,0,0,0,0],"id":8,"left_children":[1,-1,3,-1,5,-1,-1],"loss_changes":[1.9206165E3,0E0,9.515442E0,0E0,8.934631E0,0E0,0E0],"parents":[2147483647,0,0,2,2,4,4],"right_children":[2,-1,4,-1,6,-1,-1],"split_conditions":[1.3406593E1,-1.2797423E-1,4E0,-8.215769E-2,3E2,1.2795402E-1,-8.157495E-2],"split_indices":[135,0,133,0,30,0,0],"split_type":[0,0,0,0,0,0,0],"sum_hessian":[1.1832104E3,5.82944E2,6.002664E2,1.5440513E0,5.9872235E2,5.973089E2,1.4134634E0],"tree_param":{"num_deleted":"0","num_feature":"156","num_nodes":"7","size_leaf_vector":"1"}},{"base_weights":[6.5639675E-2,-1.24572776E-1,1.2318634E0,-8.285019E-2,1.2390097E0,1.2457534E-1,-8.240097E-2],"categories":[],"categories_nodes":[],"categories_segments":[],"categories_sizes":[],"default_left":[0,0,0,0,0,0,0],"id":9,"left_children":[1,-1,3,-1,5,-1,-1],"loss_changes":[1.7287385E3,0E0,9.835632E0,0E0,9.326599E0,0E0,0E0],"parents":[2147483647,0,0,2,2,4,4],"right_children":[2,-1,4,-1,6,-1,-1],"split_conditions":[1.3406593E1,-1.24572776E-1,4E0,-8.285019E-2,3E2,1.2457534E-1,-8.240097E-2],"split_indices":[135,0,133,0,30,0,0],"split_type":[0,0,0,0,0,0,0],"sum_hessian":[1.1283729E3,5.311029E2,5.972701E2,1.6672133E0,5.9560284E2,5.940571E2,1.5457247E0],"tree_param":{"num_deleted":"0","num_feature":"156","num_nodes":"7","size_leaf_vector":"1"}},{"base_weights":[1.9341685E-2,-1.2165284E-1,1.2021499E0,1.2103888E0,-8.336889E-2,-7.197221E-2,1.2164494E-1],"categories":[],"categories_nodes":[],"categories_segments":[],"categories_sizes":[],"default_left":[0,0,0,0,0,0,0],"id":10,"left_children":[1,-1,3,5,-1,-1,-1],"loss_changes":[1.4791455E3,0E0,9.681152E0,6.9038696E0,0E0,0E0,0E0],"parents":[2147483647,0,0,2,2,3,3],"right_children":[2,-1,4,6,-1,-1,-1],"split_conditions":[1.3406593E1,-1.2165284E-1,3E2,4E0,-8.336889E-2,-7.197221E-2,1.2164494E-1],"split_indices":[135,0,30,133,0,0,0],"split_type":[0,0,0,0,0,0,0],"sum_hessian":[1.00986725E3,4.9384225E2,5.1602496E2,5.1434894E2,1.6760628E0,1.2414265E0,5.131075E2],"tree_param":{"num_deleted":"0","num_feature":"156","num_nodes":"7","size_leaf_vector":"1"}},{"base_weights":[-3.256544E-2,-1.1913433E-1,1.1764088E0,1.1843818E0,-7.647007E-2,-6.956332E-2,1.19104885E-1],"categories":[],"categories_nodes":[],"categories_segments":[],"categories_sizes":[],"default_left":[0,0,0,0,0,0,0],"id":11,"left_children":[1,-1,3,5,-1,-1,-1],"loss_changes":[1.269218E3,0E0,7.7681274E0,6.368286E0,0E0,0E0,0E0],"parents":[2147483647,0,0,2,2,3,3],"right_children":[2,-1,4,6,-1,-1,-1],"split_conditions":[1.3406593E1,-1.1913433E-1,3E2,4E0,-7.647007E-2,-6.956332E-2,1.19104885E-1],"split_indices":[135,0,30,133,0,0,0],"split_type":[0,0,0,0,0,0,0],"sum_hessian":[9.0398035E2,4.6157983E2,4.4240054E2,4.4097906E2,1.4214716E0,1.1931006E0,4.3978595E2],"tree_param":{"num_deleted":"0","num_feature":"156","num_nodes":"7","size_leaf_vector":"1"}},{"base_weights":[7.8295935E-3,-1.1694153E-1,1.1535109E0,1.1620622E0,-7.773331E-2,-7.145744E-2,1.16932034E-1],"categories":[],"categories_nodes":[],"categories_segments":[],"categories_sizes":[],"default_left":[0,0,0,0,0,0,0],"id":12,"left_children":[1,-1,3,5,-1,-1,-1],"loss_changes":[1.1711002E3,0E0,8.168884E0,6.8083496E0,0E0,0E0,0E0],"parents":[2147483647,0,0,2,2,3,3],"right_children":[2,-1,4,6,-1,-1,-1],"split_conditions":[1.3406593E1,-1.1694153E-1,3E2,4E0,-7.773331E-2,-7.145744E-2,1.16932034E-1],"split_indices":[135,0,30,133,0,0,0],"split_type":[0,0,0,0,0,0,0],"sum_hessian":[8.662873E2,4.2724796E2,4.3903934E2,4.374999E2,1.53943E0,1.310133E0,4.3618976E2],"tree_param":{"num_deleted":"0","num_feature":"156","num_nodes":"7","size_leaf_vector":"1"}},{"base_weights":[-7.430573E-2,-1.1501819E-1,1.1318803E0,1.1420707E0,-7.510809E-2,-6.50505E-2,1.14967465E-1],"categories":[],"categories_nodes":[],"categories_segments":[],"categories_sizes":[],"default_left":[0,0,0,0,0,0,0],"id":13,"left_children":[1,-1,3,5,-1,-1,-1],"loss_changes":[9.556986E2,0E0,7.520569E0,5.4607544E0,0E0,0E0,0E0],"parents":[2147483647,0,0,2,2,3,3],"right_children":[2,-1,4,6,-1,-1,-1],"split_conditions":[1.3406593E1,-1.1501819E-1,4.740741E0,4E0,-7.510809E-2,-6.50505E-2,1.14967465E-1],"split_indices":[135,0,32,133,0,0,0],"split_type":[0,0,0,0,0,0,0],"sum_hessian":[7.344488E2,3.882181E2,3.4623068E2,3.4475833E2,1.4723372E0,1.0991244E0,3.436592E2],"tree_param":{"num_deleted":"0","num_feature":"156","num_nodes":"7","size_leaf_vector":"1"}},{"base_weights":[9.011495E-2,-1.13332205E-1,1.1199427E0,1.1278125E0,-7.2634265E-2,-6.297498E-2,1.133705E-1],"categories":[],"categories_nodes":[],"categories_segments":[],"categories_sizes":[],"default_left":[0,0,0,0,0,0,0],"id":14,"left_children":[1,-1,3,5,-1,-1,-1],"loss_changes":[9.8385394E2,0E0,6.979004E0,5.089966E0,0E0,0E0,0E0],"parents":[2147483647,0,0,2,2,3,3],"right_children":[2,-1,4,6,-1,-1,-1],"split_conditions":[1.3406593E1,-1.13332205E-1,3E2,1.3E1,-7.2634265E-2,-6.297498E-2,1.133705E-1],"split_indices":[135,0,30,134,0,0,0],"split_type":[0,0,0,0,0,0,0],"sum_hessian":[7.7887286E2,3.5592865E2,4.2294424E2,4.2153662E2,1.4076413E0,1.0547991E0,4.204818E2],"tree_param":{"num_deleted":"0","num_feature":"156","num_nodes":"7","size_leaf_vector":"1"}},{"base_weights":[1.6710393E-2,-1.1184311E-1,1.1002945E0,1.1095142E0,-7.029528E-2,-6.862696E-2,1.1184639E-1],"categories":[],"categories_nodes":[],"categories_segments":[],"categories_sizes":[],"default_left":[0,0,0,0,0,0,0],"id":15,"left_children":[1,-1,3,5,-1,-1,-1],"loss_changes":[8.192508E2,0E0,6.4451294E0,6.222473E0,0E0,0E0,0E0],"parents":[2147483647,0,0,2,2,3,3],"right_children":[2,-1,4,6,-1,-1,-1],"split_conditions":[1.3406593E1,-1.1184311E-1,3E2,4E0,-7.029528E-2,-6.862696E-2,1.1184639E-1],"split_indices":[135,0,30,133,0,0,0],"split_type":[0,0,0,0,0,0,0],"sum_hessian":[6.640457E2,3.242918E2,3.397539E2,3.384084E2,1.3455188E0,1.3028764E0,3.371055E2],"tree_param":{"num_deleted":"0","num_feature":"156","num_nodes":"7","size_leaf_vector":"1"}},{"base_weights":[5.265789E-2,-1.10527836E-1,1.091948E0,-6.2982276E-2,1.0995767E-1],"categories":[],"categories_nodes":[],"categories_segments":[],"categories_sizes":[],"default_left":[0,0,0,0,0],"id":16,"left_children":[1,-1,3,-1,-1],"loss_changes":[7.615758E2,0E0,5.0726624E0,0E0,0E0],"parents":[2147483647,0,0,2,2],"right_children":[2,-1,4,-1,-1],"split_conditions":[1.3406593E1,-1.10527836E-1,1.3E1,-6.2982276E-2,1.0995767E-1],"split_indices":[135,0,134,0,0],"split_type":[0,0,0,0,0],"sum_hessian":[6.3083374E2,2.9835492E2,3.3247882E2,1.1068391E0,3.31372E2],"tree_param":{"num_deleted":"0","num_feature":"156","num_nodes":"5","size_leaf_vector":"1"}},{"base_weights":[-2.6428202E-2,9.2781335E-1,-1.0933564E-1,-1.05126046E-1,1.0840297E0,1.093382E-1,-6.269003E-2],"categories":[],"categories_nodes":[],"categories_segments":[],"categories_sizes":[],"default_left":[0,0,0,0,0,0,0],"id":17,"left_children":[1,3,-1,-1,5,-1,-1],"loss_changes":[5.483511E2,8.904367E1,0E0,0E0,4.9100647E0,0E0,0E0],"parents":[2147483647,0,0,1,1,4,4],"right_children":[2,4,-1,-1,6,-1,-1],"split_conditions":[4.9666667E0,4E0,-1.0933564E-1,-1.05126046E-1,3E2,1.093382E-1,-6.269003E-2],"split_indices":[142,133,0,0,30,0,0],"split_type":[0,0,0,0,0,0,0],"sum_hessian":[5.366022E2,2.8332855E2,2.5327362E2,2.0308958E1,2.630196E2,2.6194867E2,1.0709208E0],"tree_param":{"num_deleted":"0","num_feature":"156","num_nodes":"7","size_leaf_vector":"1"}},{"base_weights":[-1.6402067E-1,-1.08313106E-1,1.0569494E0,1.07114255E-1,-6.532071E-2],"categories":[],"categories_nodes":[],"categories_segments":[],"categories_sizes":[],"default_left":[0,0,0,0,0],"id":18,"left_children":[1,-1,3,-1,-1],"loss_changes":[4.885105E2,0E0,5.239197E0,0E0,0E0],"parents":[2147483647,0,0,2,2],"right_children":[2,-1,4,-1,-1],"split_conditions":[1.3406593E1,-1.08313106E-1,3E2,1.07114255E-1,-6.532071E-2],"split_indices":[135,0,30,0,0],"split_type":[0,0,0,0,0],"sum_hessian":[4.3329245E2,2.4726872E2,1.8602373E2,1.8486314E2,1.1605839E0],"tree_param":{"num_deleted":"0","num_feature":"156","num_nodes":"5","size_leaf_vector":"1"}},{"base_weights":[-2.3861516E-2,-1.073779E-1,1.051235E0,1.0641124E-1,-6.709182E-2],"categories":[],"categories_nodes":[],"categories_segments":[],"categories_sizes":[],"default_left":[0,0,0,0,0],"id":19,"left_children":[1,-1,3,-1,-1],"loss_changes":[5.0634854E2,0E0,5.62941E0,0E0,0E0],"parents":[2147483647,0,0,2,2],"right_children":[2,-1,4,-1,-1],"split_conditions":[1.3406593E1,-1.073779E-1,3E2,1.0641124E-1,-6.709182E-2],"split_indices":[135,0,30,0,0],"split_type":[0,0,0,0,0],"sum_hessian":[4.4658725E2,2.2594002E2,2.2064725E2,2.1938885E2,1.2583938E0],"tree_param":{"num_deleted":"0","num_feature":"156","num_nodes":"5","size_leaf_vector":"1"}},{"base_weights":[8.21118E-2,-1.0654099E-1,1.047258E0,-6.788635E-2,1.05896585E-1],"categories":[],"categories_nodes":[],"categories_segments":[],"categories_sizes":[],"default_left":[0,0,0,0,0],"id":20,"left_children":[1,-1,3,-1,-1],"loss_changes":[5.066049E2,0E0,5.739044E0,0E0,0E0],"parents":[2147483647,0,0,2,2],"right_children":[2,-1,4,-1,-1],"split_conditions":[1.3406593E1,-1.0654099E-1,4E0,-6.788635E-2,1.05896585E-1],"split_indices":[135,0,133,0,0],"split_type":[0,0,0,0,0],"sum_hessian":[4.554128E2,2.0800226E2,2.4741055E2,1.2829118E0,2.4612764E2],"tree_param":{"num_deleted":"0","num_feature":"156","num_nodes":"5","size_leaf_vector":"1"}},{"base_weights":[-2.3454862E-2,-1.0577502E-1,1.0269886E0,1.0427034E0,-6.83007E-2,-6.578807E-2,1.05771855E-1],"categories":[],"categories_nodes":[],"categories_segments":[],"categories_sizes":[],"default_left":[0,0,0,0,0,0,0],"id":21,"left_children":[1,-1,3,5,-1,-1,-1],"loss_changes":[4.0558093E2,0E0,5.689331E0,5.3923035E0,0E0,0E0,0E0],"parents":[2147483647,0,0,2,2,3,3],"right_children":[2,-1,4,6,-1,-1,-1],"split_conditions":[1.3406593E1,-1.0577502E-1,4.740741E0,4E0,-6.83007E-2,-6.578807E-2,1.05771855E-1],"split_indices":[135,0,32,133,0,0,0],"split_type":[0,0,0,0,0,0,0],"sum_hessian":[3.713021E2,1.8708559E2,1.8421652E2,1.8292569E2,1.2908373E0,1.2262722E0,1.8169942E2],"tree_param":{"num_deleted":"0","num_feature":"156","num_nodes":"7","size_leaf_vector":"1"}}]},"name":"gbtree"},"learner_model_param":{"base_score":"[5E-1]","boost_from_average":"1","num_class":"0","num_feature":"156","num_target":"1"},"objective":{"name":"binary:logistic","reg_loss_param":{"scale_pos_weight":"248.8125"}}},"version":[3,2,0]}