{"learner":{"attributes":{"best_iteration":"0","best_score":"1.0"},"feature_names":["dns__query_count","dns__query_rate_per_minute","dns__avg_query_length","dns__max_query_length","dns__avg_entropy","dns__max_entropy","dns__avg_subdomain_depth","dns__max_label_length","dns__avg_label_length","dns__label_entropy_max","dns__unique_subdomain_ratio","dns__base64_pattern_count","dns__hex_pattern_count","dns__numeric_ratio","dns__subdomain_has_numbers_ratio","dns__unique_base_domains","dns__top_domain_query_ratio","dns__max_unique_subdomains_per_domain","dns__txt_record_ratio","dns__null_record_ratio","dns__mx_record_ratio","dns__cname_record_ratio","dns__any_record_ratio","dns__tunneling_type_ratio","dns__record_type_count","dns__avg_response_size","dns__max_response_size","dns__response_variance","dns__nxdomain_ratio","dns__fast_flux_ratio","dns__min_ttl","dns__ttl_variance","dns__inter_query_interval_mean","dns__inter_query_interval_cv","dns__unique_process_count","dns__non_browser_dns_ratio","dns__non_standard_dns_ratio","dns__nx_subdomains_per_top_domain","dns__nx_top_domain_query_ratio","dns__consonant_run_max","dns__digit_letter_run_max","dns__vowel_ratio_min","auth__total_auth_events","auth__successful_logon_count","auth__failed_logon_count","auth__failed_logon_ratio","auth__network_logon_count","auth__interactive_logon_count","auth__remote_interactive_logon_count","auth__service_logon_count","auth__cleartext_logon_count","auth__network_logon_ratio","auth__explicit_credential_count","auth__ntlm_count","auth__kerberos_tgt_count","auth__kerberos_tgs_count","auth__special_logon_count","auth__unique_privileged_users","auth__unique_users","auth__unique_target_hosts","auth__unique_source_ips","auth__lateral_velocity_per_min","auth__max_hosts_per_user","auth__max_failures_per_user","auth__unique_failed_users","auth__max_users_per_source","auth__account_created_count","auth__account_enabled_count","auth__password_reset_count","auth__account_disabled_count","auth__account_deleted_count","auth__account_changed_count","auth__success_after_failures","auth__time_to_first_success_secs","auth__offhours_logon_count","auth__offhours_interactive_count","auth__psexec_invocations","auth__wmic_invocations","auth__winrm_invocations","auth__schtasks_invocations","auth__powershell_encoded_count","auth__lsass_access_count","process__total_process_events","process__credential_tool_count","process__lsass_access_count","process__image_load_count","process__remote_thread_count","process__process_tamper_count","process__psexec_count","process__wmic_count","process__mshta_count","process__rundll32_count","process__regsvr32_count","process__certutil_count","process__bitsadmin_count","process__schtasks_count","process__esentutl_count","process__total_lolbin_count","process__powershell_count","process__encoded_command_count","process__download_command_count","process__amsi_bypass_count","process__office_to_shell_count","process__browser_to_shell_count","process__pipe_event_count","process__pipe_attack_count","process__archive_drop_count","process__user_exe_drop_count","process__file_create_count","process__unique_image_count","process__unique_parent_count","network__total_connections","network__connections_per_minute","network__total_lateral_count","network__smb_count","network__rdp_count","network__winrm_count","network__wmi_count","network__ssh_count","network__netbios_count","network__telnet_count","network__unique_dest_ips","network__unique_dest_ports","network__unique_source_processes","network__internal_connection_count","network__external_connection_count","network__internal_to_external_ratio","network__shell_initiated_count","network__lolbin_initiated_count","network__shell_lateral_count","network__total_bytes_sent","network__total_bytes_received","network__max_bytes_per_connection","temporal__total_event_count","temporal__window_duration_seconds","temporal__events_per_minute","temporal__burst_factor","temporal__per_minute_stdev","temporal__active_minute_count","temporal__off_hours_ratio","temporal__night_hours_ratio","temporal__weekend_ratio","temporal__inter_event_interval_mean","temporal__inter_event_interval_cv","temporal__inter_event_interval_min","temporal__inter_event_interval_max","behavioral__pth_chain_count","behavioral__bruteforce_success_count","behavioral__auth_then_network_count","behavioral__auth_then_process_count","behavioral__priv_escalation_chain","behavioral__unique_users_overall","behavioral__unique_hosts_overall","behavioral__unique_processes_overall","behavioral__host_user_pair_count","behavioral__entity_diversity_score"],"feature_types":[],"gradient_booster":{"model":{"cats":{"enc":[],"feature_segments":[],"sorted_idx":[]},"gbtree_model_param":{"num_parallel_tree":"1","num_trees":"21"},"iteration_indptr":[0,1,2,3,4,5,6,7,8,9,10,11,12,13,14,15,16,17,18,19,20,21],"tree_info":[0,0,0,0,0,0,0,0,0,0,0,0,0,0,0,0,0,0,0,0,0],"trees":[{"base_weights":[1.8421756E-2,-1.9976155E-1,1.9745497E0,-1.5E-1,1.9883914E0,1.9976729E-1,-1.3333334E-1],"categories":[],"categories_nodes":[],"categories_segments":[],"categories_sizes":[],"default_left":[0,0,0,0,0,0,0],"id":0,"left_children":[1,-1,3,-1,5,-1,-1],"loss_changes":[6.7167017E3,0E0,4.455591E1,0E0,2.9221924E1,0E0,0E0],"parents":[2147483647,0,0,2,2,4,4],"right_children":[2,-1,4,-1,6,-1,-1],"split_conditions":[1.3548388E1,-1.9976155E-1,1.2E1,-1.5E-1,3E2,1.9976729E-1,-1.3333334E-1],"split_indices":[135,0,134,0,30,0,0],"split_type":[0,0,0,0,0,0,0],"sum_hessian":[1.7011786E3,8.3775E2,8.634286E2,3E0,8.604286E2,8.584286E2,2E0],"tree_param":{"num_deleted":"0","num_feature":"156","num_nodes":"7","size_leaf_vector":"1"}},{"base_weights":[7.753584E-2,1.5845687E0,-1.8166578E-1,-1.79133E-1,1.8100443E0,1.8169482E-1,-1.1750837E-1],"categories":[],"categories_nodes":[],"categories_segments":[],"categories_sizes":[],"default_left":[0,0,0,0,0,0,0],"id":1,"left_children":[1,3,-1,-1,5,-1,-1],"loss_changes":[5.0471416E3,7.5272925E2,0E0,0E0,2.1166992E1,0E0,0E0],"parents":[2147483647,0,0,1,1,4,4],"right_children":[2,4,-1,-1,6,-1,-1],"split_conditions":[5E0,4.769696E-1,-1.8166578E-1,-1.79133E-1,3E2,1.8169482E-1,-1.1750837E-1],"split_indices":[142,143,0,0,30,0,0],"split_type":[0,0,0,0,0,0,0],"sum_hessian":[1.7660571E3,9.836345E2,7.824226E2,6.114881E1,9.224857E2,9.2074756E2,1.7381362E0],"tree_param":{"num_deleted":"0","num_feature":"156","num_nodes":"7","size_leaf_vector":"1"}},{"base_weights":[9.115873E-3,1.444327E0,-1.6807088E-1,-1.6599558E-1,1.6716866E0,1.680832E-1,-1.2124735E-1],"categories":[],"categories_nodes":[],"categories_segments":[],"categories_sizes":[],"default_left":[0,0,0,0,0,0,0],"id":2,"left_children":[1,3,-1,-1,5,-1,-1],"loss_changes":[3.9984236E3,6.319784E2,0E0,0E0,2.3960938E1,0E0,0E0],"parents":[2147483647,0,0,1,1,4,4],"right_children":[2,4,-1,-1,6,-1,-1],"split_conditions":[5E0,5E0,-1.6807088E-1,-1.6599558E-1,3E2,1.680832E-1,-1.2124735E-1],"split_indices":[142,133,0,0,30,0,0],"split_type":[0,0,0,0,0,0,0],"sum_hessian":[1.6466602E3,8.904898E2,7.5617035E2,6.033928E1,8.301505E2,8.279424E2,2.2080882E0],"tree_param":{"num_deleted":"0","num_feature":"156","num_nodes":"7","size_leaf_vector":"1"}},{"base_weights":[3.5383771E-3,-1.5754665E-1,1.5570452E0,-1.1509698E-1,1.5664956E-1],"categories":[],"categories_nodes":[],"categories_segments":[],"categories_sizes":[],"default_left":[0,0,0,0,0],"id":3,"left_children":[1,-1,3,-1,-1],"loss_changes":[3.9041487E3,0E0,2.233435E1,0E0,0E0],"parents":[2147483647,0,0,2,2],"right_children":[2,-1,4,-1,-1],"split_conditions":[1.3548388E1,-1.5754665E-1,5E0,-1.1509698E-1,1.5664956E-1],"split_indices":[135,0,133,0,0],"split_type":[0,0,0,0,0],"sum_hessian":[1.5895844E3,7.8831573E2,8.012687E2,2.3664227E0,7.989022E2],"tree_param":{"num_deleted":"0","num_feature":"156","num_nodes":"5","size_leaf_vector":"1"}},{"base_weights":[-2.0465931E-1,1.2216958E0,-1.4911114E-1,-1.4713047E-1,1.4787215E0,1.4909022E-1,-1.1810654E-1],"categories":[],"categories_nodes":[],"categories_segments":[],"categories_sizes":[],"default_left":[0,0,0,0,0,0,0],"id":4,"left_children":[1,3,-1,-1,5,-1,-1],"loss_changes":[2.4261643E3,4.362271E2,0E0,0E0,2.0323364E1,0E0,0E0],"parents":[2147483647,0,0,1,1,4,4],"right_children":[2,4,-1,-1,6,-1,-1],"split_conditions":[5E0,7E0,-1.4911114E-1,-1.4713047E-1,3E2,1.4909022E-1,-1.1810654E-1],"split_indices":[142,145,0,0,30,0,0],"split_type":[0,0,0,0,0,0,0],"sum_hessian":[1.3202129E3,6.2608777E2,6.941251E2,5.4137276E1,5.719505E2,5.697806E2,2.169866E0],"tree_param":{"num_deleted":"0","num_feature":"156","num_nodes":"7","size_leaf_vector":"1"}},{"base_weights":[2.8200278E-3,1.2130063E0,-1.4228427E-1,-1.4047854E-1,1.4131113E0,1.4231819E-1,-1.1615615E-1],"categories":[],"categories_nodes":[],"categories_segments":[],"categories_sizes":[],"default_left":[0,0,0,0,0,0,0],"id":5,"left_children":[1,3,-1,-1,5,-1,-1],"loss_changes":[2.4778875E3,4.0889783E2,0E0,0E0,2.0376953E1,0E0,0E0],"parents":[2147483647,0,0,1,1,4,4],"right_children":[2,4,-1,-1,6,-1,-1],"split_conditions":[5E0,5E0,-1.4228427E-1,-1.4047854E-1,3E2,1.4231819E-1,-1.1615615E-1],"split_indices":[142,133,0,0,30,0,0],"split_type":[0,0,0,0,0,0,0],"sum_hessian":[1.4341919E3,7.7579803E2,6.583938E2,5.466362E1,7.211344E2,7.1877026E2,2.3641615E0],"tree_param":{"num_deleted":"0","num_feature":"156","num_nodes":"7","size_leaf_vector":"1"}},{"base_weights":[6.006187E-2,-1.3666877E-1,1.3479942E0,-1.0165822E-1,1.3573985E-1],"categories":[],"categories_nodes":[],"categories_segments":[],"categories_sizes":[],"default_left":[0,0,0,0,0],"id":6,"left_children":[1,-1,3,-1,-1],"loss_changes":[2.5804426E3,0E0,1.7791504E1,0E0,0E0],"parents":[2147483647,0,0,2,2],"right_children":[2,-1,4,-1,-1],"split_conditions":[1.3548388E1,-1.3666877E-1,5E0,-1.0165822E-1,1.3573985E-1],"split_indices":[135,0,133,0,0],"split_type":[0,0,0,0,0],"sum_hessian":[1.4022766E3,6.652561E2,7.3702057E2,2.4953759E0,7.3452515E2],"tree_param":{"num_deleted":"0","num_feature":"156","num_nodes":"5","size_leaf_vector":"1"}},{"base_weights":[-5.305267E-2,-1.3195214E-1,1.2992618E0,1.3104131E0,-1.1596874E-1,-9.2351705E-2,1.3196795E-1],"categories":[],"categories_nodes":[],"categories_segments":[],"categories_sizes":[],"default_left":[0,0,0,0,0,0,0],"id":7,"left_children":[1,-1,3,5,-1,-1,-1],"loss_changes":[2.0718257E3,0E0,1.7561829E1,1.3284424E1,0E0,0E0,0E0],"parents":[2147483647,0,0,2,2,3,3],"right_children":[2,-1,4,6,-1,-1,-1],"split_conditions":[1.3548388E1,-1.3195214E-1,3E2,7E0,-1.1596874E-1,-9.2351705E-2,1.3196795E-1],"split_indices":[135,0,30,145,0,0,0],"split_type":[0,0,0,0,0,0,0],"sum_hessian":[1.2077084E3,6.2366156E2,5.840469E2,5.818752E2,2.1716936E0,1.9960667E0,5.798791E2],"tree_param":{"num_deleted":"0","num_feature":"156","num_nodes":"7","size_leaf_vector":"1"}},{"base_weights":[5.022242E-2,-1.279688E-1,1.2622579E0,-9.392234E-2,1.271579E0,1.2801465E-1,-1.0636009E-1],"categories":[],"categories_nodes":[],"categories_segments":[],"categories_sizes":[],"default_left":[0,0,0,0,0,0,0],"id":8,"left_children":[1,-1,3,-1,5,-1,-1],"loss_changes":[1.9830542E3,0E0,1.4401978E1,0E0,1.4192627E1,0E0,0E0],"parents":[2147483647,0,0,2,2,4,4],"right_children":[2,-1,4,-1,6,-1,-1],"split_conditions":[1.3548388E1,-1.279688E-1,5E0,-9.392234E-2,3E2,1.2801465E-1,-1.0636009E-1],"split_indices":[135,0,133,0,30,0,0],"split_type":[0,0,0,0,0,0,0],"sum_hessian":[1.2282577E3,5.856239E2,6.4263385E2,2.2888381E0,6.40345E2,6.384544E2,1.8905944E0],"tree_param":{"num_deleted":"0","num_feature":"156","num_nodes":"7","size_leaf_vector":"1"}},{"base_weights":[6.0047135E-2,-1.2456738E-1,1.2299855E0,-8.803389E-2,1.2385702E0,1.24614574E-1,-9.6160285E-2],"categories":[],"categories_nodes":[],"categories_segments":[],"categories_sizes":[],"default_left":[0,0,0,0,0,0,0],"id":9,"left_children":[1,-1,3,-1,5,-1,-1],"loss_changes":[1.7300126E3,0E0,1.191095E1,0E0,1.1119934E1,0E0,0E0],"parents":[2147483647,0,0,2,2,4,4],"right_children":[2,-1,4,-1,6,-1,-1],"split_conditions":[1.3548388E1,-1.2456738E-1,5E0,-8.803389E-2,3E2,1.24614574E-1,-9.6160285E-2],"split_indices":[135,0,133,0,30,0,0],"split_type":[0,0,0,0,0,0,0],"sum_hessian":[1.1304911E3,5.3421295E2,5.9627814E2,2.0043938E0,5.9427374E2,5.9266675E2,1.6070288E0],"tree_param":{"num_deleted":"0","num_feature":"156","num_nodes":"7","size_leaf_vector":"1"}},{"base_weights":[-1.6834967E-1,-1.2165208E-1,1.1877294E0,1.2034211E0,-1.0405146E-1,-8.4889956E-2,1.2159605E-1],"categories":[],"categories_nodes":[],"categories_segments":[],"categories_sizes":[],"default_left":[0,0,0,0,0,0,0],"id":10,"left_children":[1,-1,3,5,-1,-1,-1],"loss_changes":[1.2545907E3,0E0,1.4708923E1,1.0879395E1,0E0,0E0,0E0],"parents":[2147483647,0,0,2,2,3,3],"right_children":[2,-1,4,6,-1,-1,-1],"split_conditions":[1.3548388E1,-1.2165208E-1,3E2,5E0,-1.0405146E-1,-8.4889956E-2,1.2159605E-1],"split_indices":[135,0,30,133,0,0,0],"split_type":[0,0,0,0,0,0,0],"sum_hessian":[8.80626E2,4.9676114E2,3.8386487E2,3.8163724E2,2.2276316E0,1.9125532E0,3.7972467E2],"tree_param":{"num_deleted":"0","num_feature":"156","num_nodes":"7","size_leaf_vector":"1"}},{"base_weights":[-1.09516785E-1,-1.1913215E-1,1.1681566E0,1.1795783E0,-9.162891E-2,-8.1956275E-2,1.1910122E-1],"categories":[],"categories_nodes":[],"categories_segments":[],"categories_sizes":[],"default_left":[0,0,0,0,0,0,0],"id":11,"left_children":[1,-1,3,5,-1,-1,-1],"loss_changes":[1.1876696E3,0E0,1.0461304E1,9.943237E0,0E0,0E0,0E0],"parents":[2147483647,0,0,2,2,3,3],"right_children":[2,-1,4,6,-1,-1,-1],"split_conditions":[1.3548388E1,-1.1913215E-1,3E2,5E0,-9.162891E-2,-8.1956275E-2,1.1910122E-1],"split_indices":[135,0,30,133,0,0,0],"split_type":[0,0,0,0,0,0,0],"sum_hessian":[8.572577E2,4.6424747E2,3.9301022E2,3.9130023E2,1.7100123E0,1.8233266E0,3.894769E2],"tree_param":{"num_deleted":"0","num_feature":"156","num_nodes":"7","size_leaf_vector":"1"}},{"base_weights":[4.298747E-2,-1.1693841E-1,1.1524793E0,1.1616083E0,-8.874031E-2,-7.6539055E-2,1.16977096E-1],"categories":[],"categories_nodes":[],"categories_segments":[],"categories_sizes":[],"default_left":[0,0,0,0,0,0,0],"id":12,"left_children":[1,-1,3,5,-1,-1,-1],"loss_changes":[1.2123069E3,0E0,9.794006E0,8.271118E0,0E0,0E0,0E0],"parents":[2147483647,0,0,2,2,3,3],"right_children":[2,-1,4,6,-1,-1,-1],"split_conditions":[1.3548388E1,-1.1693841E-1,3E2,5E0,-8.874031E-2,-7.6539055E-2,1.16977096E-1],"split_indices":[135,0,30,133,0,0,0],"split_type":[0,0,0,0,0,0,0],"sum_hessian":[8.992635E2,4.2968317E2,4.6958035E2,4.6791684E2,1.6635044E0,1.5824027E0,4.6633444E2],"tree_param":{"num_deleted":"0","num_feature":"156","num_nodes":"7","size_leaf_vector":"1"}},{"base_weights":[3.8031817E-3,-1.1501628E-1,1.1308856E0,-7.9078175E-2,1.141585E-1],"categories":[],"categories_nodes":[],"categories_segments":[],"categories_sizes":[],"default_left":[0,0,0,0,0],"id":13,"left_children":[1,-1,3,-1,-1],"loss_changes":[1.0280251E3,0E0,9.1241455E0,0E0,0E0],"parents":[2147483647,0,0,2,2],"right_children":[2,-1,4,-1,-1],"split_conditions":[1.3548388E1,-1.1501628E-1,5E0,-7.9078175E-2,1.141585E-1],"split_indices":[135,0,133,0,0],"split_type":[0,0,0,0,0],"sum_hessian":[7.884148E2,3.895513E2,3.988635E2,1.8047795E0,3.9705872E2],"tree_param":{"num_deleted":"0","num_feature":"156","num_nodes":"5","size_leaf_vector":"1"}},{"base_weights":[1.6133481E-3,-1.1333205E-1,1.1098675E0,1.1243954E0,-9.6660845E-2,-7.1516E-2,1.13360636E-1],"categories":[],"categories_nodes":[],"categories_segments":[],"categories_sizes":[],"default_left":[0,0,0,0,0,0,0],"id":14,"left_children":[1,-1,3,5,-1,-1,-1],"loss_changes":[9.1451447E2,0E0,1.2184113E1,7.0082703E0,0E0,0E0,0E0],"parents":[2147483647,0,0,2,2,3,3],"right_children":[2,-1,4,6,-1,-1,-1],"split_conditions":[1.3548388E1,-1.1333205E-1,3E2,1.2E1,-9.6660845E-2,-7.1516E-2,1.13360636E-1],"split_indices":[135,0,30,134,0,0,0],"split_type":[0,0,0,0,0,0,0],"sum_hessian":[7.2507745E2,3.5821564E2,3.6686182E2,3.6476825E2,2.093563E0,1.4354981E0,3.6333276E2],"tree_param":{"num_deleted":"0","num_feature":"156","num_nodes":"7","size_leaf_vector":"1"}},{"base_weights":[5.042628E-2,-1.1184328E-1,1.1012182E0,1.1121749E0,-8.516917E-2,-6.1393827E-2,1.1189707E-1],"categories":[],"categories_nodes":[],"categories_segments":[],"categories_sizes":[],"default_left":[0,0,0,0,0,0,0],"id":15,"left_children":[1,-1,3,5,-1,-1,-1],"loss_changes":[8.498225E2,0E0,8.743011E0,4.941986E0,0E0,0E0,0E0],"parents":[2147483647,0,0,2,2,3,3],"right_children":[2,-1,4,6,-1,-1,-1],"split_conditions":[1.3548388E1,-1.1184328E-1,3E2,4E0,-8.516917E-2,-6.1393827E-2,1.1189707E-1],"split_indices":[135,0,30,133,0,0,0],"split_type":[0,0,0,0,0,0,0],"sum_hessian":[6.899068E2,3.2657425E2,3.6333255E2,3.6173358E2,1.5989903E0,1.0682255E0,3.6066534E2],"tree_param":{"num_deleted":"0","num_feature":"156","num_nodes":"7","size_leaf_vector":"1"}},{"base_weights":[4.6810597E-2,-1.10527456E-1,1.0834372E0,1.0948445E0,-8.272846E-2,-7.3079504E-2,1.1057997E-1],"categories":[],"categories_nodes":[],"categories_segments":[],"categories_sizes":[],"default_left":[0,0,0,0,0,0,0],"id":16,"left_children":[1,-1,3,5,-1,-1,-1],"loss_changes":[7.5826874E2,0E0,8.189575E0,7.460785E0,0E0,0E0,0E0],"parents":[2147483647,0,0,2,2,3,3],"right_children":[2,-1,4,6,-1,-1,-1],"split_conditions":[1.3548388E1,-1.10527456E-1,3E2,1.2E1,-8.272846E-2,-7.3079504E-2,1.1057997E-1],"split_indices":[135,0,30,134,0,0,0],"split_type":[0,0,0,0,0,0,0],"sum_hessian":[6.3291315E2,2.9973154E2,3.331816E2,3.3162875E2,1.5528761E0,1.5861993E0,3.3004254E2],"tree_param":{"num_deleted":"0","num_feature":"156","num_nodes":"7","size_leaf_vector":"1"}},{"base_weights":[2.4265514E-3,9.34801E-1,-1.09359704E-1,-1.0518276E-1,1.0814984E0,1.0937958E-1,-7.811623E-2],"categories":[],"categories_nodes":[],"categories_segments":[],"categories_sizes":[],"default_left":[0,0,0,0,0,0,0],"id":17,"left_children":[1,3,-1,-1,5,-1,-1],"loss_changes":[5.6946594E2,8.889044E1,0E0,0E0,7.2885437E0,0E0,0E0],"parents":[2147483647,0,0,1,1,4,4],"right_children":[2,4,-1,-1,6,-1,-1],"split_conditions":[5E0,5E0,-1.09359704E-1,-1.0518276E-1,3E2,1.0937958E-1,-7.811623E-2],"split_indices":[142,133,0,0,30,0,0],"split_type":[0,0,0,0,0,0,0],"sum_hessian":[5.5525916E2,3.0010794E2,2.551512E2,2.0212534E1,2.798954E2,2.784697E2,1.4256964E0],"tree_param":{"num_deleted":"0","num_feature":"156","num_nodes":"7","size_leaf_vector":"1"}},{"base_weights":[-9.199536E-2,-1.08311296E-1,1.0561805E0,1.0719254E0,-7.6712586E-2,-5.779464E-2,1.0824902E-1],"categories":[],"categories_nodes":[],"categories_segments":[],"categories_sizes":[],"default_left":[0,0,0,0,0,0,0],"id":18,"left_children":[1,-1,3,5,-1,-1,-1],"loss_changes":[5.288497E2,0E0,7.0043945E0,4.354355E0,0E0,0E0,0E0],"parents":[2147483647,0,0,2,2,3,3],"right_children":[2,-1,4,6,-1,-1,-1],"split_conditions":[1.3548388E1,-1.08311296E-1,3E2,4E0,-7.6712586E-2,-5.779464E-2,1.0824902E-1],"split_indices":[135,0,30,133,0,0,0],"split_type":[0,0,0,0,0,0,0],"sum_hessian":[4.6272253E2,2.4837729E2,2.1434525E2,2.1291872E2,1.4265327E0,1.0130275E0,2.1190569E2],"tree_param":{"num_deleted":"0","num_feature":"156","num_nodes":"7","size_leaf_vector":"1"}},{"base_weights":[4.803646E-2,-1.073785E-1,1.0537356E0,1.06614254E-1,-7.327754E-2],"categories":[],"categories_nodes":[],"categories_segments":[],"categories_sizes":[],"default_left":[0,0,0,0,0],"id":19,"left_children":[1,-1,3,-1,-1],"loss_changes":[5.448622E2,0E0,6.4250793E0,0E0,0E0],"parents":[2147483647,0,0,2,2],"right_children":[2,-1,4,-1,-1],"split_conditions":[1.3548388E1,-1.073785E-1,3E2,1.06614254E-1,-7.327754E-2],"split_indices":[135,0,30,0,0],"split_type":[0,0,0,0,0],"sum_hessian":[4.8093893E2,2.273124E2,2.5362654E2,2.5227776E2,1.3487877E0],"tree_param":{"num_deleted":"0","num_feature":"156","num_nodes":"5","size_leaf_vector":"1"}},{"base_weights":[8.110052E-2,-1.0654142E-1,1.0407268E0,-6.759703E-2,1.0527201E-1],"categories":[],"categories_nodes":[],"categories_segments":[],"categories_sizes":[],"default_left":[0,0,0,0,0],"id":20,"left_children":[1,-1,3,-1,-1],"loss_changes":[5.0687717E2,0E0,5.874237E0,0E0,0E0],"parents":[2147483647,0,0,2,2],"right_children":[2,-1,4,-1,-1],"split_conditions":[1.3548388E1,-1.0654142E-1,5E0,-6.759703E-2,1.0527201E-1],"split_indices":[135,0,133,0,0],"split_type":[0,0,0,0,0],"sum_hessian":[4.5869513E2,2.0894618E2,2.4974896E2,1.3486116E0,2.4840034E2],"tree_param":{"num_deleted":"0","num_feature":"156","num_nodes":"5","size_leaf_vector":"1"}}]},"name":"gbtree"},"learner_model_param":{"base_score":"[5E-1]","boost_from_average":"1","num_class":"0","num_feature":"156","num_target":"1"},"objective":{"name":"binary:logistic","reg_loss_param":{"scale_pos_weight":"286.142853"}}},"version":[3,2,0]}