{"learner":{"attributes":{"best_iteration":"0","best_score":"1.0"},"feature_names":["dns__query_count","dns__query_rate_per_minute","dns__avg_query_length","dns__max_query_length","dns__avg_entropy","dns__max_entropy","dns__avg_subdomain_depth","dns__max_label_length","dns__avg_label_length","dns__label_entropy_max","dns__unique_subdomain_ratio","dns__base64_pattern_count","dns__hex_pattern_count","dns__numeric_ratio","dns__subdomain_has_numbers_ratio","dns__unique_base_domains","dns__top_domain_query_ratio","dns__max_unique_subdomains_per_domain","dns__txt_record_ratio","dns__null_record_ratio","dns__mx_record_ratio","dns__cname_record_ratio","dns__any_record_ratio","dns__tunneling_type_ratio","dns__record_type_count","dns__avg_response_size","dns__max_response_size","dns__response_variance","dns__nxdomain_ratio","dns__fast_flux_ratio","dns__min_ttl","dns__ttl_variance","dns__inter_query_interval_mean","dns__inter_query_interval_cv","dns__unique_process_count","dns__non_browser_dns_ratio","dns__non_standard_dns_ratio","dns__nx_subdomains_per_top_domain","dns__nx_top_domain_query_ratio","dns__consonant_run_max","dns__digit_letter_run_max","dns__vowel_ratio_min","auth__total_auth_events","auth__successful_logon_count","auth__failed_logon_count","auth__failed_logon_ratio","auth__network_logon_count","auth__interactive_logon_count","auth__remote_interactive_logon_count","auth__service_logon_count","auth__cleartext_logon_count","auth__network_logon_ratio","auth__explicit_credential_count","auth__ntlm_count","auth__kerberos_tgt_count","auth__kerberos_tgs_count","auth__special_logon_count","auth__unique_privileged_users","auth__unique_users","auth__unique_target_hosts","auth__unique_source_ips","auth__lateral_velocity_per_min","auth__max_hosts_per_user","auth__max_failures_per_user","auth__unique_failed_users","auth__max_users_per_source","auth__account_created_count","auth__account_enabled_count","auth__password_reset_count","auth__account_disabled_count","auth__account_deleted_count","auth__account_changed_count","auth__success_after_failures","auth__time_to_first_success_secs","auth__offhours_logon_count","auth__offhours_interactive_count","auth__psexec_invocations","auth__wmic_invocations","auth__winrm_invocations","auth__schtasks_invocations","auth__powershell_encoded_count","auth__lsass_access_count","process__total_process_events","process__credential_tool_count","process__lsass_access_count","process__image_load_count","process__remote_thread_count","process__process_tamper_count","process__psexec_count","process__wmic_count","process__mshta_count","process__rundll32_count","process__regsvr32_count","process__certutil_count","process__bitsadmin_count","process__schtasks_count","process__esentutl_count","process__total_lolbin_count","process__powershell_count","process__encoded_command_count","process__download_command_count","process__amsi_bypass_count","process__office_to_shell_count","process__browser_to_shell_count","process__pipe_event_count","process__pipe_attack_count","process__archive_drop_count","process__user_exe_drop_count","process__file_create_count","process__unique_image_count","process__unique_parent_count","network__total_connections","network__connections_per_minute","network__total_lateral_count","network__smb_count","network__rdp_count","network__winrm_count","network__wmi_count","network__ssh_count","network__netbios_count","network__telnet_count","network__unique_dest_ips","network__unique_dest_ports","network__unique_source_processes","network__internal_connection_count","network__external_connection_count","network__internal_to_external_ratio","network__shell_initiated_count","network__lolbin_initiated_count","network__shell_lateral_count","network__total_bytes_sent","network__total_bytes_received","network__max_bytes_per_connection","temporal__total_event_count","temporal__window_duration_seconds","temporal__events_per_minute","temporal__burst_factor","temporal__per_minute_stdev","temporal__active_minute_count","temporal__off_hours_ratio","temporal__night_hours_ratio","temporal__weekend_ratio","temporal__inter_event_interval_mean","temporal__inter_event_interval_cv","temporal__inter_event_interval_min","temporal__inter_event_interval_max","behavioral__pth_chain_count","behavioral__bruteforce_success_count","behavioral__auth_then_network_count","behavioral__auth_then_process_count","behavioral__priv_escalation_chain","behavioral__unique_users_overall","behavioral__unique_hosts_overall","behavioral__unique_processes_overall","behavioral__host_user_pair_count","behavioral__entity_diversity_score"],"feature_types":[],"gradient_booster":{"model":{"cats":{"enc":[],"feature_segments":[],"sorted_idx":[]},"gbtree_model_param":{"num_parallel_tree":"1","num_trees":"21"},"iteration_indptr":[0,1,2,3,4,5,6,7,8,9,10,11,12,13,14,15,16,17,18,19,20,21],"tree_info":[0,0,0,0,0,0,0,0,0,0,0,0,0,0,0,0,0,0,0,0,0],"trees":[{"base_weights":[4.9795983E-3,-1.9976282E-1,1.9754953E0,-1.6363637E-1,1.9964808E-1],"categories":[],"categories_nodes":[],"categories_segments":[],"categories_sizes":[],"default_left":[0,0,0,0,0],"id":0,"left_children":[1,-1,3,-1,-1],"loss_changes":[6.7094004E3,0E0,6.822363E1,0E0,0E0],"parents":[2147483647,0,0,2,2],"right_children":[2,-1,4,-1,-1],"split_conditions":[1.3863636E1,-1.9976282E-1,2.3E1,-1.6363637E-1,1.9964808E-1],"split_indices":[135,0,134,0,0],"split_type":[0,0,0,0,0],"sum_hessian":[1.6982307E3,8.4225E2,8.559807E2,4.5E0,8.514807E2],"tree_param":{"num_deleted":"0","num_feature":"156","num_nodes":"5","size_leaf_vector":"1"}},{"base_weights":[-9.384908E-2,-1.8169497E-1,1.6014571E0,1.8166476E-1,-1.7820051E-1],"categories":[],"categories_nodes":[],"categories_segments":[],"categories_sizes":[],"default_left":[0,0,0,0,0],"id":1,"left_children":[1,-1,3,-1,-1],"loss_changes":[4.7255786E3,0E0,5.969592E2,0E0,0E0],"parents":[2147483647,0,0,2,2],"right_children":[2,-1,4,-1,-1],"split_conditions":[1.875E0,-1.8169497E-1,5.0508475E0,1.8166476E-1,-1.7820051E-1],"split_indices":[136,0,142,0,0],"split_type":[0,0,0,0,0],"sum_hessian":[1.6156974E3,8.012447E2,8.144527E2,7.6618585E2,4.8266872E1],"tree_param":{"num_deleted":"0","num_feature":"156","num_nodes":"5","size_leaf_vector":"1"}},{"base_weights":[7.1968526E-2,-1.681163E-1,1.6810873E-1],"categories":[],"categories_nodes":[],"categories_segments":[],"categories_sizes":[],"default_left":[0,0,0],"id":2,"left_children":[1,-1,-1],"loss_changes":[4.8512944E3,0E0,0E0],"parents":[2147483647,0,0],"right_children":[2,-1,-1],"split_conditions":[9.899495E0,-1.681163E-1,1.6810873E-1],"split_indices":[137,0,0],"split_type":[0,0,0],"sum_hessian":[1.7177074E3,8.2204565E2,8.9566174E2],"tree_param":{"num_deleted":"0","num_feature":"156","num_nodes":"3","size_leaf_vector":"1"}},{"base_weights":[-2.553526E-1,-1.5755203E-1,1.5745434E-1],"categories":[],"categories_nodes":[],"categories_segments":[],"categories_sizes":[],"default_left":[0,0,0],"id":3,"left_children":[1,-1,-1],"loss_changes":[3.3175881E3,0E0,0E0],"parents":[2147483647,0,0],"right_children":[2,-1,-1],"split_conditions":[5.477226E0,-1.5755203E-1,1.5745434E-1],"split_indices":[137,0,0],"split_type":[0,0,0],"sum_hessian":[1.3712781E3,7.966666E2,5.7461145E2],"tree_param":{"num_deleted":"0","num_feature":"156","num_nodes":"3","size_leaf_vector":"1"}},{"base_weights":[1.7093049E-1,1.368407E0,-1.4910786E-1,-1.4692275E-1,1.5562264E0,2.3294924E-1,1.4825668E0,1.4913675E-1,-1.0581422E-1],"categories":[],"categories_nodes":[],"categories_segments":[],"categories_sizes":[],"default_left":[0,0,0,0,0,0,0,0,0],"id":4,"left_children":[1,3,-1,-1,5,-1,7,-1,-1],"loss_changes":[3.2865713E3,5.1379346E2,0E0,0E0,4.7845703E1,0E0,2.0026001E1,0E0,0E0],"parents":[2147483647,0,0,1,1,4,4,6,6],"right_children":[2,4,-1,-1,6,-1,8,-1,-1],"split_conditions":[5.0508475E0,3.6261886E-2,-1.4910786E-1,-1.4692275E-1,5.6E1,2.3294924E-1,3E2,1.4913675E-1,-1.0581422E-1],"split_indices":[142,143,0,0,134,0,30,0,0],"split_type":[0,0,0,0,0,0,0,0,0],"sum_hessian":[1.6493383E3,9.5874194E2,6.905963E2,5.9094913E1,8.9964703E2,7.558128E1,8.2406573E2,8.216328E2,2.432975E0],"tree_param":{"num_deleted":"0","num_feature":"156","num_nodes":"9","size_leaf_vector":"1"}},{"base_weights":[1.0085459E-1,1.2785819E0,-1.4228213E-1,-1.4033116E-1,1.4774048E0,2.0510899E-1,1.4126315E0,1.4228557E-1,-1.03740215E-1],"categories":[],"categories_nodes":[],"categories_segments":[],"categories_sizes":[],"default_left":[0,0,0,0,0,0,0,0,0],"id":5,"left_children":[1,3,-1,-1,5,-1,7,-1,-1],"loss_changes":[2.7097078E3,4.561963E2,0E0,0E0,2.6583496E1,0E0,1.9414062E1,0E0,0E0],"parents":[2147483647,0,0,1,1,4,4,6,6],"right_children":[2,4,-1,-1,6,-1,8,-1,-1],"split_conditions":[5.0508475E0,4E0,-1.4228213E-1,-1.4033116E-1,1.6E1,2.0510899E-1,3E2,1.4228557E-1,-1.03740215E-1],"split_indices":[142,133,0,0,133,0,30,0,0],"split_type":[0,0,0,0,0,0,0,0,0],"sum_hessian":[1.5080146E3,8.506582E2,6.573565E2,5.8293118E1,7.9236505E2,7.727657E1,7.150885E2,7.1253424E2,2.5542352E0],"tree_param":{"num_deleted":"0","num_feature":"156","num_nodes":"9","size_leaf_vector":"1"}},{"base_weights":[9.9286914E-2,-1.3667046E-1,1.4083486E0,-1.0140071E-1,1.4182318E0,1.8537375E-1,1.3654722E-1],"categories":[],"categories_nodes":[],"categories_segments":[],"categories_sizes":[],"default_left":[0,0,0,0,0,0,0],"id":6,"left_children":[1,-1,3,-1,5,-1,-1],"loss_changes":[2.7279226E3,0E0,1.941504E1,0E0,1.4661621E1,0E0,0E0],"parents":[2147483647,0,0,2,2,4,4],"right_children":[2,-1,4,-1,6,-1,-1],"split_conditions":[1.3863636E1,-1.3667046E-1,5E0,-1.0140071E-1,1.6E1,1.8537375E-1,1.3654722E-1],"split_indices":[135,0,133,0,133,0,0],"split_type":[0,0,0,0,0,0,0],"sum_hessian":[1.4194763E3,6.6958154E2,7.498947E2,2.634307E0,7.4726044E2,7.705686E1,6.7020355E2],"tree_param":{"num_deleted":"0","num_feature":"156","num_nodes":"7","size_leaf_vector":"1"}},{"base_weights":[1.4467627E-1,-1.3195625E-1,1.3496457E0,-9.9294595E-2,1.3592913E0,1.7066576E-1,1.3185214E-1],"categories":[],"categories_nodes":[],"categories_segments":[],"categories_sizes":[],"default_left":[0,0,0,0,0,0,0],"id":7,"left_children":[1,-1,3,-1,5,-1,-1],"loss_changes":[2.4549553E3,0E0,1.8595337E1,0E0,8.520264E0,0E0,0E0],"parents":[2147483647,0,0,2,2,4,4],"right_children":[2,-1,4,-1,6,-1,-1],"split_conditions":[1.3863636E1,-1.3195625E-1,3E0,-9.9294595E-2,1E0,1.7066576E-1,1.3185214E-1],"split_indices":[135,0,153,0,136,0,0],"split_type":[0,0,0,0,0,0,0],"sum_hessian":[1.3894023E3,6.2717957E2,7.6222284E2,2.7075555E0,7.5951526E2,7.548784E1,6.840274E2],"tree_param":{"num_deleted":"0","num_feature":"156","num_nodes":"7","size_leaf_vector":"1"}},{"base_weights":[4.6217345E-2,-1.2801163E-1,1.2797517E-1],"categories":[],"categories_nodes":[],"categories_segments":[],"categories_sizes":[],"default_left":[0,0,0],"id":8,"left_children":[1,-1,-1],"loss_changes":[2.0147681E3,0E0,0E0],"parents":[2147483647,0,0],"right_children":[2,-1,-1],"split_conditions":[5.01996E0,-1.2801163E-1,1.2797517E-1],"split_indices":[137,0,0],"split_type":[0,0,0],"sum_hessian":[1.2294608E3,5.9242725E2,6.3703357E2],"tree_param":{"num_deleted":"0","num_feature":"156","num_nodes":"3","size_leaf_vector":"1"}},{"base_weights":[-1.2296963E-1,-1.2461585E-1,1.24510646E-1],"categories":[],"categories_nodes":[],"categories_segments":[],"categories_sizes":[],"default_left":[0,0,0],"id":9,"left_children":[1,-1,-1],"loss_changes":[1.5147932E3,0E0,0E0],"parents":[2147483647,0,0],"right_children":[2,-1,-1],"split_conditions":[9.899495E0,-1.2461585E-1,1.24510646E-1],"split_indices":[137,0,0],"split_type":[0,0,0],"sum_hessian":[9.837936E2,5.402984E2,4.434952E2],"tree_param":{"num_deleted":"0","num_feature":"156","num_nodes":"3","size_leaf_vector":"1"}},{"base_weights":[7.771273E-2,-1.2165638E-1,1.2851746E0,-9.001784E-2,1.2973332E0,1.7683901E-1,1.214829E-1],"categories":[],"categories_nodes":[],"categories_segments":[],"categories_sizes":[],"default_left":[0,0,0,0,0,0,0],"id":10,"left_children":[1,-1,3,-1,5,-1,-1],"loss_changes":[1.6197429E3,0E0,1.5414368E1,0E0,1.859021E1,0E0,0E0],"parents":[2147483647,0,0,2,2,4,4],"right_children":[2,-1,4,-1,6,-1,-1],"split_conditions":[1.3863636E1,-1.2165638E-1,5E0,-9.001784E-2,1.6E1,1.7683901E-1,1.214829E-1],"split_indices":[135,0,133,0,133,0,0],"split_type":[0,0,0,0,0,0,0],"sum_hessian":[1.0344429E3,4.9926932E2,5.351735E2,2.5569463E0,5.326166E2,7.633707E1,4.5627954E2],"tree_param":{"num_deleted":"0","num_feature":"156","num_nodes":"7","size_leaf_vector":"1"}},{"base_weights":[4.4296212E-2,-1.1916057E-1,1.1914923E-1],"categories":[],"categories_nodes":[],"categories_segments":[],"categories_sizes":[],"default_left":[0,0,0],"id":11,"left_children":[1,-1,-1],"loss_changes":[1.3839435E3,0E0,0E0],"parents":[2147483647,0,0],"right_children":[2,-1,-1],"split_conditions":[9.899495E0,-1.1916057E-1,1.1914923E-1],"split_indices":[137,0,0],"split_type":[0,0,0],"sum_hessian":[9.7410406E2,4.6890393E2,5.0520013E2],"tree_param":{"num_deleted":"0","num_feature":"156","num_nodes":"3","size_leaf_vector":"1"}},{"base_weights":[1.308111E-1,-1.1694461E-1,1.2428113E0,-8.616704E-2,1.2550428E0,1.7244315E-1,1.1678673E-1],"categories":[],"categories_nodes":[],"categories_segments":[],"categories_sizes":[],"default_left":[0,0,0,0,0,0,0],"id":12,"left_children":[1,-1,3,-1,5,-1,-1],"loss_changes":[1.3574885E3,0E0,1.4106628E1,0E0,1.8588562E1,0E0,0E0],"parents":[2147483647,0,0,2,2,4,4],"right_children":[2,-1,4,-1,6,-1,-1],"split_conditions":[1.3863636E1,-1.1694461E-1,5E0,-8.616704E-2,1.6E1,1.7244315E-1,1.1678673E-1],"split_indices":[135,0,133,0,133,0,0],"split_type":[0,0,0,0,0,0,0],"sum_hessian":[9.368575E2,4.3184787E2,5.0500958E2,2.5169215E0,5.0249265E2,7.576446E1,4.267282E2],"tree_param":{"num_deleted":"0","num_feature":"156","num_nodes":"7","size_leaf_vector":"1"}},{"base_weights":[1.7723574E-1,-1.1502208E-1,1.2083781E0,-8.482904E-2,1.2203287E0,1.6069382E-1,1.1504197E-1],"categories":[],"categories_nodes":[],"categories_segments":[],"categories_sizes":[],"default_left":[0,0,0,0,0,0,0],"id":13,"left_children":[1,-1,3,-1,5,-1,-1],"loss_changes":[1.2273893E3,0E0,1.3437195E1,0E0,1.1721436E1,0E0,0E0],"parents":[2147483647,0,0,2,2,4,4],"right_children":[2,-1,4,-1,6,-1,-1],"split_conditions":[1.3863636E1,-1.1502208E-1,5E0,-8.482904E-2,1.6E1,1.6069382E-1,1.1504197E-1],"split_indices":[135,0,133,0,133,0,0],"split_type":[0,0,0,0,0,0,0],"sum_hessian":[8.946769E2,3.9108817E2,5.035887E2,2.504994E0,5.010837E2,7.3366554E1,4.2771716E2],"tree_param":{"num_deleted":"0","num_feature":"156","num_nodes":"7","size_leaf_vector":"1"}},{"base_weights":[8.872732E-2,-1.1333688E-1,1.1911651E0,-7.645696E-2,1.2022654E0,1.5139566E-1,1.1309099E-1],"categories":[],"categories_nodes":[],"categories_segments":[],"categories_sizes":[],"default_left":[0,0,0,0,0,0,0],"id":14,"left_children":[1,-1,3,-1,5,-1,-1],"loss_changes":[1.026404E3,0E0,9.613342E0,0E0,7.1533203E0,0E0,0E0],"parents":[2147483647,0,0,2,2,4,4],"right_children":[2,-1,4,-1,6,-1,-1],"split_conditions":[1.3863636E1,-1.1333688E-1,2.3E1,-7.645696E-2,5.6E1,1.5139566E-1,1.1309099E-1],"split_indices":[135,0,134,0,134,0,0],"split_type":[0,0,0,0,0,0,0],"sum_hessian":[7.5982935E2,3.6034476E2,3.9948456E2,1.8714813E0,3.976131E2,7.030276E1,3.2731033E2],"tree_param":{"num_deleted":"0","num_feature":"156","num_nodes":"7","size_leaf_vector":"1"}},{"base_weights":[-5.5022344E-2,-1.119225E-1,1.1181475E-1],"categories":[],"categories_nodes":[],"categories_segments":[],"categories_sizes":[],"default_left":[0,0,0],"id":15,"left_children":[1,-1,-1],"loss_changes":[7.893329E2,0E0,0E0],"parents":[2147483647,0,0],"right_children":[2,-1,-1],"split_conditions":[9.899495E0,-1.119225E-1,1.1181475E-1],"split_indices":[137,0,0],"split_type":[0,0,0],"sum_hessian":[6.302273E2,3.304848E2,2.997425E2],"tree_param":{"num_deleted":"0","num_feature":"156","num_nodes":"3","size_leaf_vector":"1"}},{"base_weights":[1.9016698E-1,-1.10531844E-1,1.1655548E0,-7.0897065E-2,1.1749773E0,1.4932625E-1,1.10356115E-1],"categories":[],"categories_nodes":[],"categories_segments":[],"categories_sizes":[],"default_left":[0,0,0,0,0,0,0],"id":16,"left_children":[1,-1,3,-1,5,-1,-1],"loss_changes":[8.8948083E2,0E0,7.9242554E0,0E0,7.440918E0,0E0,0E0],"parents":[2147483647,0,0,2,2,4,4],"right_children":[2,-1,4,-1,6,-1,-1],"split_conditions":[1.3863636E1,-1.10531844E-1,2.3E1,-7.0897065E-2,5.6E1,1.4932625E-1,1.10356115E-1],"split_indices":[135,0,134,0,134,0,0],"split_type":[0,0,0,0,0,0,0],"sum_hessian":[7.019061E2,3.014262E2,4.004799E2,1.6316674E0,3.9884824E2,6.944377E1,3.2940445E2],"tree_param":{"num_deleted":"0","num_feature":"156","num_nodes":"7","size_leaf_vector":"1"}},{"base_weights":[-3.016792E-3,-1.0942447E-1,9.7112817E-1,1.0936325E-1,-1.03467785E-1],"categories":[],"categories_nodes":[],"categories_segments":[],"categories_sizes":[],"default_left":[0,0,0,0,0],"id":17,"left_children":[1,-1,3,-1,-1],"loss_changes":[5.8997375E2,0E0,7.318472E1,0E0,0E0],"parents":[2147483647,0,0,2,2],"right_children":[2,-1,4,-1,-1],"split_conditions":[1.875E0,-1.0942447E-1,5.0508475E0,1.0936325E-1,-1.03467785E-1],"split_indices":[136,0,142,0,0],"split_type":[0,0,0,0,0],"sum_hessian":[5.5300116E2,2.6076804E2,2.9223315E2,2.7584097E2,1.639218E1],"tree_param":{"num_deleted":"0","num_feature":"156","num_nodes":"5","size_leaf_vector":"1"}},{"base_weights":[1.0065663E-1,-1.0831218E-1,1.1681557E0,-7.044163E-2,1.1822392E0,1.4731361E-1,1.0789716E-1],"categories":[],"categories_nodes":[],"categories_segments":[],"categories_sizes":[],"default_left":[0,0,0,0,0,0,0],"id":18,"left_children":[1,-1,3,-1,5,-1,-1],"loss_changes":[6.671652E2,0E0,8.152863E0,0E0,6.6976624E0,0E0,0E0],"parents":[2147483647,0,0,2,2,4,4],"right_children":[2,-1,4,-1,6,-1,-1],"split_conditions":[1.3863636E1,-1.0831218E-1,5E0,-7.044163E-2,1.6E1,1.4731361E-1,1.0789716E-1],"split_indices":[135,0,133,0,133,0,0],"split_type":[0,0,0,0,0,0,0],"sum_hessian":[5.25952E2,2.4938625E2,2.7656577E2,1.6986103E0,2.7486716E2,6.853741E1,2.0632974E2],"tree_param":{"num_deleted":"0","num_feature":"156","num_nodes":"7","size_leaf_vector":"1"}},{"base_weights":[1.390254E-1,-1.07378356E-1,1.1451083E0,-6.5427065E-2,1.1568557E0,1.4052251E-1,1.0734024E-1],"categories":[],"categories_nodes":[],"categories_segments":[],"categories_sizes":[],"default_left":[0,0,0,0,0,0,0],"id":19,"left_children":[1,-1,3,-1,5,-1,-1],"loss_changes":[6.17006E2,0E0,6.597748E0,0E0,4.189331E0,0E0,0E0],"parents":[2147483647,0,0,2,2,4,4],"right_children":[2,-1,4,-1,6,-1,-1],"split_conditions":[1.3863636E1,-1.07378356E-1,5E0,-6.5427065E-2,1.6E1,1.4052251E-1,1.0734024E-1],"split_indices":[135,0,133,0,133,0,0],"split_type":[0,0,0,0,0,0,0],"sum_hessian":[5.0365756E2,2.283363E2,2.7532126E2,1.4310229E0,2.7389023E2,6.489995E1,2.089903E2],"tree_param":{"num_deleted":"0","num_feature":"156","num_nodes":"7","size_leaf_vector":"1"}},{"base_weights":[1.678303E-1,-1.0654493E-1,1.1196089E0,-6.517843E-2,1.1313905E0,1.3488357E-1,1.0619879E-1],"categories":[],"categories_nodes":[],"categories_segments":[],"categories_sizes":[],"default_left":[0,0,0,0,0,0,0],"id":20,"left_children":[1,-1,3,-1,5,-1,-1],"loss_changes":[5.686948E2,0E0,6.442505E0,0E0,2.6712646E0,0E0,0E0],"parents":[2147483647,0,0,2,2,4,4],"right_children":[2,-1,4,-1,6,-1,-1],"split_conditions":[1.3863636E1,-1.0654493E-1,5E0,-6.517843E-2,1.6E1,1.3488357E-1,1.0619879E-1],"split_indices":[135,0,133,0,133,0,0],"split_type":[0,0,0,0,0,0,0],"sum_hessian":[4.824704E2,2.1010486E2,2.7236554E2,1.4406327E0,2.7092493E2,6.1089714E1,2.098352E2],"tree_param":{"num_deleted":"0","num_feature":"156","num_nodes":"7","size_leaf_vector":"1"}}]},"name":"gbtree"},"learner_model_param":{"base_score":"[5E-1]","boost_from_average":"1","num_class":"0","num_feature":"156","num_target":"1"},"objective":{"name":"binary:logistic","reg_loss_param":{"scale_pos_weight":"309.538452"}}},"version":[3,2,0]}