{"learner":{"attributes":{"best_iteration":"2","best_score":"1.0"},"feature_names":["dns__query_count","dns__query_rate_per_minute","dns__avg_query_length","dns__max_query_length","dns__avg_entropy","dns__max_entropy","dns__avg_subdomain_depth","dns__max_label_length","dns__avg_label_length","dns__label_entropy_max","dns__unique_subdomain_ratio","dns__base64_pattern_count","dns__hex_pattern_count","dns__numeric_ratio","dns__subdomain_has_numbers_ratio","dns__unique_base_domains","dns__top_domain_query_ratio","dns__max_unique_subdomains_per_domain","dns__txt_record_ratio","dns__null_record_ratio","dns__mx_record_ratio","dns__cname_record_ratio","dns__any_record_ratio","dns__tunneling_type_ratio","dns__record_type_count","dns__avg_response_size","dns__max_response_size","dns__response_variance","dns__nxdomain_ratio","dns__fast_flux_ratio","dns__min_ttl","dns__ttl_variance","dns__inter_query_interval_mean","dns__inter_query_interval_cv","dns__unique_process_count","dns__non_browser_dns_ratio","dns__non_standard_dns_ratio","dns__nx_subdomains_per_top_domain","dns__nx_top_domain_query_ratio","dns__consonant_run_max","dns__digit_letter_run_max","dns__vowel_ratio_min","auth__total_auth_events","auth__successful_logon_count","auth__failed_logon_count","auth__failed_logon_ratio","auth__network_logon_count","auth__interactive_logon_count","auth__remote_interactive_logon_count","auth__service_logon_count","auth__cleartext_logon_count","auth__network_logon_ratio","auth__explicit_credential_count","auth__ntlm_count","auth__kerberos_tgt_count","auth__kerberos_tgs_count","auth__special_logon_count","auth__unique_privileged_users","auth__unique_users","auth__unique_target_hosts","auth__unique_source_ips","auth__lateral_velocity_per_min","auth__max_hosts_per_user","auth__max_failures_per_user","auth__unique_failed_users","auth__max_users_per_source","auth__account_created_count","auth__account_enabled_count","auth__password_reset_count","auth__account_disabled_count","auth__account_deleted_count","auth__account_changed_count","auth__success_after_failures","auth__time_to_first_success_secs","auth__offhours_logon_count","auth__offhours_interactive_count","auth__psexec_invocations","auth__wmic_invocations","auth__winrm_invocations","auth__schtasks_invocations","auth__powershell_encoded_count","auth__lsass_access_count","process__total_process_events","process__credential_tool_count","process__lsass_access_count","process__image_load_count","process__remote_thread_count","process__process_tamper_count","process__psexec_count","process__wmic_count","process__mshta_count","process__rundll32_count","process__regsvr32_count","process__certutil_count","process__bitsadmin_count","process__schtasks_count","process__esentutl_count","process__total_lolbin_count","process__powershell_count","process__encoded_command_count","process__download_command_count","process__amsi_bypass_count","process__office_to_shell_count","process__browser_to_shell_count","process__pipe_event_count","process__pipe_attack_count","process__archive_drop_count","process__user_exe_drop_count","process__file_create_count","process__unique_image_count","process__unique_parent_count","network__total_connections","network__connections_per_minute","network__total_lateral_count","network__smb_count","network__rdp_count","network__winrm_count","network__wmi_count","network__ssh_count","network__netbios_count","network__telnet_count","network__unique_dest_ips","network__unique_dest_ports","network__unique_source_processes","network__internal_connection_count","network__external_connection_count","network__internal_to_external_ratio","network__shell_initiated_count","network__lolbin_initiated_count","network__shell_lateral_count","network__total_bytes_sent","network__total_bytes_received","network__max_bytes_per_connection","temporal__total_event_count","temporal__window_duration_seconds","temporal__events_per_minute","temporal__burst_factor","temporal__per_minute_stdev","temporal__active_minute_count","temporal__off_hours_ratio","temporal__night_hours_ratio","temporal__weekend_ratio","temporal__inter_event_interval_mean","temporal__inter_event_interval_cv","temporal__inter_event_interval_min","temporal__inter_event_interval_max","behavioral__pth_chain_count","behavioral__bruteforce_success_count","behavioral__auth_then_network_count","behavioral__auth_then_process_count","behavioral__priv_escalation_chain","behavioral__unique_users_overall","behavioral__unique_hosts_overall","behavioral__unique_processes_overall","behavioral__host_user_pair_count","behavioral__entity_diversity_score"],"feature_types":[],"gradient_booster":{"model":{"cats":{"enc":[],"feature_segments":[],"sorted_idx":[]},"gbtree_model_param":{"num_parallel_tree":"1","num_trees":"23"},"iteration_indptr":[0,1,2,3,4,5,6,7,8,9,10,11,12,13,14,15,16,17,18,19,20,21,22,23],"tree_info":[0,0,0,0,0,0,0,0,0,0,0,0,0,0,0,0,0,0,0,0,0,0,0],"trees":[{"base_weights":[-1.1572317E-1,-1.9976346E-1,1.9973442E-1],"categories":[],"categories_nodes":[],"categories_segments":[],"categories_sizes":[],"default_left":[0,0,0],"id":0,"left_children":[1,-1,-1],"loss_changes":[6.356865E3,0E0,0E0],"parents":[2147483647,0,0],"right_children":[2,-1,-1],"split_conditions":[5.176872E0,-1.9976346E-1,1.9973442E-1],"split_indices":[137,0,0],"split_type":[0,0,0],"sum_hessian":[1.5965625E3,8.445E2,7.520625E2],"tree_param":{"num_deleted":"0","num_feature":"156","num_nodes":"3","size_leaf_vector":"1"}},{"base_weights":[1.00686125E-1,1.6268371E0,-1.8167435E-1,-1.7869799E-1,1.8331066E0,1.8437784E0,-1.330327E-1,1.8168569E-1,2.1858867E-1],"categories":[],"categories_nodes":[],"categories_segments":[],"categories_sizes":[],"default_left":[0,0,0,0,0,0,0,0,0],"id":1,"left_children":[1,3,-1,-1,5,7,-1,-1,-1],"loss_changes":[5.2052954E3,7.007009E2,0E0,0E0,3.400049E1,4.6103516E0,0E0,0E0,0E0],"parents":[2147483647,0,0,1,1,4,4,5,5],"right_children":[2,4,-1,-1,6,8,-1,-1,-1],"split_conditions":[5.034483E0,7E0,-1.8167435E-1,-1.7869799E-1,3E2,1E0,-1.330327E-1,1.8168569E-1,2.1858867E-1],"split_indices":[142,145,0,0,30,74,0,0,0],"split_type":[0,0,0,0,0,0,0,0,0],"sum_hessian":[1.7767957E3,9.894269E2,7.873688E2,5.5940067E1,9.334868E2,9.3076404E2,2.7227466E0,8.6871326E2,6.2050774E1],"tree_param":{"num_deleted":"0","num_feature":"156","num_nodes":"9","size_leaf_vector":"1"}},{"base_weights":[4.0112983E-2,1.4765005E0,-1.6807745E-1,-1.6565415E-1,1.6931645E0,1.7029275E0,-1.2166548E-1,1.95023E-1,1.680752E-1],"categories":[],"categories_nodes":[],"categories_segments":[],"categories_sizes":[],"default_left":[0,0,0,0,0,0,0,0,0],"id":2,"left_children":[1,3,-1,-1,5,7,-1,-1,-1],"loss_changes":[4.1282915E3,6.2072437E2,0E0,0E0,2.6273682E1,1.3808594E0,0E0,0E0,0E0],"parents":[2147483647,0,0,1,1,4,4,5,5],"right_children":[2,4,-1,-1,6,8,-1,-1,-1],"split_conditions":[5.034483E0,4E0,-1.6807745E-1,-1.6565415E-1,3E2,1.6E1,-1.2166548E-1,1.95023E-1,1.680752E-1],"split_indices":[142,133,0,0,30,133,0,0,0],"split_type":[0,0,0,0,0,0,0,0,0],"sum_hessian":[1.6681105E3,9.092888E2,7.588217E2,5.8384285E1,8.5090454E2,8.484725E2,2.4320369E0,6.2666325E1,7.8580615E2],"tree_param":{"num_deleted":"0","num_feature":"156","num_nodes":"9","size_leaf_vector":"1"}},{"base_weights":[-2.5267173E-2,-1.575559E-1,1.5667502E0,-1.2609445E-1,1.5830292E0,1.593914E-1,-1.1646416E-1],"categories":[],"categories_nodes":[],"categories_segments":[],"categories_sizes":[],"default_left":[0,0,0,0,0,0,0],"id":3,"left_children":[1,-1,3,-1,5,-1,-1],"loss_changes":[3.8396292E3,0E0,3.7327026E1,0E0,2.4693726E1,0E0,0E0],"parents":[2147483647,0,0,2,2,4,4],"right_children":[2,-1,4,-1,6,-1,-1],"split_conditions":[1.328859E1,-1.575559E-1,4E0,-1.2609445E-1,4.5079365E0,1.593914E-1,-1.1646416E-1],"split_indices":[135,0,133,0,32,0,0],"split_type":[0,0,0,0,0,0,0],"sum_hessian":[1.5537078E3,7.871747E2,7.665331E2,3.9499948E0,7.6258307E2,7.5999225E2,2.5908136E0],"tree_param":{"num_deleted":"0","num_feature":"156","num_nodes":"7","size_leaf_vector":"1"}},{"base_weights":[3.712697E-2,1.3130857E0,-1.4910738E-1,-1.468548E-1,1.4991714E0,1.5054822E-1,-9.638789E-2],"categories":[],"categories_nodes":[],"categories_segments":[],"categories_sizes":[],"default_left":[0,0,0,0,0,0,0],"id":4,"left_children":[1,3,-1,-1,5,-1,-1],"loss_changes":[2.9891768E3,4.346328E2,0E0,0E0,1.3630249E1,0E0,0E0],"parents":[2147483647,0,0,1,1,4,4],"right_children":[2,4,-1,-1,6,-1,-1],"split_conditions":[5.034483E0,7E0,-1.4910738E-1,-1.468548E-1,3E2,1.5054822E-1,-9.638789E-2],"split_indices":[142,145,0,0,30,0,0],"split_type":[0,0,0,0,0,0,0],"sum_hessian":[1.530969E3,8.344187E2,6.965503E2,5.188863E1,7.825301E2,7.8091797E2,1.6120899E0],"tree_param":{"num_deleted":"0","num_feature":"156","num_nodes":"7","size_leaf_vector":"1"}},{"base_weights":[7.742083E-2,1.2581922E0,-1.4227472E-1,-1.4006756E-1,1.4249777E0,1.4340775E-1,-1.07303105E-1],"categories":[],"categories_nodes":[],"categories_segments":[],"categories_sizes":[],"default_left":[0,0,0,0,0,0,0],"id":5,"left_children":[1,3,-1,-1,5,-1,-1],"loss_changes":[2.6744556E3,3.7664038E2,0E0,0E0,1.9620483E1,0E0,0E0],"parents":[2147483647,0,0,1,1,4,4],"right_children":[2,4,-1,-1,6,-1,-1],"split_conditions":[5.034483E0,4E0,-1.4227472E-1,-1.4006756E-1,3E2,1.4340775E-1,-1.07303105E-1],"split_indices":[142,133,0,0,30,0,0],"split_type":[0,0,0,0,0,0,0],"sum_hessian":[1.5078252E3,8.43821E2,6.6400415E2,4.9370235E1,7.944508E2,7.9199164E2,2.4591637E0],"tree_param":{"num_deleted":"0","num_feature":"156","num_nodes":"7","size_leaf_vector":"1"}},{"base_weights":[7.669499E-2,-1.3667713E-1,1.35115E0,-1.1073188E-1,1.3657821E0,1.3760184E-1,-1.048527E-1],"categories":[],"categories_nodes":[],"categories_segments":[],"categories_sizes":[],"default_left":[0,0,0,0,0,0,0],"id":6,"left_children":[1,-1,3,-1,5,-1,-1],"loss_changes":[2.6085662E3,0E0,2.8601685E1,0E0,1.995398E1,0E0,0E0],"parents":[2147483647,0,0,2,2,4,4],"right_children":[2,-1,4,-1,6,-1,-1],"split_conditions":[1.328859E1,-1.3667713E-1,4E0,-1.1073188E-1,4.5079365E0,1.3760184E-1,-1.048527E-1],"split_indices":[135,0,133,0,32,0,0],"split_type":[0,0,0,0,0,0,0],"sum_hessian":[1.415978E3,6.6392944E2,7.520486E2,4.0076904E0,7.480409E2,7.4531104E2,2.729884E0],"tree_param":{"num_deleted":"0","num_feature":"156","num_nodes":"7","size_leaf_vector":"1"}},{"base_weights":[7.328921E-2,-1.3195811E-1,1.3052102E0,-1.0265453E-1,1.3174334E0,1.3275553E-1,-1.0050088E-1],"categories":[],"categories_nodes":[],"categories_segments":[],"categories_sizes":[],"default_left":[0,0,0,0,0,0,0],"id":7,"left_children":[1,-1,3,-1,5,-1,-1],"loss_changes":[2.2784436E3,0E0,2.1434448E1,0E0,1.7821533E1,0E0,0E0],"parents":[2147483647,0,0,2,2,4,4],"right_children":[2,-1,4,-1,6,-1,-1],"split_conditions":[1.328859E1,-1.3195811E-1,7E0,-1.0265453E-1,3E2,1.3275553E-1,-1.0050088E-1],"split_indices":[135,0,145,0,30,0,0],"split_type":[0,0,0,0,0,0,0],"sum_hessian":[1.3258333E3,6.2223395E2,7.035993E2,3.236307E0,7.00363E2,6.9775037E2,2.6126394E0],"tree_param":{"num_deleted":"0","num_feature":"156","num_nodes":"7","size_leaf_vector":"1"}},{"base_weights":[2.156746E-2,-1.2797503E-1,1.2630991E0,-9.99398E-2,1.2762629E0,1.2871315E-1,-9.70716E-2],"categories":[],"categories_nodes":[],"categories_segments":[],"categories_sizes":[],"default_left":[0,0,0,0,0,0,0],"id":8,"left_children":[1,-1,3,-1,5,-1,-1],"loss_changes":[1.9390459E3,0E0,1.9568115E1,0E0,1.617279E1,0E0,0E0],"parents":[2147483647,0,0,2,2,4,4],"right_children":[2,-1,4,-1,6,-1,-1],"split_conditions":[1.328859E1,-1.2797503E-1,4E0,-9.99398E-2,3E2,1.2871315E-1,-9.70716E-2],"split_indices":[135,0,133,0,30,0,0],"split_type":[0,0,0,0,0,0,0],"sum_hessian":[1.1981813E3,5.849901E2,6.1319116E2,3.11369E0,6.1007745E2,6.0756586E2,2.51161E0],"tree_param":{"num_deleted":"0","num_feature":"156","num_nodes":"7","size_leaf_vector":"1"}},{"base_weights":[3.1917304E-2,-1.24573484E-1,1.2253428E0,-1.0103867E-1,1.241445E0,1.252215E-1,-9.2911534E-2],"categories":[],"categories_nodes":[],"categories_segments":[],"categories_sizes":[],"default_left":[0,0,0,0,0,0,0],"id":9,"left_children":[1,-1,3,-1,5,-1,-1],"loss_changes":[1.6848917E3,0E0,2.18219E1,0E0,1.4434326E1,0E0,0E0],"parents":[2147483647,0,0,2,2,4,4],"right_children":[2,-1,4,-1,6,-1,-1],"split_conditions":[1.328859E1,-1.24573484E-1,4E0,-1.0103867E-1,3E2,1.252215E-1,-9.2911534E-2],"split_indices":[135,0,133,0,30,0,0],"split_type":[0,0,0,0,0,0,0],"sum_hessian":[1.1030035E3,5.326826E2,5.7032086E2,3.6366446E0,5.666842E2,5.6430725E2,2.376957E0],"tree_param":{"num_deleted":"0","num_feature":"156","num_nodes":"7","size_leaf_vector":"1"}},{"base_weights":[2.8784554E-2,-1.216537E-1,1.1977662E0,-9.499625E-2,1.2121943E0,1.22224405E-1,-8.766175E-2],"categories":[],"categories_nodes":[],"categories_segments":[],"categories_sizes":[],"default_left":[0,0,0,0,0,0,0],"id":10,"left_children":[1,-1,3,-1,5,-1,-1],"loss_changes":[1.492141E3,0E0,1.7534424E1,0E0,1.2104797E1,0E0,0E0],"parents":[2147483647,0,0,2,2,4,4],"right_children":[2,-1,4,-1,6,-1,-1],"split_conditions":[1.328859E1,-1.216537E-1,4E0,-9.499625E-2,3E2,1.22224405E-1,-8.766175E-2],"split_indices":[135,0,133,0,30,0,0],"split_type":[0,0,0,0,0,0,0],"sum_hessian":[1.0229915E3,4.953026E2,5.2768884E2,3.088619E0,5.246003E2,5.225013E2,2.0989861E0],"tree_param":{"num_deleted":"0","num_feature":"156","num_nodes":"7","size_leaf_vector":"1"}},{"base_weights":[9.882239E-2,-1.1912962E-1,1.1759957E0,-8.670494E-2,1.1861565E0,1.1958303E-1,-8.699867E-2],"categories":[],"categories_nodes":[],"categories_segments":[],"categories_sizes":[],"default_left":[0,0,0,0,0,0,0],"id":11,"left_children":[1,-1,3,-1,5,-1,-1],"loss_changes":[1.4173889E3,0E0,1.2566284E1,0E0,1.2049316E1,0E0,0E0],"parents":[2147483647,0,0,2,2,4,4],"right_children":[2,-1,4,-1,6,-1,-1],"split_conditions":[1.328859E1,-1.1912962E-1,4E0,-8.670494E-2,3E2,1.1958303E-1,-8.699867E-2],"split_indices":[135,0,133,0,30,0,0],"split_type":[0,0,0,0,0,0,0],"sum_hessian":[1.0179298E3,4.631337E2,5.5479614E2,2.328223E0,5.524679E2,5.5029724E2,2.170647E0],"tree_param":{"num_deleted":"0","num_feature":"156","num_nodes":"7","size_leaf_vector":"1"}},{"base_weights":[1.6716389E-2,-1.1694249E-1,1.1512443E0,-8.6981386E-2,1.1644542E0,1.17383614E-1,-7.902574E-2],"categories":[],"categories_nodes":[],"categories_segments":[],"categories_sizes":[],"default_left":[0,0,0,0,0,0,0],"id":12,"left_children":[1,-1,3,-1,5,-1,-1],"loss_changes":[1.1842638E3,0E0,1.3021423E1,0E0,9.130737E0,0E0,0E0],"parents":[2147483647,0,0,2,2,4,4],"right_children":[2,-1,4,-1,6,-1,-1],"split_conditions":[1.328859E1,-1.1694249E-1,4E0,-8.6981386E-2,3E2,1.17383614E-1,-7.902574E-2],"split_indices":[135,0,133,0,30,0,0],"split_type":[0,0,0,0,0,0,0],"sum_hessian":[8.780284E2,4.2923514E2,4.487932E2,2.4932406E0,4.463E2,4.445657E2,1.734284E0],"tree_param":{"num_deleted":"0","num_feature":"156","num_nodes":"7","size_leaf_vector":"1"}},{"base_weights":[6.340152E-2,-1.1501558E-1,1.1325699E0,-8.427143E-2,1.1450565E0,1.15399316E-1,-7.644385E-2],"categories":[],"categories_nodes":[],"categories_segments":[],"categories_sizes":[],"default_left":[0,0,0,0,0,0,0],"id":13,"left_children":[1,-1,3,-1,5,-1,-1],"loss_changes":[1.0799208E3,0E0,1.1877686E1,0E0,8.392151E0,0E0,0E0],"parents":[2147483647,0,0,2,2,4,4],"right_children":[2,-1,4,-1,6,-1,-1],"split_conditions":[1.328859E1,-1.1501558E-1,4E0,-8.427143E-2,4.5079365E0,1.15399316E-1,-7.644385E-2],"split_indices":[135,0,133,0,32,0,0],"split_type":[0,0,0,0,0,0,0],"sum_hessian":[8.303068E2,3.888583E2,4.4144855E2,2.35537E0,4.3909317E2,4.3744153E2,1.6516273E0],"tree_param":{"num_deleted":"0","num_feature":"156","num_nodes":"7","size_leaf_vector":"1"}},{"base_weights":[-1.8912554E-2,-1.1333366E-1,1.1111256E0,-8.170469E-2,1.1256472E0,1.1370188E-1,-7.6180205E-2],"categories":[],"categories_nodes":[],"categories_segments":[],"categories_sizes":[],"default_left":[0,0,0,0,0,0,0],"id":14,"left_children":[1,-1,3,-1,5,-1,-1],"loss_changes":[8.9751996E2,0E0,1.0828186E1,0E0,8.413818E0,0E0,0E0],"parents":[2147483647,0,0,2,2,4,4],"right_children":[2,-1,4,-1,6,-1,-1],"split_conditions":[1.328859E1,-1.1333366E-1,1.7E1,-8.170469E-2,3E2,1.1370188E-1,-7.6180205E-2],"split_indices":[135,0,134,0,30,0,0],"split_type":[0,0,0,0,0,0,0],"sum_hessian":[7.106899E2,3.5781552E2,3.5287436E2,2.224612E0,3.5064975E2,3.4894498E2,1.7047684E0],"tree_param":{"num_deleted":"0","num_feature":"156","num_nodes":"7","size_leaf_vector":"1"}},{"base_weights":[2.4724882E-2,-1.11840345E-1,1.0928524E0,-8.31631E-2,1.1089267E0,1.12165E-1,-7.838083E-2],"categories":[],"categories_nodes":[],"categories_segments":[],"categories_sizes":[],"default_left":[0,0,0,0,0,0,0],"id":15,"left_children":[1,-1,3,-1,5,-1,-1],"loss_changes":[8.249831E2,0E0,1.1726959E1,0E0,9.231018E0,0E0,0E0],"parents":[2147483647,0,0,2,2,4,4],"right_children":[2,-1,4,-1,6,-1,-1],"split_conditions":[1.328859E1,-1.11840345E-1,4E0,-8.31631E-2,3E2,1.12165E-1,-7.838083E-2],"split_indices":[135,0,133,0,30,0,0],"split_type":[0,0,0,0,0,0,0],"sum_hessian":[6.7365704E2,3.2538132E2,3.4827573E2,2.464613E0,3.458111E2,3.4390668E2,1.9044096E0],"tree_param":{"num_deleted":"0","num_feature":"156","num_nodes":"7","size_leaf_vector":"1"}},{"base_weights":[9.4562106E-2,-1.10529736E-1,1.0840446E0,-8.190492E-2,1.0991415E0,1.1081191E-1,-6.9208644E-2],"categories":[],"categories_nodes":[],"categories_segments":[],"categories_sizes":[],"default_left":[0,0,0,0,0,0,0],"id":16,"left_children":[1,-1,3,-1,5,-1,-1],"loss_changes":[7.8793494E2,0E0,1.1348907E1,0E0,6.5760193E0,0E0,0E0],"parents":[2147483647,0,0,2,2,4,4],"right_children":[2,-1,4,-1,6,-1,-1],"split_conditions":[1.328859E1,-1.10529736E-1,1.7E1,-8.190492E-2,3E2,1.1081191E-1,-6.9208644E-2],"split_indices":[135,0,134,0,30,0,0],"split_type":[0,0,0,0,0,0,0],"sum_hessian":[6.616603E2,2.989873E2,3.6267297E2,2.4352436E0,3.602377E2,3.5882065E2,1.4170637E0],"tree_param":{"num_deleted":"0","num_feature":"156","num_nodes":"7","size_leaf_vector":"1"}},{"base_weights":[2.2260545E-2,9.432867E-1,-1.0933497E-1,-1.0506391E-1,1.0859803E0,1.0961846E-1,-6.605744E-2],"categories":[],"categories_nodes":[],"categories_segments":[],"categories_sizes":[],"default_left":[0,0,0,0,0,0,0],"id":17,"left_children":[1,3,-1,-1,5,-1,-1],"loss_changes":[5.8215137E2,8.943799E1,0E0,0E0,5.8943787E0,0E0,0E0],"parents":[2147483647,0,0,1,1,4,4],"right_children":[2,4,-1,-1,6,-1,-1],"split_conditions":[5.034483E0,4E0,-1.0933497E-1,-1.0506391E-1,3E2,1.0961846E-1,-6.605744E-2],"split_indices":[142,133,0,0,30,0,0],"split_type":[0,0,0,0,0,0,0],"sum_hessian":[5.645635E2,3.093361E2,2.552274E2,2.0233994E1,2.8910208E2,2.8779303E2,1.3090621E0],"tree_param":{"num_deleted":"0","num_feature":"156","num_nodes":"7","size_leaf_vector":"1"}},{"base_weights":[9.731483E-2,-1.08313E-1,1.0643408E0,-6.772448E-2,1.0752527E0,1.08561836E-1,-6.7403E-2],"categories":[],"categories_nodes":[],"categories_segments":[],"categories_sizes":[],"default_left":[0,0,0,0,0,0,0],"id":18,"left_children":[1,-1,3,-1,5,-1,-1],"loss_changes":[6.3031256E2,0E0,6.495331E0,0E0,6.2072144E0,0E0,0E0],"parents":[2147483647,0,0,2,2,4,4],"right_children":[2,-1,4,-1,6,-1,-1],"split_conditions":[1.328859E1,-1.08313E-1,4E0,-6.772448E-2,3E2,1.08561836E-1,-6.7403E-2],"split_indices":[135,0,133,0,30,0,0],"split_type":[0,0,0,0,0,0,0],"sum_hessian":[5.501593E2,2.4768776E2,3.0247153E2,1.503094E0,3.009684E2,2.9957263E2,1.3957839E0],"tree_param":{"num_deleted":"0","num_feature":"156","num_nodes":"7","size_leaf_vector":"1"}},{"base_weights":[-1.5528497E-2,-1.0737932E-1,1.0461413E0,-7.095499E-2,1.0627222E0,1.0758169E-1,-6.541812E-2],"categories":[],"categories_nodes":[],"categories_segments":[],"categories_sizes":[],"default_left":[0,0,0,0,0,0,0],"id":19,"left_children":[1,-1,3,-1,5,-1,-1],"loss_changes":[5.1122598E2,0E0,7.3666534E0,0E0,5.7718964E0,0E0,0E0],"parents":[2147483647,0,0,2,2,4,4],"right_children":[2,-1,4,-1,6,-1,-1],"split_conditions":[1.328859E1,-1.0737932E-1,4E0,-7.095499E-2,3E2,1.0758169E-1,-6.541812E-2],"split_indices":[135,0,133,0,30,0,0],"split_type":[0,0,0,0,0,0,0],"sum_hessian":[4.5301883E2,2.2686752E2,2.2615132E2,1.7248081E0,2.2442651E2,2.2309834E2,1.3281624E0],"tree_param":{"num_deleted":"0","num_feature":"156","num_nodes":"7","size_leaf_vector":"1"}},{"base_weights":[8.7658435E-2,-1.0654129E-1,1.040813E0,-6.89699E-2,1.0547655E0,1.06763445E-1,-6.7641616E-2],"categories":[],"categories_nodes":[],"categories_segments":[],"categories_sizes":[],"default_left":[0,0,0,0,0,0,0],"id":20,"left_children":[1,-1,3,-1,5,-1,-1],"loss_changes":[5.0863126E2,0E0,6.843689E0,0E0,6.3292847E0,0E0,0E0],"parents":[2147483647,0,0,2,2,4,4],"right_children":[2,-1,4,-1,6,-1,-1],"split_conditions":[1.328859E1,-1.0654129E-1,4E0,-6.89699E-2,4.5079365E0,1.06763445E-1,-6.7641616E-2],"split_indices":[135,0,133,0,32,0,0],"split_type":[0,0,0,0,0,0,0],"sum_hessian":[4.6078058E2,2.0846901E2,2.5231157E2,1.6306628E0,2.506809E2,2.4921162E2,1.4692696E0],"tree_param":{"num_deleted":"0","num_feature":"156","num_nodes":"7","size_leaf_vector":"1"}},{"base_weights":[9.365927E-2,-1.05777256E-1,1.0365655E0,1.0487344E0,-6.347813E-2,-6.001049E-2,1.05997644E-1],"categories":[],"categories_nodes":[],"categories_segments":[],"categories_sizes":[],"default_left":[0,0,0,0,0,0,0],"id":21,"left_children":[1,-1,3,5,-1,-1,-1],"loss_changes":[4.5533966E2,0E0,5.3542786E0,4.885391E0,0E0,0E0,0E0],"parents":[2147483647,0,0,2,2,3,3],"right_children":[2,-1,4,6,-1,-1,-1],"split_conditions":[1.328859E1,-1.05777256E-1,4.5079365E0,4E0,-6.347813E-2,-6.001049E-2,1.05997644E-1],"split_indices":[135,0,32,133,0,0,0],"split_type":[0,0,0,0,0,0,0],"sum_hessian":[4.1739035E2,1.8786133E2,2.2952902E2,2.2823978E2,1.2892576E0,1.1909268E0,2.2704884E2],"tree_param":{"num_deleted":"0","num_feature":"156","num_nodes":"7","size_leaf_vector":"1"}},{"base_weights":[-9.40411E-2,8.731729E-1,-1.0504762E-1,-9.832174E-2,1.0401404E-1],"categories":[],"categories_nodes":[],"categories_segments":[],"categories_sizes":[],"default_left":[0,0,0,0,0],"id":22,"left_children":[1,3,-1,-1,-1],"loss_changes":[2.9345764E2,4.9926697E1,0E0,0E0,0E0],"parents":[2147483647,0,0,1,1],"right_children":[2,4,-1,-1,-1],"split_conditions":[5.034483E0,4E0,-1.0504762E-1,-9.832174E-2,1.0401404E-1],"split_indices":[142,133,0,0,0],"split_type":[0,0,0,0,0],"sum_hessian":[3.1523343E2,1.5677681E2,1.584566E2,1.2533813E1,1.44243E2],"tree_param":{"num_deleted":"0","num_feature":"156","num_nodes":"5","size_leaf_vector":"1"}}]},"name":"gbtree"},"learner_model_param":{"base_score":"[5E-1]","boost_from_average":"1","num_class":"0","num_feature":"156","num_target":"1"},"objective":{"name":"binary:logistic","reg_loss_param":{"scale_pos_weight":"250.6875"}}},"version":[3,2,0]}