{"learner":{"attributes":{"best_iteration":"5","best_score":"1.0"},"feature_names":["auth__total_auth_events","auth__successful_logon_count","auth__failed_logon_count","auth__failed_logon_ratio","auth__network_logon_count","auth__interactive_logon_count","auth__remote_interactive_logon_count","auth__service_logon_count","auth__cleartext_logon_count","auth__network_logon_ratio","auth__explicit_credential_count","auth__ntlm_count","auth__kerberos_tgt_count","auth__kerberos_tgs_count","auth__special_logon_count","auth__unique_privileged_users","auth__unique_users","auth__unique_target_hosts","auth__unique_source_ips","auth__lateral_velocity_per_min","auth__max_hosts_per_user","auth__max_failures_per_user","auth__unique_failed_users","auth__max_users_per_source","auth__account_created_count","auth__account_enabled_count","auth__password_reset_count","auth__account_disabled_count","auth__account_deleted_count","auth__account_changed_count","auth__success_after_failures","auth__time_to_first_success_secs","auth__offhours_logon_count","auth__offhours_interactive_count","auth__psexec_invocations","auth__wmic_invocations","auth__winrm_invocations","auth__schtasks_invocations","auth__powershell_encoded_count","auth__lsass_access_count","process__total_process_events","process__credential_tool_count","process__lsass_access_count","process__image_load_count","process__remote_thread_count","process__process_tamper_count","process__psexec_count","process__wmic_count","process__mshta_count","process__rundll32_count","process__regsvr32_count","process__certutil_count","process__bitsadmin_count","process__schtasks_count","process__esentutl_count","process__total_lolbin_count","process__powershell_count","process__encoded_command_count","process__download_command_count","process__amsi_bypass_count","process__office_to_shell_count","process__browser_to_shell_count","process__pipe_event_count","process__pipe_attack_count","process__archive_drop_count","process__user_exe_drop_count","process__file_create_count","process__unique_image_count","process__unique_parent_count","network__total_connections","network__connections_per_minute","network__total_lateral_count","network__smb_count","network__rdp_count","network__winrm_count","network__wmi_count","network__ssh_count","network__netbios_count","network__telnet_count","network__unique_dest_ips","network__unique_dest_ports","network__unique_source_processes","network__internal_connection_count","network__external_connection_count","network__internal_to_external_ratio","network__shell_initiated_count","network__lolbin_initiated_count","network__shell_lateral_count","network__total_bytes_sent","network__total_bytes_received","network__max_bytes_per_connection","temporal__total_event_count","temporal__window_duration_seconds","temporal__events_per_minute","temporal__burst_factor","temporal__per_minute_stdev","temporal__active_minute_count","temporal__off_hours_ratio","temporal__night_hours_ratio","temporal__weekend_ratio","temporal__inter_event_interval_mean","temporal__inter_event_interval_cv","temporal__inter_event_interval_min","temporal__inter_event_interval_max","behavioral__pth_chain_count","behavioral__bruteforce_success_count","behavioral__auth_then_network_count","behavioral__auth_then_process_count","behavioral__priv_escalation_chain","behavioral__unique_users_overall","behavioral__unique_hosts_overall","behavioral__unique_processes_overall","behavioral__host_user_pair_count","behavioral__entity_diversity_score"],"feature_types":[],"gradient_booster":{"model":{"cats":{"enc":[],"feature_segments":[],"sorted_idx":[]},"gbtree_model_param":{"num_parallel_tree":"1","num_trees":"26"},"iteration_indptr":[0,1,2,3,4,5,6,7,8,9,10,11,12,13,14,15,16,17,18,19,20,21,22,23,24,25,26],"tree_info":[0,0,0,0,0,0,0,0,0,0,0,0,0,0,0,0,0,0,0,0,0,0,0,0,0,0],"trees":[{"base_weights":[4.6991345E-2,-2.0573497E-1,1.5048106E0,-1.9285561E-1,1.6018778E0,1.6582208E0,-1.8334474E-1,1.793809E0,9.541476E-1,1.0137845E0,1.8736354E-1,-1.9489293E-1,1.7025124E0,-1.8638462E-1,1.8823728E-1,1.8513386E-1,-1.4933988E-1],"categories":[],"categories_nodes":[],"categories_segments":[],"categories_sizes":[],"default_left":[0,0,0,0,0,0,0,0,0,0,0,0,0,0,0,0,0],"id":0,"left_children":[1,-1,3,-1,5,7,-1,9,11,13,-1,-1,15,-1,-1,-1,-1],"loss_changes":[5.6316333E3,0E0,3.6758447E2,0E0,2.1041992E2,9.583276E1,0E0,5.034546E1,3.8067926E2,2.1968564E2,0E0,0E0,7.114285E1,0E0,0E0,0E0,0E0],"parents":[2147483647,0,0,2,2,4,4,5,5,7,7,8,8,9,9,12,12],"right_children":[2,-1,4,-1,6,8,-1,10,12,14,-1,-1,16,-1,-1,-1,-1],"split_conditions":[1.0909091E1,-2.0573497E-1,4E0,-1.9285561E-1,3E1,2E0,-1.8334474E-1,1.3608248E1,1E2,1E0,1.8736354E-1,-1.9489293E-1,1.08E2,-1.8638462E-1,1.8823728E-1,1.8513386E-1,-1.4933988E-1],"split_indices":[93,0,91,0,103,94,0,93,91,1,0,0,91,0,0,0,0],"split_type":[0,0,0,0,0,0,0,0,0,0,0,0,0,0,0,0,0],"sum_hessian":[1.831736E3,7.4930396E2,1.082432E3,2.8723318E1,1.0537087E3,1.0377235E3,1.5985151E1,8.6755664E2,1.7016693E2,8.308532E1,7.844713E2,3.4218216E1,1.3594872E2,1.87326E1,6.435272E1,1.3070358E2,5.2451277E0],"tree_param":{"num_deleted":"0","num_feature":"114","num_nodes":"17","size_leaf_vector":"1"}},{"base_weights":[5.903799E-2,-1.860034E-1,1.308565E0,-1.7525044E-1,1.3922671E0,1.4710197E0,-1.7404124E-1,1.1394584E0,1.8202469E-1,1.5425205E0,-1.8441428E-1,1.5769331E-1,-1.3615151E-1],"categories":[],"categories_nodes":[],"categories_segments":[],"categories_sizes":[],"default_left":[0,0,0,0,0,0,0,0,0,0,0,0,0],"id":1,"left_children":[1,-1,3,-1,5,7,-1,9,-1,11,-1,-1,-1],"loss_changes":[4.3869546E3,0E0,2.887621E2,0E0,2.7146387E2,1.1791846E2,0E0,6.6244965E2,0E0,5.2484985E1,0E0,0E0,0E0],"parents":[2147483647,0,0,2,2,4,4,5,5,7,7,9,9],"right_children":[2,-1,4,-1,6,8,-1,10,-1,12,-1,-1,-1],"split_conditions":[9.2617445E0,-1.860034E-1,7E0,-1.7525044E-1,3E1,1E0,-1.7404124E-1,4.242857E0,1.8202469E-1,8.219178E-2,-1.8441428E-1,1.5769331E-1,-1.3615151E-1],"split_indices":[93,0,103,0,103,4,0,100,0,113,0,0,0],"split_type":[0,0,0,0,0,0,0,0,0,0,0,0,0],"sum_hessian":[1.8254438E3,7.194727E2,1.1059712E3,2.8375498E1,1.0775956E3,1.0522051E3,2.5390608E1,5.441277E2,5.080774E2,4.802196E2,6.390806E1,4.7549893E2,4.720669E0],"tree_param":{"num_deleted":"0","num_feature":"114","num_nodes":"13","size_leaf_vector":"1"}},{"base_weights":[1.517713E-4,-1.7134716E-1,1.1826504E0,-1.6240811E-1,1.2689354E0,1.3468007E0,-1.6909835E-1,1.5298417E0,5.892111E-1,1.5459061E0,-1.1917223E-1,-1.7798667E-1,1.417017E0,1.2880097E-1,1.6841513E-1,-1.4983435E-1,1.6768806E-1],"categories":[],"categories_nodes":[],"categories_segments":[],"categories_sizes":[],"default_left":[0,0,0,0,0,0,0,0,0,0,0,0,0,0,0,0,0],"id":2,"left_children":[1,-1,3,-1,5,7,-1,9,11,13,-1,-1,15,-1,-1,-1,-1],"loss_changes":[3.4932283E3,0E0,2.5114954E2,0E0,2.3289136E2,1.3221338E2,0E0,3.766089E1,3.802417E2,2.3236694E1,0E0,0E0,1.13278076E2,0E0,0E0,0E0,0E0],"parents":[2147483647,0,0,2,2,4,4,5,5,7,7,8,8,9,9,12,12],"right_children":[2,-1,4,-1,6,8,-1,10,12,14,-1,-1,16,-1,-1,-1,-1],"split_conditions":[9.2617445E0,-1.7134716E-1,1.8E1,-1.6240811E-1,2.5903614E0,2.89E2,-1.6909835E-1,2.2857144E0,1E0,1E0,-1.1917223E-1,-1.7798667E-1,1.4188024E1,1.2880097E-1,1.6841513E-1,-1.4983435E-1,1.6768806E-1],"split_indices":[93,0,92,0,94,92,0,94,98,4,0,0,95,0,0,0,0],"split_type":[0,0,0,0,0,0,0,0,0,0,0,0,0,0,0,0,0],"sum_hessian":[1.7198955E3,7.0187384E2,1.0180217E3,2.9299679E1,9.8872205E2,9.644409E2,2.4281126E1,7.751246E2,1.8931635E2,7.71435E2,3.6895437E0,4.8426247E1,1.408901E2,2.7641565E2,4.9501938E2,1.0750499E1,1.301396E2],"tree_param":{"num_deleted":"0","num_feature":"114","num_nodes":"17","size_leaf_vector":"1"}},{"base_weights":[-6.6342026E-2,-1.6005361E-1,1.0620569E0,1.2167289E0,-1.6855408E-1,-1.5219887E-1,1.3154783E0,1.3602169E0,-1.4853577E-1,1.5589316E-1,9.927028E-1,-1.771276E-1,1.5650366E-1],"categories":[],"categories_nodes":[],"categories_segments":[],"categories_sizes":[],"default_left":[0,0,0,0,0,0,0,0,0,0,0,0,0],"id":3,"left_children":[1,-1,3,5,-1,-1,7,9,-1,-1,11,-1,-1],"loss_changes":[2.7917358E3,0E0,3.990177E2,2.4224182E2,0E0,0E0,1.10715576E2,5.8175903E1,0E0,0E0,4.800264E2,0E0,0E0],"parents":[2147483647,0,0,2,2,3,3,6,6,7,7,10,10],"right_children":[2,-1,4,6,-1,-1,8,10,-1,-1,12,-1,-1],"split_conditions":[9.2617445E0,-1.6005361E-1,2.94E2,1.8E1,-1.6855408E-1,-1.5219887E-1,3E1,1.6E1,-1.4853577E-1,1.5589316E-1,1.1699139E0,-1.771276E-1,1.5650366E-1],"split_indices":[93,0,92,92,0,0,103,103,0,0,101,0,0],"split_type":[0,0,0,0,0,0,0,0,0,0,0,0,0],"sum_hessian":[1.6086534E3,6.813879E2,9.272656E2,8.789034E2,4.836224E1,2.9584412E1,8.49319E2,8.369784E2,1.2340574E1,5.3903735E2,2.97941E2,5.03921E1,2.4754892E2],"tree_param":{"num_deleted":"0","num_feature":"114","num_nodes":"13","size_leaf_vector":"1"}},{"base_weights":[1.15497366E-1,-1.5110298E-1,1.1422033E0,-1.4284016E-1,1.2130053E0,1.3540047E0,5.464468E-1,1.489113E0,1.0794681E0,-1.539852E-1,1.5626113E-1,1.4293698E0,1.8776534E-1,1.35419E0,-1.6051655E-1,1.4849336E-1,1.04544654E-1,1.450457E-1,-1.2646715E-1],"categories":[],"categories_nodes":[],"categories_segments":[],"categories_sizes":[],"default_left":[0,0,0,0,0,0,0,0,0,0,0,0,0,0,0,0,0,0,0],"id":4,"left_children":[1,-1,3,-1,5,7,9,11,13,-1,-1,15,-1,17,-1,-1,-1,-1,-1],"loss_changes":[2.7896528E3,0E0,1.8982654E2,0E0,9.227661E1,2.7276611E1,3.8117938E2,7.298218E0,2.0967163E2,0E0,0E0,7.1624756E0,0E0,6.7612976E1,0E0,0E0,0E0,0E0,0E0],"parents":[2147483647,0,0,2,2,4,4,5,5,6,6,7,7,8,8,11,11,13,13],"right_children":[2,-1,4,-1,6,8,10,12,14,-1,-1,16,-1,18,-1,-1,-1,-1,-1],"split_conditions":[9.2617445E0,-1.5110298E-1,1E0,-1.4284016E-1,4.852459E0,3.6962025E0,2E0,2.7108433E0,1.7560976E1,-1.539852E-1,1.5626113E-1,2E0,1.8776534E-1,2.5903614E0,-1.6051655E-1,1.4849336E-1,1.04544654E-1,1.450457E-1,-1.2646715E-1],"split_indices":[93,0,102,0,100,100,0,94,93,0,0,94,0,94,0,0,0,0,0],"split_type":[0,0,0,0,0,0,0,0,0,0,0,0,0,0,0,0,0,0,0],"sum_hessian":[1.6664188E3,6.444792E2,1.02193964E3,2.636481E1,9.955748E2,8.200451E2,1.755297E2,5.4364966E2,2.7639545E2,5.7154472E1,1.1837523E2,4.7930753E2,6.434215E1,2.5163635E2,2.4759094E1,4.1369882E2,6.560871E1,2.4357504E2,8.061299E0],"tree_param":{"num_deleted":"0","num_feature":"114","num_nodes":"19","size_leaf_vector":"1"}},{"base_weights":[4.2144664E-2,-1.4415194E-1,1.1165808E0,-1.356158E-1,1.1905786E0,1.2376636E0,-1.3485734E-1,9.107456E-1,1.3910612E0,1.0991615E0,-1.4587636E-1,1.4989383E0,1.3083864E0,-1.3650143E-1,1.2161471E-1,1.317763E-1,1.6354482E-1,1.3680023E-1,-1.5682246E-1],"categories":[],"categories_nodes":[],"categories_segments":[],"categories_sizes":[],"default_left":[0,0,0,0,0,0,0,0,0,0,0,0,0,0,0,0,0,0,0],"id":5,"left_children":[1,-1,3,-1,5,7,-1,9,11,13,-1,15,17,-1,-1,-1,-1,-1,-1],"loss_changes":[2.4577617E3,0E0,1.6684192E2,0E0,1.0726282E2,4.031665E1,0E0,1.27625946E2,1.2307129E0,7.806821E1,0E0,1.5501099E0,6.3084167E1,0E0,0E0,0E0,0E0,0E0,0E0],"parents":[2147483647,0,0,2,2,4,4,5,5,7,7,8,8,9,9,11,11,12,12],"right_children":[2,-1,4,-1,6,8,-1,10,12,14,-1,16,18,-1,-1,-1,-1,-1,-1],"split_conditions":[1.0909091E1,-1.4415194E-1,1.8E1,-1.356158E-1,3E1,1.9793814E1,-1.3485734E-1,2.5E1,5.8252428E-2,8.139535E-2,-1.4587636E-1,5.6603774E-2,2.94E2,-1.3650143E-1,1.2161471E-1,1.317763E-1,1.6354482E-1,1.3680023E-1,-1.5682246E-1],"split_indices":[93,0,92,0,103,93,0,103,113,113,0,113,92,0,0,0,0,0,0],"split_type":[0,0,0,0,0,0,0,0,0,0,0,0,0,0,0,0,0,0,0],"sum_hessian":[1.5377648E3,6.4559467E2,8.921701E2,2.491591E1,8.6725415E2,8.524714E2,1.4782772E1,2.7668338E2,5.75788E2,2.5729623E2,1.938714E1,2.349524E2,3.4083563E2,1.0694364E1,2.4660187E2,1.101148E2,1.2483759E2,3.3494305E2,5.892601E0],"tree_param":{"num_deleted":"0","num_feature":"114","num_nodes":"19","size_leaf_vector":"1"}},{"base_weights":[-1.3715516E-2,8.341349E-1,-1.3815513E-1,-1.3552248E-1,1.0481999E0,7.398203E-1,1.4053926E0,9.476497E-2,1.2029356E0,1.3470913E-1,1.6352236E-1,-3.3560058E-1,9.345883E-1,-1.543312E-1,1.3257864E0,7.412451E-2,-1.5437558E-1,-1.1741215E-1,1.3007076E-1,8.701084E-2,1.4692445E-1],"categories":[],"categories_nodes":[],"categories_segments":[],"categories_sizes":[],"default_left":[0,0,0,0,0,0,0,0,0,0,0,0,0,0,0,0,0,0,0,0,0],"id":6,"left_children":[1,3,-1,-1,5,7,9,11,13,-1,-1,15,17,-1,19,-1,-1,-1,-1,-1,-1],"loss_changes":[1.625611E3,4.084074E2,0E0,0E0,8.487561E1,1.2759468E2,4.6557617E-1,6.604131E1,8.806363E1,0E0,0E0,1.5988612E2,5.080517E1,0E0,1.3087219E1,0E0,0E0,0E0,0E0,0E0,0E0],"parents":[2147483647,0,0,1,1,4,4,5,5,6,6,7,7,8,8,11,11,12,12,14,14],"right_children":[2,4,-1,-1,6,8,10,12,14,-1,-1,16,18,-1,20,-1,-1,-1,-1,-1,-1],"split_conditions":[3E1,7E0,-1.3815513E-1,-1.3552248E-1,1E0,1E0,1.4E1,2.8E1,2.1E1,1.3470913E-1,1.6352236E-1,1.9E1,7E0,-1.543312E-1,6E0,7.412451E-2,-1.5437558E-1,-1.1741215E-1,1.3007076E-1,8.701084E-2,1.4692445E-1],"split_indices":[103,103,0,0,4,98,103,103,103,0,0,103,111,0,111,0,0,0,0,0,0],"split_type":[0,0,0,0,0,0,0,0,0,0,0,0,0,0,0,0,0,0,0,0,0],"sum_hessian":[1.3977395E3,8.633648E2,5.343747E2,7.594739E1,7.874174E2,4.2587985E2,3.6153757E2,1.7898618E2,2.4689366E2,2.9932904E2,6.220852E1,1.19135994E2,5.9850185E1,9.581466E0,2.373122E2,6.3399796E1,5.5736195E1,8.201095E0,5.1649094E1,6.020584E1,1.7710635E2],"tree_param":{"num_deleted":"0","num_feature":"114","num_nodes":"21","size_leaf_vector":"1"}},{"base_weights":[5.987296E-2,-1.3300557E-1,9.506442E-1,-1.2471131E-1,1.0155507E0,1.0779465E0,-1.2768987E-1,8.2153684E-1,1.3469863E-1,1.1899732E0,-1.4530455E-1,-1.6061907E-1,1.2459488E-1],"categories":[],"categories_nodes":[],"categories_segments":[],"categories_sizes":[],"default_left":[0,0,0,0,0,0,0,0,0,0,0,0,0],"id":7,"left_children":[1,-1,3,-1,5,7,-1,9,-1,11,-1,-1,-1],"loss_changes":[1.720693E3,0E0,1.2334137E2,0E0,1.2057446E2,5.3178528E1,0E0,3.5229843E2,0E0,6.0243866E1,0E0,0E0,0E0],"parents":[2147483647,0,0,2,2,4,4,5,5,7,7,9,9],"right_children":[2,-1,4,-1,6,8,-1,10,-1,12,-1,-1,-1],"split_conditions":[9.2617445E0,-1.3300557E-1,7E0,-1.2471131E-1,3E1,2E0,-1.2768987E-1,8.219178E-2,1.3469863E-1,1.8E1,-1.4530455E-1,-1.6061907E-1,1.2459488E-1],"split_indices":[93,0,103,0,103,0,0,113,0,103,0,0,0],"split_type":[0,0,0,0,0,0,0,0,0,0,0,0,0],"sum_hessian":[1.3857332E3,5.4083954E2,8.448936E2,2.3191557E1,8.21702E2,8.009611E2,2.0740965E1,4.1425778E2,3.867033E2,3.5733105E2,5.6926743E1,5.925861E0,3.5140518E2],"tree_param":{"num_deleted":"0","num_feature":"114","num_nodes":"13","size_leaf_vector":"1"}},{"base_weights":[1.1826382E-1,-1.2881239E-1,9.572945E-1,-1.2120979E-1,1.0207616E0,1.0761338E0,-1.22548096E-1,8.3382046E-1,1.2632458E0,-5.5388983E-2,1.321604E-1,1.197985E0,1.6262348E-1,-1.429209E-1,9.8647304E-2,1.2555036E-1,-1.74716E-1],"categories":[],"categories_nodes":[],"categories_segments":[],"categories_sizes":[],"default_left":[0,0,0,0,0,0,0,0,0,0,0,0,0,0,0,0,0],"id":8,"left_children":[1,-1,3,-1,5,7,-1,9,11,13,-1,15,-1,-1,-1,-1,-1],"loss_changes":[1.6190349E3,0E0,1.2077484E2,0E0,1.0660303E2,3.4928223E1,0E0,1.5707304E2,6.9301147E0,1.8901021E2,0E0,7.129663E1,0E0,0E0,0E0,0E0,0E0],"parents":[2147483647,0,0,2,2,4,4,5,5,7,7,8,8,9,9,11,11],"right_children":[2,-1,4,-1,6,8,-1,10,12,14,-1,16,-1,-1,-1,-1,-1],"split_conditions":[9.2617445E0,-1.2881239E-1,1.8E1,-1.2120979E-1,3E1,1.9793814E1,-1.22548096E-1,1E0,2.9213483E0,2.97E2,1.321604E-1,1.903418E1,1.6262348E-1,-1.429209E-1,9.8647304E-2,1.2555036E-1,-1.74716E-1],"split_indices":[93,0,92,0,103,93,0,4,94,92,0,95,0,0,0,0,0],"split_type":[0,0,0,0,0,0,0,0,0,0,0,0,0,0,0,0,0],"sum_hessian":[1.3679708E3,5.1076065E2,8.5721014E2,2.3336586E1,8.3387354E2,8.14829E2,1.9044546E1,3.597975E2,4.5503152E2,1.2808205E2,2.3171544E2,3.9297952E2,6.2051983E1,5.491994E1,7.31621E1,3.8657712E2,6.402404E0],"tree_param":{"num_deleted":"0","num_feature":"114","num_nodes":"17","size_leaf_vector":"1"}},{"base_weights":[7.63171E-2,-1.2524776E-1,8.8976836E-1,-1.16455495E-1,9.484948E-1,1.0070463E0,-1.1869321E-1,1.2034341E0,7.81178E-1,1.3386324E-1,9.6927744E-1,-8.7361254E-2,1.2811486E-1,1.1636912E-1,-1.8330882E-1,-1.4112543E-1,9.1783665E-2],"categories":[],"categories_nodes":[],"categories_segments":[],"categories_sizes":[],"default_left":[0,0,0,0,0,0,0,0,0,0,0,0,0,0,0,0,0],"id":9,"left_children":[1,-1,3,-1,5,7,-1,9,11,-1,13,15,-1,-1,-1,-1,-1],"loss_changes":[1.3329467E3,0E0,9.4477356E1,0E0,9.549597E1,3.031726E1,0E0,9.579468E0,1.4929593E2,0E0,8.4907745E1,1.7198492E2,0E0,0E0,0E0,0E0,0E0],"parents":[2147483647,0,0,2,2,4,4,5,5,7,7,8,8,10,10,11,11],"right_children":[2,-1,4,-1,6,8,-1,10,12,-1,14,16,-1,-1,-1,-1,-1],"split_conditions":[9.2617445E0,-1.2524776E-1,1.8E1,-1.16455495E-1,3E1,3.6962025E0,-1.1869321E-1,6E0,2E0,1.3386324E-1,2.89E2,2.97E2,1.2811486E-1,1.1636912E-1,-1.8330882E-1,-1.4112543E-1,9.1783665E-2],"split_indices":[93,0,92,0,103,100,0,111,0,0,92,92,0,0,0,0,0],"split_type":[0,0,0,0,0,0,0,0,0,0,0,0,0,0,0,0,0],"sum_hessian":[1.2291089E3,4.66306E2,7.62803E2,2.0153347E1,7.426496E2,7.238588E2,1.879075E1,3.8256793E2,3.4129092E2,2.3655264E2,1.460153E2,1.2529005E2,2.1600085E2,1.3763629E2,8.379004E0,5.3724472E1,7.1565575E1],"tree_param":{"num_deleted":"0","num_feature":"114","num_nodes":"17","size_leaf_vector":"1"}},{"base_weights":[3.1323116E-2,-1.22184776E-1,8.247102E-1,-1.1332252E-1,8.8599116E-1,9.4175833E-1,-1.3918641E-1,9.8146206E-1,-1.4680907E-1,1.2276223E0,6.7627233E-1,1.3845578E-1,1.0908736E-1,-9.032061E-3,1.2540615E-1],"categories":[],"categories_nodes":[],"categories_segments":[],"categories_sizes":[],"default_left":[0,0,0,0,0,0,0,0,0,0,0,0,0,0,0],"id":10,"left_children":[1,-1,3,-1,5,7,-1,9,-1,11,13,-1,-1,-1,-1],"loss_changes":[1.109236E3,0E0,8.39693E1,0E0,8.690466E1,6.496173E1,0E0,4.638318E1,0E0,4.5234985E0,1.2866472E2,0E0,0E0,0E0,0E0],"parents":[2147483647,0,0,2,2,4,4,5,5,7,7,9,9,10,10],"right_children":[2,-1,4,-1,6,8,-1,10,-1,12,14,-1,-1,-1,-1],"split_conditions":[9.2617445E0,-1.22184776E-1,1.8E1,-1.1332252E-1,2.98E2,1.903418E1,-1.3918641E-1,3.6962025E0,-1.4680907E-1,2.8659794E0,1E0,1.3845578E-1,1.0908736E-1,-9.032061E-3,1.2540615E-1],"split_indices":[93,0,92,0,92,95,0,100,0,100,4,0,0,0,0],"split_type":[0,0,0,0,0,0,0,0,0,0,0,0,0,0,0],"sum_hessian":[1.1116244E3,4.305236E2,6.8110077E2,1.96089E1,6.614919E2,6.468291E2,1.4662759E1,6.3751117E2,9.317922E0,3.4953662E2,2.8797458E2,1.5425768E2,1.9527895E2,1.24491035E2,1.6348354E2],"tree_param":{"num_deleted":"0","num_feature":"114","num_nodes":"15","size_leaf_vector":"1"}},{"base_weights":[1.9531032E-2,7.401838E-1,-1.1993929E-1,-1.16805136E-1,9.2463213E-1,1.1935064E0,6.171828E-1,1.1022197E0,1.5287898E-1,-1.16980836E-1,1.2224429E-1,1.182429E0,-1.6224943E-1,-1.329315E-1,8.2858276E-1,1.2672849E-1,7.227679E-2,-1.2622444E-1,1.2678325E-1],"categories":[],"categories_nodes":[],"categories_segments":[],"categories_sizes":[],"default_left":[0,0,0,0,0,0,0,0,0,0,0,0,0,0,0,0,0,0,0],"id":11,"left_children":[1,3,-1,-1,5,7,9,11,-1,13,-1,15,-1,-1,17,-1,-1,-1,-1],"loss_changes":[9.044418E2,2.2989609E2,0E0,0E0,4.7391724E1,6.2159424E0,1.24670456E2,5.9204285E1,0E0,1.4929543E2,0E0,7.812256E0,0E0,0E0,7.053832E1,0E0,0E0,0E0,0E0],"parents":[2147483647,0,0,1,1,4,4,5,5,6,6,7,7,9,9,11,11,14,14],"right_children":[2,4,-1,-1,6,8,10,12,-1,14,-1,16,-1,-1,18,-1,-1,-1,-1],"split_conditions":[2.9E1,6E0,-1.1993929E-1,-1.16805136E-1,3.6962025E0,2.7108433E0,2E0,2E0,1.5287898E-1,2.97E2,1.2224429E-1,1.6666666E0,-1.6224943E-1,-1.329315E-1,2.5E0,1.2672849E-1,7.227679E-2,-1.2622444E-1,1.2678325E-1],"split_indices":[103,91,0,0,100,94,0,94,0,92,0,94,0,0,94,0,0,0,0],"split_type":[0,0,0,0,0,0,0,0,0,0,0,0,0,0,0,0,0,0,0],"sum_hessian":[1.0256011E3,6.45031E2,3.8057E2,5.5912766E1,5.891183E2,3.1120007E2,2.7791818E2,2.5134262E2,5.985745E1,1.2631503E2,1.5160316E2,2.4525496E2,6.0876617E0,5.4993984E1,7.1321045E1,2.0406876E2,4.1186203E1,1.17315645E1,5.958948E1],"tree_param":{"num_deleted":"0","num_feature":"114","num_nodes":"19","size_leaf_vector":"1"}},{"base_weights":[9.952831E-2,-1.1723616E-1,8.2527405E-1,-1.07730344E-1,8.8099486E-1,9.298661E-1,-1.0915636E-1,6.479357E-1,1.116902E0,-3.97038E-2,1.1948206E-1,1.0483692E0,1.4470385E-1,-1.2905493E-1,7.964016E-2,1.13869764E-1,-1.565167E-1],"categories":[],"categories_nodes":[],"categories_segments":[],"categories_sizes":[],"default_left":[0,0,0,0,0,0,0,0,0,0,0,0,0,0,0,0,0],"id":12,"left_children":[1,-1,3,-1,5,7,-1,9,11,13,-1,15,-1,-1,-1,-1,-1],"loss_changes":[9.572851E2,0E0,7.188153E1,0E0,6.396353E1,3.1667847E1,0E0,9.60754E1,5.4452515E0,1.2232621E2,0E0,7.854465E1,0E0,0E0,0E0,0E0,0E0],"parents":[2147483647,0,0,2,2,4,4,5,5,7,7,8,8,9,9,11,11],"right_children":[2,-1,4,-1,6,8,-1,10,12,14,-1,16,-1,-1,-1,-1,-1],"split_conditions":[9.2617445E0,-1.1723616E-1,4E0,-1.07730344E-1,3E1,1.9793814E1,-1.0915636E-1,1E0,2.9213483E0,2.5E0,1.1948206E-1,2E0,1.4470385E-1,-1.2905493E-1,7.964016E-2,1.13869764E-1,-1.565167E-1],"split_indices":[93,0,91,0,103,93,0,0,94,94,0,94,0,0,0,0,0],"split_type":[0,0,0,0,0,0,0,0,0,0,0,0,0,0,0,0,0],"sum_hessian":[1.0329718E3,3.7483392E2,6.581379E2,1.7683123E1,6.404547E2,6.260024E2,1.4452356E1,2.5322684E2,3.7277554E2,1.1299922E2,1.4022762E2,3.1560956E2,5.716599E1,4.4835922E1,6.81633E1,3.0615686E2,9.452699E0],"tree_param":{"num_deleted":"0","num_feature":"114","num_nodes":"17","size_leaf_vector":"1"}},{"base_weights":[2.231011E-1,8.112645E-1,-1.1539028E-1,-1.1196808E-1,9.452791E-1,1.1394944E0,6.359164E-1,1.1898197E0,1.0165898E0,-1.0297875E-1,1.1662716E-1,1.24832764E-1,1.0059521E0,1.1394409E-1,-1.6755717E-1,-1.266555E-1,7.195402E-1,1.1468681E-1,-1.4189123E-1,1.1457541E-1,-1.14178E-1],"categories":[],"categories_nodes":[],"categories_segments":[],"categories_sizes":[],"default_left":[0,0,0,0,0,0,0,0,0,0,0,0,0,0,0,0,0,0,0,0,0],"id":13,"left_children":[1,3,-1,-1,5,7,9,11,13,15,-1,-1,17,-1,-1,-1,19,-1,-1,-1,-1],"loss_changes":[8.656996E2,1.9581842E2,0E0,0E0,4.0671326E1,2.2906494E-1,1.0796548E2,6.300049E-1,4.949861E1,1.1351453E2,0E0,0E0,3.0862068E1,0E0,0E0,0E0,5.786879E1,0E0,0E0,0E0,0E0],"parents":[2147483647,0,0,1,1,4,4,5,5,6,6,7,7,8,8,9,9,12,12,16,16],"right_children":[2,4,-1,-1,6,8,10,12,14,16,-1,-1,18,-1,-1,-1,20,-1,-1,-1,-1],"split_conditions":[3E1,6E0,-1.1539028E-1,-1.1196808E-1,3.6962025E0,6.521739E-2,2E0,1.26E2,1.01E2,1E0,1.1662716E-1,1.24832764E-1,1.7239489E1,1.1394409E-1,-1.6755717E-1,-1.266555E-1,4.242857E0,1.1468681E-1,-1.4189123E-1,1.1457541E-1,-1.14178E-1],"split_indices":[103,91,0,0,100,113,0,91,91,98,0,0,95,0,0,0,100,0,0,0,0],"split_type":[0,0,0,0,0,0,0,0,0,0,0,0,0,0,0,0,0,0,0,0,0],"sum_hessian":[1.0645807E3,7.465335E2,3.180472E2,4.74949E1,6.9903864E2,4.2614294E2,2.728957E2,2.9002573E2,1.3611719E2,1.1470267E2,1.5819302E2,2.1123183E2,7.879392E1,1.3128001E2,4.837175E0,4.7055676E1,6.7646996E1,7.546264E1,3.3312793E0,5.5668613E1,1.1978381E1],"tree_param":{"num_deleted":"0","num_feature":"114","num_nodes":"21","size_leaf_vector":"1"}},{"base_weights":[6.294116E-2,-1.13432206E-1,7.4602515E-1,1.015288E0,1.06946245E-1,-1.01164594E-1,1.0959475E0,-1.2718363E-1,1.1545227E-1,1.1853844E-1,9.7422E-1,1.0597253E0,-1.2868269E-1,1.13338046E-1,-1.4300808E-1],"categories":[],"categories_nodes":[],"categories_segments":[],"categories_sizes":[],"default_left":[0,0,0,0,0,0,0,0,0,0,0,0,0,0,0],"id":14,"left_children":[1,-1,3,5,7,-1,9,-1,-1,-1,11,13,-1,-1,-1],"loss_changes":[7.0807245E2,0E0,9.462662E1,6.557733E1,2.4215181E2,0E0,1.7584839E0,0E0,0E0,0E0,3.549556E1,3.3392822E1,0E0,0E0,0E0],"parents":[2147483647,0,0,2,2,3,3,4,4,6,6,10,10,11,11],"right_children":[2,-1,4,6,8,-1,10,-1,-1,-1,12,14,-1,-1,-1],"split_conditions":[9.2617445E0,-1.13432206E-1,3.6962025E0,6E0,1E0,-1.01164594E-1,6E0,-1.2718363E-1,1.1545227E-1,1.1853844E-1,1.903418E1,3.3333333E0,-1.2868269E-1,1.13338046E-1,-1.4300808E-1],"split_indices":[93,0,100,103,4,0,111,0,0,0,95,100,0,0,0],"split_type":[0,0,0,0,0,0,0,0,0,0,0,0,0,0,0],"sum_hessian":[8.617233E2,3.1256296E2,5.4916034E2,3.855425E2,1.6361781E2,1.3871612E1,3.716709E2,7.045686E1,9.316095E1,2.0417873E2,1.6749217E2,1.6241287E2,5.0792956E0,1.588046E2,3.6082804E0],"tree_param":{"num_deleted":"0","num_feature":"114","num_nodes":"15","size_leaf_vector":"1"}},{"base_weights":[8.867899E-2,6.487697E-1,-1.1181211E-1,-1.06770016E-1,7.646935E-1,4.5426214E-1,1.0545896E0,-1.2262698E-1,1.1245193E-1,9.9202394E-1,1.2847434E-1,1.0835127E0,-1.4096878E-1,1.1942667E-1,9.381071E-2],"categories":[],"categories_nodes":[],"categories_segments":[],"categories_sizes":[],"default_left":[0,0,0,0,0,0,0,0,0,0,0,0,0,0,0],"id":15,"left_children":[1,3,-1,-1,5,7,9,-1,-1,11,-1,13,-1,-1,-1],"loss_changes":[5.5065625E2,1.12311905E2,0E0,0E0,4.6036896E1,2.9075977E2,1.3176575E0,0E0,0E0,5.137477E1,0E0,1.1889801E0,0E0,0E0,0E0],"parents":[2147483647,0,0,1,1,4,4,5,5,6,6,9,9,11,11],"right_children":[2,4,-1,-1,6,8,10,-1,-1,12,-1,14,-1,-1,-1],"split_conditions":[1E0,6E0,-1.1181211E-1,-1.06770016E-1,1E2,1E0,2.9213483E0,-1.2262698E-1,1.1245193E-1,2.94E2,1.2847434E-1,1.6666666E0,-1.4096878E-1,1.1942667E-1,9.381071E-2],"split_indices":[83,91,0,0,91,9,94,0,0,92,0,94,0,0,0],"split_type":[0,0,0,0,0,0,0,0,0,0,0,0,0,0,0],"sum_hessian":[8.105334E2,5.5423224E2,2.5630115E2,3.40239E1,5.202083E2,2.5368604E2,2.6652228E2,7.185794E1,1.818281E2,2.1790643E2,4.8615837E1,2.1096773E2,6.9387045E0,1.1156389E2,9.940385E1],"tree_param":{"num_deleted":"0","num_feature":"114","num_nodes":"15","size_leaf_vector":"1"}},{"base_weights":[2.107432E-1,7.6698595E-1,-1.10542074E-1,-1.0617079E-1,8.918793E-1,1.0763283E-1,7.47055E-1,8.544165E-1,-1.3455038E-1,5.2031183E-1,1.1093998E-1,-1.18052244E-1,1.2035207E-1],"categories":[],"categories_nodes":[],"categories_segments":[],"categories_sizes":[],"default_left":[0,0,0,0,0,0,0,0,0,0,0,0,0],"id":16,"left_children":[1,3,-1,-1,5,-1,7,9,-1,11,-1,-1,-1],"loss_changes":[6.120858E2,1.3601508E2,0E0,0E0,1.3104797E1,0E0,7.308327E1,2.448111E1,0E0,1.5857301E2,0E0,0E0,0E0],"parents":[2147483647,0,0,1,1,4,4,6,6,7,7,9,9],"right_children":[2,4,-1,-1,6,-1,8,10,-1,12,-1,-1,-1],"split_conditions":[3E1,6E0,-1.10542074E-1,-1.0617079E-1,6.521739E-2,1.0763283E-1,1.5420765E1,1E0,-1.3455038E-1,1.4188024E1,1.1093998E-1,-1.18052244E-1,1.2035207E-1],"split_indices":[103,91,0,0,113,0,95,4,0,95,0,0,0],"split_type":[0,0,0,0,0,0,0,0,0,0,0,0,0],"sum_hessian":[8.317449E2,5.8524194E2,2.4650291E2,3.6455612E1,5.487863E2,2.357149E2,3.1307144E2,2.989184E2,1.41530285E1,1.320173E2,1.6690111E2,3.741575E1,9.4601555E1],"tree_param":{"num_deleted":"0","num_feature":"114","num_nodes":"13","size_leaf_vector":"1"}},{"base_weights":[2.2907786E-1,-1.0920453E-1,8.0616564E-1,-9.570127E-2,8.487937E-1,8.874658E-1,-9.548787E-2,9.951824E-1,5.935698E-1,1.0592606E0,8.020468E-1,-1.1174176E-1,1.0963917E-1,9.974826E-2,1.2754503E-1,9.681364E-2,-1.2427099E-1],"categories":[],"categories_nodes":[],"categories_segments":[],"categories_sizes":[],"default_left":[0,0,0,0,0,0,0,0,0,0,0,0,0,0,0,0,0],"id":17,"left_children":[1,-1,3,-1,5,7,-1,9,11,13,15,-1,-1,-1,-1,-1,-1],"loss_changes":[6.0440106E2,0E0,4.3059937E1,0E0,3.9314453E1,1.5566956E1,0E0,3.055603E0,1.2879088E2,1.2251587E0,3.7708763E1,0E0,0E0,0E0,0E0,0E0,0E0],"parents":[2147483647,0,0,2,2,4,4,5,5,7,7,8,8,9,9,10,10],"right_children":[2,-1,4,-1,6,8,-1,10,12,14,16,-1,-1,-1,-1,-1,-1],"split_conditions":[9.2617445E0,-1.0920453E-1,4E0,-9.570127E-2,3E1,4.242857E0,-9.548787E-2,1.7239489E1,1E0,4.1791043E0,6.521739E-2,-1.1174176E-1,1.0963917E-1,9.974826E-2,1.2754503E-1,9.681364E-2,-1.2427099E-1],"split_indices":[93,0,91,0,103,100,0,95,0,100,113,0,0,0,0,0,0],"split_type":[0,0,0,0,0,0,0,0,0,0,0,0,0,0,0,0,0],"sum_hessian":[7.884474E2,2.3915858E2,5.492888E2,1.1953844E1,5.3733496E2,5.2705054E2,1.0284422E1,3.821978E2,1.4485275E2,2.802484E2,1.01949394E2,3.234512E1,1.1250763E2,2.2669604E2,5.355236E1,9.5264404E1,6.684993E0],"tree_param":{"num_deleted":"0","num_feature":"114","num_nodes":"17","size_leaf_vector":"1"}},{"base_weights":[2.2542325E-1,7.153483E-1,-1.0798456E-1,-1.0249758E-1,8.181996E-1,9.916149E-1,5.59692E-1,1.1083575E-1,8.239838E-1,1.9590022E-2,1.0830156E-1,9.344433E-1,-1.3316631E-1,-1.1340324E-1,7.079588E-1,1.0225866E-1,-1.3005684E-1,1.0753238E-1,-9.897726E-2],"categories":[],"categories_nodes":[],"categories_segments":[],"categories_sizes":[],"default_left":[0,0,0,0,0,0,0,0,0,0,0,0,0,0,0,0,0,0,0],"id":18,"left_children":[1,3,-1,-1,5,7,9,-1,11,13,-1,15,-1,-1,17,-1,-1,-1,-1],"loss_changes":[4.686887E2,9.696387E1,0E0,0E0,2.1472748E1,4.022949E0,5.8422043E1,0E0,3.3563057E1,8.405718E1,0E0,2.7347519E1,0E0,0E0,4.3452736E1,0E0,0E0,0E0,0E0],"parents":[2147483647,0,0,1,1,4,4,5,5,6,6,8,8,9,9,11,11,14,14],"right_children":[2,4,-1,-1,6,8,10,-1,12,14,-1,16,-1,-1,18,-1,-1,-1,-1],"split_conditions":[7.5833335E0,4E0,-1.0798456E-1,-1.0249758E-1,3.6962025E0,6E0,1E0,1.1083575E-1,1.903418E1,1E0,1.0830156E-1,3.3333333E0,-1.3316631E-1,-1.1340324E-1,4.242857E0,1.0225866E-1,-1.3005684E-1,1.0753238E-1,-9.897726E-2],"split_indices":[100,91,0,0,100,111,0,0,95,98,0,100,0,0,100,0,0,0,0],"split_type":[0,0,0,0,0,0,0,0,0,0,0,0,0,0,0,0,0,0,0],"sum_hessian":[7.285012E2,5.303437E2,1.9815752E2,2.8593208E1,5.0175052E2,2.9690506E2,2.0484546E2,1.684019E2,1.2850316E2,1.018278E2,1.0301766E2,1.2331718E2,5.185981E0,3.7570076E1,6.425771E1,1.1968215E2,3.635026E0,5.3429543E1,1.0828173E1],"tree_param":{"num_deleted":"0","num_feature":"114","num_nodes":"19","size_leaf_vector":"1"}},{"base_weights":[1.9341026E-1,6.770983E-1,-1.069889E-1,-9.99976E-2,7.691083E-1,6.1874837E-1,1.07237995E-1,-1.08930185E-1,8.8704365E-1,9.8701733E-1,5.953653E-1,7.747176E-2,1.09079055E-1,-1.4689146E-1,8.074222E-2],"categories":[],"categories_nodes":[],"categories_segments":[],"categories_sizes":[],"default_left":[0,0,0,0,0,0,0,0,0,0,0,0,0,0,0],"id":19,"left_children":[1,3,-1,-1,5,7,-1,-1,9,11,13,-1,-1,-1,-1],"loss_changes":[4.01091E2,7.470714E1,0E0,0E0,1.922229E1,1.4216188E2,0E0,0E0,6.568619E0,2.600113E0,3.42524E1,0E0,0E0,0E0,0E0],"parents":[2147483647,0,0,1,1,4,4,5,5,8,8,9,9,10,10],"right_children":[2,4,-1,-1,6,8,-1,-1,10,12,14,-1,-1,-1,-1],"split_conditions":[1E0,6E0,-1.069889E-1,-9.99976E-2,1E0,8.6E1,1.07237995E-1,-1.08930185E-1,1.7239489E1,1E0,1.878031E1,7.747176E-2,1.09079055E-1,-1.4689146E-1,8.074222E-2],"split_indices":[83,91,0,0,4,91,0,0,95,98,95,0,0,0,0],"split_type":[0,0,0,0,0,0,0,0,0,0,0,0,0,0,0],"sum_hessian":[6.5203314E2,4.7217596E2,1.7985718E2,2.3531376E1,4.486446E2,3.0400272E2,1.4464185E2,4.0438526E1,2.635642E2,1.9273561E2,7.082859E1,6.883782E1,1.2389779E2,5.493902E0,6.533469E1],"tree_param":{"num_deleted":"0","num_feature":"114","num_nodes":"15","size_leaf_vector":"1"}},{"base_weights":[7.3366575E-2,-1.0617157E-1,6.5514797E-1,7.274384E-1,-1.4007555E-1,-8.929088E-2,7.762557E-1,8.1459236E-1,-1.0740199E-1,1.033952E-1,5.467392E-1,6.942451E-2,-1.2643057E-1],"categories":[],"categories_nodes":[],"categories_segments":[],"categories_sizes":[],"default_left":[0,0,0,0,0,0,0,0,0,0,0,0,0],"id":20,"left_children":[1,-1,3,5,-1,-1,7,9,-1,-1,11,-1,-1],"loss_changes":[3.6223615E2,0E0,5.5913605E1,2.9190582E1,0E0,0E0,2.60298E1,1.8639862E1,0E0,0E0,4.3359898E1,0E0,0E0],"parents":[2147483647,0,0,2,2,3,3,6,6,7,7,10,10],"right_children":[2,-1,4,6,-1,-1,8,10,-1,-1,12,-1,-1],"split_conditions":[9.2617445E0,-1.0617157E-1,1.8294807E1,4E0,-1.4007555E-1,-8.929088E-2,2.98E2,3.5421686E0,-1.0740199E-1,1.033952E-1,1.7560976E1,6.942451E-2,-1.2643057E-1],"split_indices":[93,0,95,91,0,0,92,100,0,0,93,0,0],"split_type":[0,0,0,0,0,0,0,0,0,0,0,0,0],"sum_hessian":[5.4442865E2,1.839276E2,3.6050107E2,3.4950403E2,1.0997046E1,9.210392E0,3.4029364E2,3.3448285E2,5.8108053E0,1.8074255E2,1.5374028E2,1.4330196E2,1.0438329E1],"tree_param":{"num_deleted":"0","num_feature":"114","num_nodes":"13","size_leaf_vector":"1"}},{"base_weights":[9.765656E-2,4.8140717E-1,-1.0494448E-1,-9.8215766E-2,5.7558894E-1,6.46131E-1,-9.408912E-2,4.4444996E-1,1.05707206E-1,-1.05835296E-1,6.230945E-1,8.291439E-2,1.6312677E-2],"categories":[],"categories_nodes":[],"categories_segments":[],"categories_sizes":[],"default_left":[0,0,0,0,0,0,0,0,0,0,0,0,0],"id":21,"left_children":[1,3,-1,-1,5,7,-1,9,-1,-1,11,-1,-1],"loss_changes":[2.279552E2,5.4569267E1,0E0,0E0,4.031595E1,2.8104797E1,0E0,6.5355225E1,0E0,0E0,2.005346E1,0E0,0E0],"parents":[2147483647,0,0,1,1,4,4,5,5,7,7,10,10],"right_children":[2,4,-1,-1,6,8,-1,10,-1,-1,12,-1,-1],"split_conditions":[3E0,3.7216146E-2,-1.0494448E-1,-9.8215766E-2,2E0,1E0,-9.408912E-2,1.5116279E0,1.05707206E-1,-1.05835296E-1,2E0,8.291439E-2,1.6312677E-2],"split_indices":[102,101,0,0,81,4,0,94,0,0,94,0,0],"split_type":[0,0,0,0,0,0,0,0,0,0,0,0,0],"sum_hessian":[5.1354834E2,3.8568286E2,1.2786546E2,2.2178406E1,3.6350446E2,3.4844376E2,1.5060695E1,2.365253E2,1.1191845E2,2.4083141E1,2.1244215E2,1.4560916E2,6.6833E1],"tree_param":{"num_deleted":"0","num_feature":"114","num_nodes":"13","size_leaf_vector":"1"}},{"base_weights":[1.70334E-1,-1.0489335E-1,7.342313E-1,-8.354988E-2,7.715436E-1,3.055358E-1,8.6514693E-1,-1.0505357E-1,1.004694E-1,9.67162E-2,6.981929E-1,8.134498E-1,-1.3342093E-1,3.0119613E-2,1.04489125E-1],"categories":[],"categories_nodes":[],"categories_segments":[],"categories_sizes":[],"default_left":[0,0,0,0,0,0,0,0,0,0,0,0,0,0,0],"id":22,"left_children":[1,-1,3,-1,5,7,9,-1,-1,-1,11,13,-1,-1,-1],"loss_changes":[3.5288995E2,0E0,2.1823776E1,0E0,1.445462E1,5.9515926E1,3.5026855E0,0E0,0E0,0E0,2.9171902E1,1.2450256E1,0E0,0E0,0E0],"parents":[2147483647,0,0,2,2,4,4,5,5,6,6,10,10,11,11],"right_children":[2,-1,4,-1,6,8,10,-1,-1,-1,12,14,-1,-1,-1],"split_conditions":[1.0909091E1,-1.0489335E-1,4E0,-8.354988E-2,1.7202797E1,1E0,6.521739E-2,-1.0505357E-1,1.004694E-1,9.67162E-2,1.01E2,8.108108E-2,-1.3342093E-1,3.0119613E-2,1.04489125E-1],"split_indices":[93,0,91,0,93,0,113,0,0,0,91,113,0,0,0],"split_type":[0,0,0,0,0,0,0,0,0,0,0,0,0,0,0],"sum_hessian":[5.0902307E2,1.6042636E2,3.4859668E2,7.1003575E0,3.4149634E2,5.8546864E1,2.8294946E2,1.9574827E1,3.897204E1,1.6968172E2,1.13267746E2,1.08324234E2,4.943515E0,3.514343E1,7.318081E1],"tree_param":{"num_deleted":"0","num_feature":"114","num_nodes":"15","size_leaf_vector":"1"}},{"base_weights":[1.9375293E-1,-1.038595E-1,6.6193104E-1,7.016483E-1,-8.825496E-2,-8.353365E-2,7.383043E-1,4.6072638E-1,8.840611E-1,-1.1049612E-1,6.2716675E-1,1.0310195E-1,7.517669E-1,4.160621E-3,9.9418364E-2,-1.781763E-1,9.1761276E-2],"categories":[],"categories_nodes":[],"categories_segments":[],"categories_sizes":[],"default_left":[0,0,0,0,0,0,0,0,0,0,0,0,0,0,0,0,0],"id":23,"left_children":[1,-1,3,5,-1,-1,7,9,11,-1,13,-1,15,-1,-1,-1,-1],"loss_changes":[2.9105927E2,0E0,2.3633331E1,2.1349014E1,0E0,0E0,1.333725E1,3.3858475E1,2.8665009E0,0E0,2.439811E1,0E0,5.660546E1,0E0,0E0,0E0,0E0],"parents":[2147483647,0,0,2,2,3,3,6,6,7,7,8,8,10,10,12,12],"right_children":[2,-1,4,6,-1,-1,8,10,12,-1,14,-1,16,-1,-1,-1,-1],"split_conditions":[9.2617445E0,-1.038595E-1,3E1,4E0,-8.825496E-2,-8.353365E-2,1.9793814E1,8.139535E-2,1.6666666E0,-1.1049612E-1,1.0518106E0,1.0310195E-1,1.0824652E0,4.160621E-3,9.9418364E-2,-1.781763E-1,9.1761276E-2],"split_indices":[93,0,103,91,0,0,93,113,94,0,101,0,101,0,0,0,0],"split_type":[0,0,0,0,0,0,0,0,0,0,0,0,0,0,0,0,0],"sum_hessian":[5.0008887E2,1.3701045E2,3.6307843E2,3.5503976E2,8.038652E0,7.255146E0,3.477846E2,1.2260967E2,2.2517496E2,1.0697914E1,1.1191175E2,1.002386E2,1.24936356E2,4.3976215E1,6.793554E1,6.47866E0,1.18457695E2],"tree_param":{"num_deleted":"0","num_feature":"114","num_nodes":"17","size_leaf_vector":"1"}},{"base_weights":[8.5359745E-2,-1.032076E-1,5.810198E-1,8.056047E-3,8.2817787E-1,-1.135563E-1,1.03229955E-1,-7.632405E-2,8.777124E-1,1.0483743E-1,6.6408265E-1,3.8765177E-1,9.959174E-2,-1.6642468E-1,7.6062135E-2],"categories":[],"categories_nodes":[],"categories_segments":[],"categories_sizes":[],"default_left":[0,0,0,0,0,0,0,0,0,0,0,0,0,0,0],"id":24,"left_children":[1,-1,3,5,7,-1,-1,-1,9,-1,11,13,-1,-1,-1],"loss_changes":[2.307323E2,0E0,4.0821815E1,1.0650214E2,1.7219116E1,0E0,0E0,0E0,5.7638855E0,0E0,7.7243805E0,4.3709194E1,0E0,0E0,0E0],"parents":[2147483647,0,0,2,2,3,3,4,4,8,8,10,10,11,11],"right_children":[2,-1,4,6,8,-1,-1,-1,10,-1,12,14,-1,-1,-1],"split_conditions":[9.2617445E0,-1.032076E-1,2.056537E1,2E0,7.1070445E-1,-1.135563E-1,1.03229955E-1,-7.632405E-2,6E0,1.0483743E-1,1.3334013E0,2.559727E1,9.959174E-2,-1.6642468E-1,7.6062135E-2],"split_indices":[93,0,93,0,101,0,0,0,111,0,101,93,0,0,0],"split_type":[0,0,0,0,0,0,0,0,0,0,0,0,0,0,0],"sum_hessian":[4.1241797E2,1.2605965E2,2.863583E2,8.692146E1,1.9943686E2,4.096482E1,4.5956642E1,5.150425E0,1.9428644E2,1.0366055E2,9.0625885E1,5.1805965E1,3.8819916E1,6.9032583E0,4.4902706E1],"tree_param":{"num_deleted":"0","num_feature":"114","num_nodes":"15","size_leaf_vector":"1"}},{"base_weights":[1.0339621E-1,5.243984E-1,-1.0241073E-1,-9.256784E-2,6.1212116E-1,1.8529975E-1,7.604664E-1,-1.03850484E-1,1.0211759E-1,8.8462406E-1,4.6281627E-1,1.11706726E-1,7.6638377E-1,-2.2723266E-1,1.0417171E-1,9.611546E-2,-1.2755977E-1,4.6066843E-2,-1.3014056E-1],"categories":[],"categories_nodes":[],"categories_segments":[],"categories_sizes":[],"default_left":[0,0,0,0,0,0,0,0,0,0,0,0,0,0,0,0,0,0,0],"id":25,"left_children":[1,3,-1,-1,5,7,9,-1,-1,11,13,-1,15,17,-1,-1,-1,-1,-1],"loss_changes":[1.8639801E2,3.7462265E1,0E0,0E0,1.6845856E1,7.61955E1,6.57576E0,0E0,0E0,2.1081848E0,2.5676598E1,0E0,4.1629734E1,2.3680458E1,0E0,0E0,0E0,0E0,0E0],"parents":[2147483647,0,0,1,1,4,4,5,5,6,6,9,9,10,10,12,12,13,13],"right_children":[2,4,-1,-1,6,8,10,-1,-1,12,14,-1,16,18,-1,-1,-1,-1,-1],"split_conditions":[7.5833335E0,4E0,-1.0241073E-1,-9.256784E-2,8.6E1,1E0,1.7239489E1,-1.03850484E-1,1.0211759E-1,8.7E1,2.967033E0,1.11706726E-1,3.3333333E0,2.87E2,1.0417171E-1,9.611546E-2,-1.2755977E-1,4.6066843E-2,-1.3014056E-1],"split_indices":[100,91,0,0,91,0,95,0,0,91,94,0,100,92,0,0,0,0,0],"split_type":[0,0,0,0,0,0,0,0,0,0,0,0,0,0,0,0,0,0,0],"sum_hessian":[3.8841742E2,2.8359482E2,1.04822586E2,1.5087671E1,2.6850717E2,7.041271E1,1.9809445E2,2.8378693E1,4.203402E1,1.370029E2,6.1091553E1,4.049694E1,9.650595E1,2.8424519E1,3.2667038E1,8.906888E1,7.437075E0,1.8024132E1,1.0400385E1],"tree_param":{"num_deleted":"0","num_feature":"114","num_nodes":"19","size_leaf_vector":"1"}}]},"name":"gbtree"},"learner_model_param":{"base_score":"[5.1523167E-1]","boost_from_average":"1","num_class":"0","num_feature":"114","num_target":"1"},"objective":{"name":"binary:logistic","reg_loss_param":{"scale_pos_weight":"257.649994"}}},"version":[3,2,0]}