{"learner":{"attributes":{"best_iteration":"1","best_score":"1.0"},"feature_names":["dns__query_count","dns__query_rate_per_minute","dns__avg_query_length","dns__max_query_length","dns__avg_entropy","dns__max_entropy","dns__avg_subdomain_depth","dns__max_label_length","dns__avg_label_length","dns__label_entropy_max","dns__unique_subdomain_ratio","dns__base64_pattern_count","dns__hex_pattern_count","dns__numeric_ratio","dns__subdomain_has_numbers_ratio","dns__unique_base_domains","dns__top_domain_query_ratio","dns__max_unique_subdomains_per_domain","dns__txt_record_ratio","dns__null_record_ratio","dns__mx_record_ratio","dns__cname_record_ratio","dns__any_record_ratio","dns__tunneling_type_ratio","dns__record_type_count","dns__avg_response_size","dns__max_response_size","dns__response_variance","dns__nxdomain_ratio","dns__fast_flux_ratio","dns__min_ttl","dns__ttl_variance","dns__inter_query_interval_mean","dns__inter_query_interval_cv","dns__unique_process_count","dns__non_browser_dns_ratio","dns__non_standard_dns_ratio","dns__nx_subdomains_per_top_domain","dns__nx_top_domain_query_ratio","dns__consonant_run_max","dns__digit_letter_run_max","dns__vowel_ratio_min","auth__total_auth_events","auth__successful_logon_count","auth__failed_logon_count","auth__failed_logon_ratio","auth__network_logon_count","auth__interactive_logon_count","auth__remote_interactive_logon_count","auth__service_logon_count","auth__cleartext_logon_count","auth__network_logon_ratio","auth__explicit_credential_count","auth__ntlm_count","auth__kerberos_tgt_count","auth__kerberos_tgs_count","auth__special_logon_count","auth__unique_privileged_users","auth__unique_users","auth__unique_target_hosts","auth__unique_source_ips","auth__lateral_velocity_per_min","auth__max_hosts_per_user","auth__max_failures_per_user","auth__unique_failed_users","auth__max_users_per_source","auth__account_created_count","auth__account_enabled_count","auth__password_reset_count","auth__account_disabled_count","auth__account_deleted_count","auth__account_changed_count","auth__success_after_failures","auth__time_to_first_success_secs","auth__offhours_logon_count","auth__offhours_interactive_count","auth__psexec_invocations","auth__wmic_invocations","auth__winrm_invocations","auth__schtasks_invocations","auth__powershell_encoded_count","auth__lsass_access_count","process__total_process_events","process__credential_tool_count","process__lsass_access_count","process__image_load_count","process__remote_thread_count","process__process_tamper_count","process__psexec_count","process__wmic_count","process__mshta_count","process__rundll32_count","process__regsvr32_count","process__certutil_count","process__bitsadmin_count","process__schtasks_count","process__esentutl_count","process__total_lolbin_count","process__powershell_count","process__encoded_command_count","process__download_command_count","process__amsi_bypass_count","process__office_to_shell_count","process__browser_to_shell_count","process__pipe_event_count","process__pipe_attack_count","process__archive_drop_count","process__user_exe_drop_count","process__file_create_count","process__unique_image_count","process__unique_parent_count","network__total_connections","network__connections_per_minute","network__total_lateral_count","network__smb_count","network__rdp_count","network__winrm_count","network__wmi_count","network__ssh_count","network__netbios_count","network__telnet_count","network__unique_dest_ips","network__unique_dest_ports","network__unique_source_processes","network__internal_connection_count","network__external_connection_count","network__internal_to_external_ratio","network__shell_initiated_count","network__lolbin_initiated_count","network__shell_lateral_count","network__total_bytes_sent","network__total_bytes_received","network__max_bytes_per_connection","temporal__total_event_count","temporal__window_duration_seconds","temporal__events_per_minute","temporal__burst_factor","temporal__per_minute_stdev","temporal__active_minute_count","temporal__off_hours_ratio","temporal__night_hours_ratio","temporal__weekend_ratio","temporal__inter_event_interval_mean","temporal__inter_event_interval_cv","temporal__inter_event_interval_min","temporal__inter_event_interval_max","behavioral__pth_chain_count","behavioral__bruteforce_success_count","behavioral__auth_then_network_count","behavioral__auth_then_process_count","behavioral__priv_escalation_chain","behavioral__unique_users_overall","behavioral__unique_hosts_overall","behavioral__unique_processes_overall","behavioral__host_user_pair_count","behavioral__entity_diversity_score"],"feature_types":[],"gradient_booster":{"model":{"cats":{"enc":[],"feature_segments":[],"sorted_idx":[]},"gbtree_model_param":{"num_parallel_tree":"1","num_trees":"22"},"iteration_indptr":[0,1,2,3,4,5,6,7,8,9,10,11,12,13,14,15,16,17,18,19,20,21,22],"tree_info":[0,0,0,0,0,0,0,0,0,0,0,0,0,0,0,0,0,0,0,0,0,0],"trees":[{"base_weights":[1.8689984E-2,-1.9976099E-1,1.9779354E0,-1.5294118E-1,1.9930059E0,1.9976659E-1,-1E-1],"categories":[],"categories_nodes":[],"categories_segments":[],"categories_sizes":[],"default_left":[0,0,0,0,0,0,0],"id":0,"left_children":[1,-1,3,-1,5,-1,-1],"loss_changes":[6.70726E3,0E0,4.8563965E1,0E0,1.39626465E1,0E0,0E0],"parents":[2147483647,0,0,2,2,4,4],"right_children":[2,-1,4,-1,6,-1,-1],"split_conditions":[1.3846154E1,-1.9976099E-1,9E0,-1.5294118E-1,3E2,1.9976659E-1,-1E-1],"split_indices":[135,0,134,0,30,0,0],"split_type":[0,0,0,0,0,0,0],"sum_hessian":[1.6958572E3,8.3575E2,8.601071E2,3.25E0,8.568571E2,8.558571E2,1E0],"tree_param":{"num_deleted":"0","num_feature":"156","num_nodes":"7","size_leaf_vector":"1"}},{"base_weights":[4.8197247E-3,1.5657598E0,-1.8165974E-1,-1.7908938E-1,1.8061681E0,1.8167779E-1,-1.3019688E-1],"categories":[],"categories_nodes":[],"categories_segments":[],"categories_sizes":[],"default_left":[0,0,0,0,0,0,0],"id":1,"left_children":[1,3,-1,-1,5,-1,-1],"loss_changes":[4.8111367E3,7.3858984E2,0E0,0E0,3.0423584E1,0E0,0E0],"parents":[2147483647,0,0,1,1,4,4],"right_children":[2,4,-1,-1,6,-1,-1],"split_conditions":[5.034483E0,4.7980058E-1,-1.8165974E-1,-1.7908938E-1,3E2,1.8167779E-1,-1.3019688E-1],"split_indices":[142,143,0,0,30,0,0],"split_type":[0,0,0,0,0,0,0],"sum_hessian":[1.690201E3,9.102577E2,7.799433E2,6.0405697E1,8.49852E2,8.4737494E2,2.4770784E0],"tree_param":{"num_deleted":"0","num_feature":"156","num_nodes":"7","size_leaf_vector":"1"}},{"base_weights":[7.666089E-2,1.4538393E0,-1.680677E-1,-1.6594994E-1,1.6689572E0,1.6809948E-1,-1.315652E-1],"categories":[],"categories_nodes":[],"categories_segments":[],"categories_sizes":[],"default_left":[0,0,0,0,0,0,0],"id":2,"left_children":[1,3,-1,-1,5,-1,-1],"loss_changes":[4.144106E3,6.456936E2,0E0,0E0,3.4489502E1,0E0,0E0],"parents":[2147483647,0,0,1,1,4,4],"right_children":[2,4,-1,-1,6,-1,-1],"split_conditions":[5.034483E0,4E0,-1.680677E-1,-1.6594994E-1,3E2,1.6809948E-1,-1.315652E-1],"split_indices":[142,133,0,0,30,0,0],"split_type":[0,0,0,0,0,0,0],"sum_hessian":[1.7103123E3,9.589678E2,7.5134454E2,6.154408E1,8.9742365E2,8.942537E2,3.169922E0],"tree_param":{"num_deleted":"0","num_feature":"156","num_nodes":"7","size_leaf_vector":"1"}},{"base_weights":[3.7399586E-3,-1.5755856E-1,1.5591323E0,1.571288E-1,-1.2114215E-1],"categories":[],"categories_nodes":[],"categories_segments":[],"categories_sizes":[],"default_left":[0,0,0,0,0],"id":3,"left_children":[1,-1,3,-1,-1],"loss_changes":[3.8975515E3,0E0,2.8824707E1,0E0,0E0],"parents":[2147483647,0,0,2,2],"right_children":[2,-1,4,-1,-1],"split_conditions":[1.3846154E1,-1.5755856E-1,1E0,1.571288E-1,-1.2114215E-1],"split_indices":[135,0,125,0,0],"split_type":[0,0,0,0,0],"sum_hessian":[1.5846467E3,7.862676E2,7.983791E2,7.953225E2,3.0565567E0],"tree_param":{"num_deleted":"0","num_feature":"156","num_nodes":"5","size_leaf_vector":"1"}},{"base_weights":[-5.5771526E-2,1.2692603E0,-1.4910334E-1,-1.4719513E-1,1.4789165E0,1.4911349E-1,-1.1666333E-1],"categories":[],"categories_nodes":[],"categories_segments":[],"categories_sizes":[],"default_left":[0,0,0,0,0,0,0],"id":4,"left_children":[1,3,-1,-1,5,-1,-1],"loss_changes":[2.7460073E3,4.3367957E2,0E0,0E0,2.4301025E1,0E0,0E0],"parents":[2147483647,0,0,1,1,4,4],"right_children":[2,4,-1,-1,6,-1,-1],"split_conditions":[5.034483E0,4.7980058E-1,-1.4910334E-1,-1.4719513E-1,3E2,1.4911349E-1,-1.1666333E-1],"split_indices":[142,143,0,0,30,0,0],"split_type":[0,0,0,0,0,0,0],"sum_hessian":[1.4419286E3,7.4981555E2,6.92113E2,5.2845875E1,6.9696967E2,6.941999E2,2.769773E0],"tree_param":{"num_deleted":"0","num_feature":"156","num_nodes":"7","size_leaf_vector":"1"}},{"base_weights":[1.1277843E-1,1.2503642E0,-1.4227141E-1,-1.4040636E-1,1.4136914E0,1.4232463E-1,-1.12817824E-1],"categories":[],"categories_nodes":[],"categories_segments":[],"categories_sizes":[],"default_left":[0,0,0,0,0,0,0],"id":5,"left_children":[1,3,-1,-1,5,-1,-1],"loss_changes":[2.7087031E3,3.881466E2,0E0,0E0,2.1996704E1,0E0,0E0],"parents":[2147483647,0,0,1,1,4,4],"right_children":[2,4,-1,-1,6,-1,-1],"split_conditions":[5.034483E0,4E0,-1.4227141E-1,-1.4040636E-1,3E2,1.4232463E-1,-1.12817824E-1],"split_indices":[142,133,0,0,30,0,0],"split_type":[0,0,0,0,0,0,0],"sum_hessian":[1.5486879E3,8.897172E2,6.5897064E2,5.1130882E1,8.385863E2,8.3588434E2,2.7019835E0],"tree_param":{"num_deleted":"0","num_feature":"156","num_nodes":"7","size_leaf_vector":"1"}},{"base_weights":[-5.4486748E-2,-1.3668059E-1,1.3490003E0,-1.0771859E-1,1.3629547E-1],"categories":[],"categories_nodes":[],"categories_segments":[],"categories_sizes":[],"default_left":[0,0,0,0,0],"id":6,"left_children":[1,-1,3,-1,-1],"loss_changes":[2.3721099E3,0E0,2.2538696E1,0E0,0E0],"parents":[2147483647,0,0,2,2],"right_children":[2,-1,4,-1,-1],"split_conditions":[1.3846154E1,-1.3668059E-1,4E0,-1.0771859E-1,1.3629547E-1],"split_indices":[135,0,133,0,0],"split_type":[0,0,0,0,0],"sum_hessian":[1.2859131E3,6.645537E2,6.2135944E2,3.117619E0,6.182418E2],"tree_param":{"num_deleted":"0","num_feature":"156","num_nodes":"5","size_leaf_vector":"1"}},{"base_weights":[4.8272153E-3,-1.3195638E-1,1.3064706E0,-9.1339566E-2,1.3148543E-1],"categories":[],"categories_nodes":[],"categories_segments":[],"categories_sizes":[],"default_left":[0,0,0,0,0],"id":7,"left_children":[1,-1,3,-1,-1],"loss_changes":[2.1681616E3,0E0,1.3005981E1,0E0,0E0],"parents":[2147483647,0,0,2,2],"right_children":[2,-1,4,-1,-1],"split_conditions":[1.3846154E1,-1.3195638E-1,4.8765983E-2,-9.1339566E-2,1.3148543E-1],"split_indices":[135,0,143,0,0],"split_type":[0,0,0,0,0],"sum_hessian":[1.2557183E3,6.224136E2,6.3330475E2,1.9766331E0,6.3132806E2],"tree_param":{"num_deleted":"0","num_feature":"156","num_nodes":"5","size_leaf_vector":"1"}},{"base_weights":[-1.091232E-3,-1.2797935E-1,1.2648141E0,-9.682564E-2,1.2759283E-1],"categories":[],"categories_nodes":[],"categories_segments":[],"categories_sizes":[],"default_left":[0,0,0,0,0],"id":8,"left_children":[1,-1,3,-1,-1],"loss_changes":[1.9057607E3,0E0,1.5918762E1,0E0,0E0],"parents":[2147483647,0,0,2,2],"right_children":[2,-1,4,-1,-1],"split_conditions":[1.3846154E1,-1.2797935E-1,4E0,-9.682564E-2,1.2759283E-1],"split_indices":[135,0,133,0,0],"split_type":[0,0,0,0,0],"sum_hessian":[1.1753286E3,5.847034E2,5.906251E2,2.4985454E0,5.881266E2],"tree_param":{"num_deleted":"0","num_feature":"156","num_nodes":"5","size_leaf_vector":"1"}},{"base_weights":[5.9837874E-2,-1.2457392E-1,1.2289891E0,-9.6689455E-2,1.24075785E-1],"categories":[],"categories_nodes":[],"categories_segments":[],"categories_sizes":[],"default_left":[0,0,0,0,0],"id":9,"left_children":[1,-1,3,-1,-1],"loss_changes":[1.7232543E3,0E0,1.6590942E1,0E0,0E0],"parents":[2147483647,0,0,2,2],"right_children":[2,-1,4,-1,-1],"split_conditions":[1.3846154E1,-1.2457392E-1,4E0,-9.6689455E-2,1.24075785E-1],"split_indices":[135,0,133,0,0],"split_type":[0,0,0,0,0],"sum_hessian":[1.1269508E3,5.323814E2,5.9456946E2,2.736937E0,5.918325E2],"tree_param":{"num_deleted":"0","num_feature":"156","num_nodes":"5","size_leaf_vector":"1"}},{"base_weights":[-1.0478982E-1,-1.216587E-1,1.1923888E0,-9.473944E-2,1.2086387E-1],"categories":[],"categories_nodes":[],"categories_segments":[],"categories_sizes":[],"default_left":[0,0,0,0,0],"id":10,"left_children":[1,-1,3,-1,-1],"loss_changes":[1.329571E3,0E0,1.5940979E1,0E0,0E0],"parents":[2147483647,0,0,2,2],"right_children":[2,-1,4,-1,-1],"split_conditions":[1.3846154E1,-1.216587E-1,4E0,-9.473944E-2,1.2086387E-1],"split_indices":[135,0,133,0,0],"split_type":[0,0,0,0,0],"sum_hessian":[9.1989923E2,4.9537827E2,4.24521E2,2.767715E0,4.2175327E2],"tree_param":{"num_deleted":"0","num_feature":"156","num_nodes":"5","size_leaf_vector":"1"}},{"base_weights":[4.72881E-2,-1.191375E-1,1.1742349E0,-8.8269435E-2,1.18532054E-1],"categories":[],"categories_nodes":[],"categories_segments":[],"categories_sizes":[],"default_left":[0,0,0,0,0],"id":11,"left_children":[1,-1,3,-1,-1],"loss_changes":[1.3582832E3,0E0,1.2663635E1,0E0,0E0],"parents":[2147483647,0,0,2,2],"right_children":[2,-1,4,-1,-1],"split_conditions":[1.3846154E1,-1.191375E-1,4E0,-8.8269435E-2,1.18532054E-1],"split_indices":[135,0,133,0,0],"split_type":[0,0,0,0,0],"sum_hessian":[9.710447E2,4.6256622E2,5.0847845E2,2.3042426E0,5.0617422E2],"tree_param":{"num_deleted":"0","num_feature":"156","num_nodes":"5","size_leaf_vector":"1"}},{"base_weights":[-1.1062065E-1,-1.1694212E-1,1.1486381E0,-8.345922E-2,1.1621771E-1],"categories":[],"categories_nodes":[],"categories_segments":[],"categories_sizes":[],"default_left":[0,0,0,0,0],"id":12,"left_children":[1,-1,3,-1,-1],"loss_changes":[1.0560929E3,0E0,1.0685699E1,0E0,0E0],"parents":[2147483647,0,0,2,2],"right_children":[2,-1,4,-1,-1],"split_conditions":[1.3846154E1,-1.1694212E-1,4E0,-8.345922E-2,1.1621771E-1],"split_indices":[135,0,133,0,0],"split_type":[0,0,0,0,0],"sum_hessian":[7.900798E2,4.292404E2,3.608394E2,2.0354614E0,3.5880392E2],"tree_param":{"num_deleted":"0","num_feature":"156","num_nodes":"5","size_leaf_vector":"1"}},{"base_weights":[4.9332265E-2,-1.1502055E-1,1.1322113E0,-8.0737345E-2,1.14280455E-1],"categories":[],"categories_nodes":[],"categories_segments":[],"categories_sizes":[],"default_left":[0,0,0,0,0],"id":13,"left_children":[1,-1,3,-1,-1],"loss_changes":[1.0678385E3,0E0,9.799133E0,0E0,0E0],"parents":[2147483647,0,0,2,2],"right_children":[2,-1,4,-1,-1],"split_conditions":[1.3846154E1,-1.1502055E-1,4E0,-8.0737345E-2,1.14280455E-1],"split_indices":[135,0,133,0,0],"split_type":[0,0,0,0,0],"sum_hessian":[8.200729E2,3.890492E2,4.3102368E2,1.9327078E0,4.2909097E2],"tree_param":{"num_deleted":"0","num_feature":"156","num_nodes":"5","size_leaf_vector":"1"}},{"base_weights":[2.386691E-3,-1.1333531E-1,1.1109655E0,-8.110789E-2,1.1241436E-1],"categories":[],"categories_nodes":[],"categories_segments":[],"categories_sizes":[],"default_left":[0,0,0,0,0],"id":14,"left_children":[1,-1,3,-1,-1],"loss_changes":[9.128442E2,0E0,1.02048645E1,0E0,0E0],"parents":[2147483647,0,0,2,2],"right_children":[2,-1,4,-1,-1],"split_conditions":[1.3846154E1,-1.1333531E-1,9E0,-8.110789E-2,1.1241436E-1],"split_indices":[135,0,134,0,0],"split_type":[0,0,0,0,0],"sum_hessian":[7.2302203E2,3.5712494E2,3.6589713E2,2.079305E0,3.638178E2],"tree_param":{"num_deleted":"0","num_feature":"156","num_nodes":"5","size_leaf_vector":"1"}},{"base_weights":[5.0342012E-2,-1.118464E-1,1.0967861E0,-7.924343E-2,1.1093678E-1],"categories":[],"categories_nodes":[],"categories_segments":[],"categories_sizes":[],"default_left":[0,0,0,0,0],"id":15,"left_children":[1,-1,3,-1,-1],"loss_changes":[8.447958E2,0E0,9.5408325E0,0E0,0E0],"parents":[2147483647,0,0,2,2],"right_children":[2,-1,4,-1,-1],"split_conditions":[1.3846154E1,-1.118464E-1,4E0,-7.924343E-2,1.1093678E-1],"split_indices":[135,0,133,0,0],"split_type":[0,0,0,0,0],"sum_hessian":[6.887031E2,3.252984E2,3.6340472E2,1.9941165E0,3.614106E2],"tree_param":{"num_deleted":"0","num_feature":"156","num_nodes":"5","size_leaf_vector":"1"}},{"base_weights":[3.3702247E-3,-1.10530846E-1,1.0832348E0,-7.621779E-2,1.0969385E-1],"categories":[],"categories_nodes":[],"categories_segments":[],"categories_sizes":[],"default_left":[0,0,0,0,0],"id":16,"left_children":[1,-1,3,-1,-1],"loss_changes":[7.2857965E2,0E0,8.632233E0,0E0,0E0],"parents":[2147483647,0,0,2,2],"right_children":[2,-1,4,-1,-1],"split_conditions":[1.3846154E1,-1.10530846E-1,9E0,-7.621779E-2,1.0969385E-1],"split_indices":[135,0,134,0,0],"split_type":[0,0,0,0,0],"sum_hessian":[6.0655804E2,2.9927444E2,3.072836E2,1.8624164E0,3.0542117E2],"tree_param":{"num_deleted":"0","num_feature":"156","num_nodes":"5","size_leaf_vector":"1"}},{"base_weights":[3.600732E-3,9.3171257E-1,-1.0948874E-1,-1.0505157E-1,1.0785884E0,1.09429955E-1,-1.2505129E-1],"categories":[],"categories_nodes":[],"categories_segments":[],"categories_sizes":[],"default_left":[0,0,0,0,0,0,0],"id":17,"left_children":[1,3,-1,-1,5,-1,-1],"loss_changes":[5.6701794E2,8.889966E1,0E0,0E0,1.1656769E1,0E0,0E0],"parents":[2147483647,0,0,1,1,4,4],"right_children":[2,4,-1,-1,6,-1,-1],"split_conditions":[5.034483E0,4E0,-1.0948874E-1,-1.0505157E-1,3E2,1.09429955E-1,-1.2505129E-1],"split_indices":[142,133,0,0,30,0,0],"split_type":[0,0,0,0,0,0,0],"sum_hessian":[5.5416113E2,3.0045703E2,2.5370412E2,2.0302538E1,2.801545E2,2.7880396E2,1.3505446E0],"tree_param":{"num_deleted":"0","num_feature":"156","num_nodes":"7","size_leaf_vector":"1"}},{"base_weights":[6.533958E-3,-1.0831227E-1,1.0553458E0,-7.147112E-2,1.0695579E-1],"categories":[],"categories_nodes":[],"categories_segments":[],"categories_sizes":[],"default_left":[0,0,0,0,0],"id":18,"left_children":[1,-1,3,-1,-1],"loss_changes":[5.7896844E2,0E0,7.258209E0,0E0,0E0],"parents":[2147483647,0,0,2,2],"right_children":[2,-1,4,-1,-1],"split_conditions":[1.3846154E1,-1.0831227E-1,4E0,-7.147112E-2,1.0695579E-1],"split_indices":[135,0,133,0,0],"split_type":[0,0,0,0,0],"sum_hessian":[5.046027E2,2.4746632E2,2.5713638E2,1.6555624E0,2.554808E2],"tree_param":{"num_deleted":"0","num_feature":"156","num_nodes":"5","size_leaf_vector":"1"}},{"base_weights":[4.8452755E-3,-1.0737669E-1,1.0461633E0,-6.520119E-2,1.0587243E-1],"categories":[],"categories_nodes":[],"categories_segments":[],"categories_sizes":[],"default_left":[0,0,0,0,0],"id":19,"left_children":[1,-1,3,-1,-1],"loss_changes":[5.204796E2,0E0,5.719452E0,0E0,0E0],"parents":[2147483647,0,0,2,2],"right_children":[2,-1,4,-1,-1],"split_conditions":[1.3846154E1,-1.0737669E-1,3E0,-6.520119E-2,1.0587243E-1],"split_indices":[135,0,133,0,0],"split_type":[0,0,0,0,0],"sum_hessian":[4.6139883E2,2.2662564E2,2.3477321E2,1.3500041E0,2.334232E2],"tree_param":{"num_deleted":"0","num_feature":"156","num_nodes":"5","size_leaf_vector":"1"}},{"base_weights":[4.3904383E-2,-1.0654028E-1,1.0403169E0,-6.794861E-2,1.0544403E-1],"categories":[],"categories_nodes":[],"categories_segments":[],"categories_sizes":[],"default_left":[0,0,0,0,0],"id":20,"left_children":[1,-1,3,-1,-1],"loss_changes":[4.8921402E2,0E0,6.379303E0,0E0,0E0],"parents":[2147483647,0,0,2,2],"right_children":[2,-1,4,-1,-1],"split_conditions":[1.3846154E1,-1.0654028E-1,4E0,-6.794861E-2,1.0544403E-1],"split_indices":[135,0,133,0,0],"split_type":[0,0,0,0,0],"sum_hessian":[4.405937E2,2.0845323E2,2.3214044E2,1.5071245E0,2.3063332E2],"tree_param":{"num_deleted":"0","num_feature":"156","num_nodes":"5","size_leaf_vector":"1"}},{"base_weights":[8.888311E-2,-1.0577501E-1,1.0325336E0,-6.762774E-2,1.046923E-1],"categories":[],"categories_nodes":[],"categories_segments":[],"categories_sizes":[],"default_left":[0,0,0,0,0],"id":21,"left_children":[1,-1,3,-1,-1],"loss_changes":[4.5184088E2,0E0,6.339386E0,0E0,0E0],"parents":[2147483647,0,0,2,2],"right_children":[2,-1,4,-1,-1],"split_conditions":[1.3846154E1,-1.0577501E-1,4E0,-6.762774E-2,1.046923E-1],"split_indices":[135,0,133,0,0],"split_type":[0,0,0,0,0],"sum_hessian":[4.1558035E2,1.8755757E2,2.2802278E2,1.5199733E0,2.265028E2],"tree_param":{"num_deleted":"0","num_feature":"156","num_nodes":"5","size_leaf_vector":"1"}}]},"name":"gbtree"},"learner_model_param":{"base_score":"[5E-1]","boost_from_average":"1","num_class":"0","num_feature":"156","num_target":"1"},"objective":{"name":"binary:logistic","reg_loss_param":{"scale_pos_weight":"285.285706"}}},"version":[3,2,0]}