{"learner":{"attributes":{"best_iteration":"0","best_score":"1.0"},"feature_names":["dns__query_count","dns__query_rate_per_minute","dns__avg_query_length","dns__max_query_length","dns__avg_entropy","dns__max_entropy","dns__avg_subdomain_depth","dns__max_label_length","dns__avg_label_length","dns__label_entropy_max","dns__unique_subdomain_ratio","dns__base64_pattern_count","dns__hex_pattern_count","dns__numeric_ratio","dns__subdomain_has_numbers_ratio","dns__unique_base_domains","dns__top_domain_query_ratio","dns__max_unique_subdomains_per_domain","dns__txt_record_ratio","dns__null_record_ratio","dns__mx_record_ratio","dns__cname_record_ratio","dns__any_record_ratio","dns__tunneling_type_ratio","dns__record_type_count","dns__avg_response_size","dns__max_response_size","dns__response_variance","dns__nxdomain_ratio","dns__fast_flux_ratio","dns__min_ttl","dns__ttl_variance","dns__inter_query_interval_mean","dns__inter_query_interval_cv","dns__unique_process_count","dns__non_browser_dns_ratio","dns__non_standard_dns_ratio","dns__nx_subdomains_per_top_domain","dns__nx_top_domain_query_ratio","dns__consonant_run_max","dns__digit_letter_run_max","dns__vowel_ratio_min","auth__total_auth_events","auth__successful_logon_count","auth__failed_logon_count","auth__failed_logon_ratio","auth__network_logon_count","auth__interactive_logon_count","auth__remote_interactive_logon_count","auth__service_logon_count","auth__cleartext_logon_count","auth__network_logon_ratio","auth__explicit_credential_count","auth__ntlm_count","auth__kerberos_tgt_count","auth__kerberos_tgs_count","auth__special_logon_count","auth__unique_privileged_users","auth__unique_users","auth__unique_target_hosts","auth__unique_source_ips","auth__lateral_velocity_per_min","auth__max_hosts_per_user","auth__max_failures_per_user","auth__unique_failed_users","auth__max_users_per_source","auth__account_created_count","auth__account_enabled_count","auth__password_reset_count","auth__account_disabled_count","auth__account_deleted_count","auth__account_changed_count","auth__success_after_failures","auth__time_to_first_success_secs","auth__offhours_logon_count","auth__offhours_interactive_count","auth__psexec_invocations","auth__wmic_invocations","auth__winrm_invocations","auth__schtasks_invocations","auth__powershell_encoded_count","auth__lsass_access_count","process__total_process_events","process__credential_tool_count","process__lsass_access_count","process__image_load_count","process__remote_thread_count","process__process_tamper_count","process__psexec_count","process__wmic_count","process__mshta_count","process__rundll32_count","process__regsvr32_count","process__certutil_count","process__bitsadmin_count","process__schtasks_count","process__esentutl_count","process__total_lolbin_count","process__powershell_count","process__encoded_command_count","process__download_command_count","process__amsi_bypass_count","process__office_to_shell_count","process__browser_to_shell_count","process__pipe_event_count","process__pipe_attack_count","process__archive_drop_count","process__user_exe_drop_count","process__file_create_count","process__unique_image_count","process__unique_parent_count","network__total_connections","network__connections_per_minute","network__total_lateral_count","network__smb_count","network__rdp_count","network__winrm_count","network__wmi_count","network__ssh_count","network__netbios_count","network__telnet_count","network__unique_dest_ips","network__unique_dest_ports","network__unique_source_processes","network__internal_connection_count","network__external_connection_count","network__internal_to_external_ratio","network__shell_initiated_count","network__lolbin_initiated_count","network__shell_lateral_count","network__total_bytes_sent","network__total_bytes_received","network__max_bytes_per_connection","temporal__total_event_count","temporal__window_duration_seconds","temporal__events_per_minute","temporal__burst_factor","temporal__per_minute_stdev","temporal__active_minute_count","temporal__off_hours_ratio","temporal__night_hours_ratio","temporal__weekend_ratio","temporal__inter_event_interval_mean","temporal__inter_event_interval_cv","temporal__inter_event_interval_min","temporal__inter_event_interval_max","behavioral__pth_chain_count","behavioral__bruteforce_success_count","behavioral__auth_then_network_count","behavioral__auth_then_process_count","behavioral__priv_escalation_chain","behavioral__unique_users_overall","behavioral__unique_hosts_overall","behavioral__unique_processes_overall","behavioral__host_user_pair_count","behavioral__entity_diversity_score"],"feature_types":[],"gradient_booster":{"model":{"cats":{"enc":[],"feature_segments":[],"sorted_idx":[]},"gbtree_model_param":{"num_parallel_tree":"1","num_trees":"21"},"iteration_indptr":[0,1,2,3,4,5,6,7,8,9,10,11,12,13,14,15,16,17,18,19,20,21],"tree_info":[0,0,0,0,0,0,0,0,0,0,0,0,0,0,0,0,0,0,0,0,0],"trees":[{"base_weights":[1.813818E-2,-1.9976304E-1,1.9735643E0,-1.6190477E-1,1.9930699E0,1.9976874E-1,-1E-1],"categories":[],"categories_nodes":[],"categories_segments":[],"categories_sizes":[],"default_left":[0,0,0,0,0,0,0],"id":0,"left_children":[1,-1,3,-1,5,-1,-1],"loss_changes":[6.756192E3,0E0,6.419556E1,0E0,1.3963135E1,0E0,0E0],"parents":[2147483647,0,0,2,2,4,4],"right_children":[2,-1,4,-1,6,-1,-1],"split_conditions":[1.3958333E1,-1.9976304E-1,9E0,-1.6190477E-1,3E2,1.9976874E-1,-1E-1],"split_indices":[135,0,134,0,30,0,0],"split_type":[0,0,0,0,0,0,0],"sum_hessian":[1.7120356E3,8.43E2,8.6903564E2,4.25E0,8.6478564E2,8.6378564E2,1E0],"tree_param":{"num_deleted":"0","num_feature":"156","num_nodes":"7","size_leaf_vector":"1"}},{"base_weights":[-7.465612E-2,1.4954399E0,-1.816581E-1,-1.7948171E-1,1.7869325E0,1.8166031E-1,-1.583121E-1],"categories":[],"categories_nodes":[],"categories_segments":[],"categories_sizes":[],"default_left":[0,0,0,0,0,0,0],"id":1,"left_children":[1,3,-1,-1,5,-1,-1],"loss_changes":[4.477039E3,8.2894507E2,0E0,0E0,8.200879E1,0E0,0E0],"parents":[2147483647,0,0,1,1,4,4],"right_children":[2,4,-1,-1,6,-1,-1],"split_conditions":[5.148148E0,4.0809914E-2,-1.816581E-1,-1.7948171E-1,3E2,1.8166031E-1,-1.583121E-1],"split_indices":[142,143,0,0,30,0,0],"split_type":[0,0,0,0,0,0,0],"sum_hessian":[1.6349563E3,8.599637E2,7.749927E2,6.95665E1,7.9039716E2,7.8395605E2,6.4411435E0],"tree_param":{"num_deleted":"0","num_feature":"156","num_nodes":"7","size_leaf_vector":"1"}},{"base_weights":[7.728886E-2,-1.4198515E0,1.6808675E-1,-1.68126E-1,1.6589893E-1],"categories":[],"categories_nodes":[],"categories_segments":[],"categories_sizes":[],"default_left":[0,0,0,0,0],"id":2,"left_children":[1,3,-1,-1,-1],"loss_changes":[4.147532E3,7.2188245E2,0E0,0E0,0E0],"parents":[2147483647,0,0,1,1],"right_children":[2,4,-1,-1,-1],"split_conditions":[9.899495E0,8E0,1.6808675E-1,-1.68126E-1,1.6589893E-1],"split_indices":[137,42,0,0,0],"split_type":[0,0,0,0,0],"sum_hessian":[1.7255813E3,8.9246686E2,8.331144E2,8.2304065E2,6.94262E1],"tree_param":{"num_deleted":"0","num_feature":"156","num_nodes":"5","size_leaf_vector":"1"}},{"base_weights":[4.543621E-3,-1.5756015E-1,1.5752643E-1],"categories":[],"categories_nodes":[],"categories_segments":[],"categories_sizes":[],"default_left":[0,0,0],"id":3,"left_children":[1,-1,-1],"loss_changes":[3.9727913E3,0E0,0E0],"parents":[2147483647,0,0],"right_children":[2,-1,-1],"split_conditions":[9.899495E0,-1.5756015E-1,1.5752643E-1],"split_indices":[137,0,0],"split_type":[0,0,0],"sum_hessian":[1.5986625E3,7.9693884E2,8.0172363E2],"tree_param":{"num_deleted":"0","num_feature":"156","num_nodes":"3","size_leaf_vector":"1"}},{"base_weights":[-2.8969395E-1,-1.4914261E-1,1.4901756E-1],"categories":[],"categories_nodes":[],"categories_segments":[],"categories_sizes":[],"default_left":[0,0,0],"id":4,"left_children":[1,-1,-1],"loss_changes":[2.7086458E3,0E0,0E0],"parents":[2147483647,0,0],"right_children":[2,-1,-1],"split_conditions":[9.899495E0,-1.4914261E-1,1.4901756E-1],"split_indices":[137,0,0],"split_type":[0,0,0],"sum_hessian":[1.2643185E3,7.548327E2,5.094858E2],"tree_param":{"num_deleted":"0","num_feature":"156","num_nodes":"3","size_leaf_vector":"1"}},{"base_weights":[8.704752E-2,1.2502497E0,-1.4225917E-1,-1.4013007E-1,1.4352951E0,1.4552859E0,-1.22096755E-1,1.7613114E-1,1.4228648E-1],"categories":[],"categories_nodes":[],"categories_segments":[],"categories_sizes":[],"default_left":[0,0,0,0,0,0,0,0,0],"id":5,"left_children":[1,3,-1,-1,5,7,-1,-1,-1],"loss_changes":[2.6609775E3,4.219353E2,0E0,0E0,4.4284058E1,5.381592E0,0E0,0E0,0E0],"parents":[2147483647,0,0,1,1,4,4,5,5],"right_children":[2,4,-1,-1,6,8,-1,-1,-1],"split_conditions":[5.148148E0,3E0,-1.4225917E-1,-1.4013007E-1,3E2,1.6E1,-1.22096755E-1,1.7613114E-1,1.4228648E-1],"split_indices":[142,133,0,0,30,133,0,0,0],"split_type":[0,0,0,0,0,0,0,0,0],"sum_hessian":[1.5133367E3,8.5483997E2,6.584967E2,5.5336727E1,7.9950323E2,7.9398E2,5.523281E0,7.0950165E1,7.230298E2],"tree_param":{"num_deleted":"0","num_feature":"156","num_nodes":"9","size_leaf_vector":"1"}},{"base_weights":[8.646816E-2,-1.3666204E-1,1.379218E0,-1.0553811E-1,1.3910344E0,1.6354601E-1,1.3639058E-1],"categories":[],"categories_nodes":[],"categories_segments":[],"categories_sizes":[],"default_left":[0,0,0,0,0,0,0],"id":6,"left_children":[1,-1,3,-1,5,-1,-1],"loss_changes":[2.6752393E3,0E0,2.314856E1,0E0,2.7452393E0,0E0,0E0],"parents":[2147483647,0,0,2,2,4,4],"right_children":[2,-1,4,-1,6,-1,-1],"split_conditions":[1.3958333E1,-1.3666204E-1,3E0,-1.0553811E-1,1.6E1,1.6354601E-1,1.3639058E-1],"split_indices":[135,0,133,0,133,0,0],"split_type":[0,0,0,0,0,0,0],"sum_hessian":[1.4221477E3,6.6952496E2,7.5262274E2,3.2086866E0,7.4941406E2,6.894487E1,6.8046924E2],"tree_param":{"num_deleted":"0","num_feature":"156","num_nodes":"7","size_leaf_vector":"1"}},{"base_weights":[-2.2620416E-1,-1.3194695E-1,1.3324951E0,-9.7939655E-2,1.3487959E0,1.5365349E-1,1.3113265E-1],"categories":[],"categories_nodes":[],"categories_segments":[],"categories_sizes":[],"default_left":[0,0,0,0,0,0,0],"id":7,"left_children":[1,-1,3,-1,5,-1,-1],"loss_changes":[1.8261487E3,0E0,1.7972656E1,0E0,1.0744629E0,0E0,0E0],"parents":[2147483647,0,0,2,2,4,4],"right_children":[2,-1,4,-1,6,-1,-1],"split_conditions":[1.3958333E1,-1.3194695E-1,4.0809914E-2,-9.7939655E-2,1E0,1.5365349E-1,1.3113265E-1],"split_indices":[135,0,143,0,136,0,0],"split_type":[0,0,0,0,0,0,0],"sum_hessian":[1.0696066E3,6.2875433E2,4.4085226E2,2.6729717E0,4.381793E2,6.6246704E1,3.719326E2],"tree_param":{"num_deleted":"0","num_feature":"156","num_nodes":"7","size_leaf_vector":"1"}},{"base_weights":[7.360302E-2,-1.2796544E-1,1.283597E0,-9.7738706E-2,1.2950758E0,1.4569162E-1,1.2754568E-1],"categories":[],"categories_nodes":[],"categories_segments":[],"categories_sizes":[],"default_left":[0,0,0,0,0,0,0],"id":8,"left_children":[1,-1,3,-1,5,-1,-1],"loss_changes":[2.0494458E3,0E0,1.841455E1,0E0,2.3059082E-1,0E0,0E0],"parents":[2147483647,0,0,2,2,4,4],"right_children":[2,-1,4,-1,6,-1,-1],"split_conditions":[1.3958333E1,-1.2796544E-1,3E0,-9.7738706E-2,1.6E1,1.4569162E-1,1.2754568E-1],"split_indices":[135,0,133,0,133,0,0],"split_type":[0,0,0,0,0,0,0],"sum_hessian":[1.2496178E3,5.8986035E2,6.5975745E2,2.907552E0,6.5684985E2,6.3096405E1,5.937535E2],"tree_param":{"num_deleted":"0","num_feature":"156","num_nodes":"7","size_leaf_vector":"1"}},{"base_weights":[1.2820092E-1,-1.2456419E-1,1.2490423E0,-9.080695E-2,1.2583378E-1],"categories":[],"categories_nodes":[],"categories_segments":[],"categories_sizes":[],"default_left":[0,0,0,0,0],"id":9,"left_children":[1,-1,3,-1,-1],"loss_changes":[1.845987E3,0E0,1.4379395E1,0E0,0E0],"parents":[2147483647,0,0,2,2],"right_children":[2,-1,4,-1,-1],"split_conditions":[1.3958333E1,-1.2456419E-1,3E0,-9.080695E-2,1.2583378E-1],"split_indices":[135,0,133,0,0],"split_type":[0,0,0,0,0],"sum_hessian":[1.1967916E3,5.376587E2,6.5913293E2,2.413301E0,6.567196E2],"tree_param":{"num_deleted":"0","num_feature":"156","num_nodes":"5","size_leaf_vector":"1"}},{"base_weights":[3.1670067E-2,-1.2164902E-1,1.2172915E0,-9.115281E-2,1.2296551E-1],"categories":[],"categories_nodes":[],"categories_segments":[],"categories_sizes":[],"default_left":[0,0,0,0,0],"id":10,"left_children":[1,-1,3,-1,-1],"loss_changes":[1.5212517E3,0E0,1.4996216E1,0E0,0E0],"parents":[2147483647,0,0,2,2],"right_children":[2,-1,4,-1,-1],"split_conditions":[1.3958333E1,-1.2164902E-1,3E0,-9.115281E-2,1.2296551E-1],"split_indices":[135,0,133,0,0],"split_type":[0,0,0,0,0],"sum_hessian":[1.0259795E3,4.9979523E2,5.2618427E2,2.6183145E0,5.235659E2],"tree_param":{"num_deleted":"0","num_feature":"156","num_nodes":"5","size_leaf_vector":"1"}},{"base_weights":[6.9483496E-2,-1.1913003E-1,1.1894574E0,-8.648332E-2,1.2002096E-1],"categories":[],"categories_nodes":[],"categories_segments":[],"categories_sizes":[],"default_left":[0,0,0,0,0],"id":11,"left_children":[1,-1,3,-1,-1],"loss_changes":[1.404423E3,0E0,1.2671448E1,0E0,0E0],"parents":[2147483647,0,0,2,2],"right_children":[2,-1,4,-1,-1],"split_conditions":[1.3958333E1,-1.1913003E-1,3E0,-8.648332E-2,1.2002096E-1],"split_indices":[135,0,133,0,0],"split_type":[0,0,0,0,0],"sum_hessian":[9.9259863E2,4.6691574E2,5.2568286E2,2.3235214E0,5.233594E2],"tree_param":{"num_deleted":"0","num_feature":"156","num_nodes":"5","size_leaf_vector":"1"}},{"base_weights":[1.868554E-2,-1.16937876E-1,1.1656473E0,-7.763566E-2,1.17501214E-1],"categories":[],"categories_nodes":[],"categories_segments":[],"categories_sizes":[],"default_left":[0,0,0,0,0],"id":12,"left_children":[1,-1,3,-1,-1],"loss_changes":[1.2043678E3,0E0,9.090576E0,0E0,0E0],"parents":[2147483647,0,0,2,2],"right_children":[2,-1,4,-1,-1],"split_conditions":[1.3958333E1,-1.16937876E-1,3E0,-7.763566E-2,1.17501214E-1],"split_indices":[135,0,133,0,0],"split_type":[0,0,0,0,0],"sum_hessian":[8.8183276E2,4.331455E2,4.486873E2,1.7602623E0,4.46927E2],"tree_param":{"num_deleted":"0","num_feature":"156","num_nodes":"5","size_leaf_vector":"1"}},{"base_weights":[7.131457E-2,-1.1501522E-1,1.1426361E0,-8.1261195E-2,1.1536372E-1],"categories":[],"categories_nodes":[],"categories_segments":[],"categories_sizes":[],"default_left":[0,0,0,0,0],"id":13,"left_children":[1,-1,3,-1,-1],"loss_changes":[1.0996843E3,0E0,1.056665E1,0E0,0E0],"parents":[2147483647,0,0,2,2],"right_children":[2,-1,4,-1,-1],"split_conditions":[1.3958333E1,-1.1501522E-1,3E0,-8.1261195E-2,1.1536372E-1],"split_indices":[135,0,133,0,0],"split_type":[0,0,0,0,0],"sum_hessian":[8.3835803E2,3.916943E2,4.4666373E2,2.091391E0,4.4457233E2],"tree_param":{"num_deleted":"0","num_feature":"156","num_nodes":"5","size_leaf_vector":"1"}},{"base_weights":[-7.408622E-2,-1.13331236E-1,1.1247387E0,-7.4892975E-2,1.137191E-1],"categories":[],"categories_nodes":[],"categories_segments":[],"categories_sizes":[],"default_left":[0,0,0,0,0],"id":14,"left_children":[1,-1,3,-1,-1],"loss_changes":[8.661793E2,0E0,8.317932E0,0E0,0E0],"parents":[2147483647,0,0,2,2],"right_children":[2,-1,4,-1,-1],"split_conditions":[1.3958333E1,-1.13331236E-1,9E0,-7.4892975E-2,1.137191E-1],"split_indices":[135,0,134,0,0],"split_type":[0,0,0,0,0],"sum_hessian":[6.8012024E2,3.6111258E2,3.190077E2,1.7156317E0,3.1729205E2],"tree_param":{"num_deleted":"0","num_feature":"156","num_nodes":"5","size_leaf_vector":"1"}},{"base_weights":[1.101128E-1,-1.1184311E-1,1.108532E0,-7.46435E-2,1.11843966E-1],"categories":[],"categories_nodes":[],"categories_segments":[],"categories_sizes":[],"default_left":[0,0,0,0,0],"id":15,"left_children":[1,-1,3,-1,-1],"loss_changes":[9.0154224E2,0E0,8.285797E0,0E0,0E0],"parents":[2147483647,0,0,2,2],"right_children":[2,-1,4,-1,-1],"split_conditions":[1.3958333E1,-1.1184311E-1,3E0,-7.46435E-2,1.11843966E-1],"split_indices":[135,0,133,0,0],"split_type":[0,0,0,0,0],"sum_hessian":[7.329811E2,3.285651E2,4.0441595E2,1.7536554E0,4.0266232E2],"tree_param":{"num_deleted":"0","num_feature":"156","num_nodes":"5","size_leaf_vector":"1"}},{"base_weights":[-7.179814E-2,-1.1052819E-1,1.0880383E0,-7.755284E-2,1.1049674E-1],"categories":[],"categories_nodes":[],"categories_segments":[],"categories_sizes":[],"default_left":[0,0,0,0,0],"id":16,"left_children":[1,-1,3,-1,-1],"loss_changes":[6.8689514E2,0E0,9.376495E0,0E0,0E0],"parents":[2147483647,0,0,2,2],"right_children":[2,-1,4,-1,-1],"split_conditions":[1.3958333E1,-1.1052819E-1,9E0,-7.755284E-2,1.1049674E-1],"split_indices":[135,0,134,0,0],"split_type":[0,0,0,0,0],"sum_hessian":[5.710434E2,3.019949E2,2.690485E2,2.0186863E0,2.6702982E2],"tree_param":{"num_deleted":"0","num_feature":"156","num_nodes":"5","size_leaf_vector":"1"}},{"base_weights":[-4.900776E-2,-1.0991281E-1,9.7465235E-1,1.0929085E-1,-1.0273516E-1],"categories":[],"categories_nodes":[],"categories_segments":[],"categories_sizes":[],"default_left":[0,0,0,0,0],"id":17,"left_children":[1,-1,3,-1,-1],"loss_changes":[5.7595135E2,0E0,6.536145E1,0E0,0E0],"parents":[2147483647,0,0,2,2],"right_children":[2,-1,4,-1,-1],"split_conditions":[1.875E0,-1.0991281E-1,4.693548E0,1.0929085E-1,-1.0273516E-1],"split_indices":[136,0,142,0,0],"split_type":[0,0,0,0,0],"sum_hessian":[5.3378894E2,2.6345264E2,2.7033627E2,2.5568721E2,1.4649067E1],"tree_param":{"num_deleted":"0","num_feature":"156","num_nodes":"5","size_leaf_vector":"1"}},{"base_weights":[1.00792415E-1,-1.0830809E-1,1.077309E0,-7.214086E-2,1.0901552E-1],"categories":[],"categories_nodes":[],"categories_segments":[],"categories_sizes":[],"default_left":[0,0,0,0,0],"id":18,"left_children":[1,-1,3,-1,-1],"loss_changes":[6.4079E2,0E0,7.803589E0,0E0,0E0],"parents":[2147483647,0,0,2,2],"right_children":[2,-1,4,-1,-1],"split_conditions":[1.3958333E1,-1.0830809E-1,3E0,-7.214086E-2,1.0901552E-1],"split_indices":[135,0,133,0,0],"split_type":[0,0,0,0,0],"sum_hessian":[5.5227277E2,2.4958319E2,3.026896E2,1.7552749E0,3.0093433E2],"tree_param":{"num_deleted":"0","num_feature":"156","num_nodes":"5","size_leaf_vector":"1"}},{"base_weights":[1.567436E-2,-1.0737474E-1,1.0595691E0,-7.009392E-2,1.07481614E-1],"categories":[],"categories_nodes":[],"categories_segments":[],"categories_sizes":[],"default_left":[0,0,0,0,0],"id":19,"left_children":[1,-1,3,-1,-1],"loss_changes":[5.329448E2,0E0,7.177002E0,0E0,0E0],"parents":[2147483647,0,0,2,2],"right_children":[2,-1,4,-1,-1],"split_conditions":[1.3958333E1,-1.0737474E-1,3E0,-7.009392E-2,1.07481614E-1],"split_indices":[135,0,133,0,0],"split_type":[0,0,0,0,0],"sum_hessian":[4.66629E2,2.2832135E2,2.3830765E2,1.6600151E0,2.3664763E2],"tree_param":{"num_deleted":"0","num_feature":"156","num_nodes":"5","size_leaf_vector":"1"}},{"base_weights":[5.3083804E-2,-1.06539525E-1,1.0522316E0,-6.9625E-2,1.0675861E-1],"categories":[],"categories_nodes":[],"categories_segments":[],"categories_sizes":[],"default_left":[0,0,0,0,0],"id":20,"left_children":[1,-1,3,-1,-1],"loss_changes":[5.0026474E2,0E0,7.090332E0,0E0,0E0],"parents":[2147483647,0,0,2,2],"right_children":[2,-1,4,-1,-1],"split_conditions":[1.3958333E1,-1.06539525E-1,3E0,-6.9625E-2,1.0675861E-1],"split_indices":[135,0,133,0,0],"split_type":[0,0,0,0,0],"sum_hessian":[4.456507E2,2.1023753E2,2.3541316E2,1.6632867E0,2.3374988E2],"tree_param":{"num_deleted":"0","num_feature":"156","num_nodes":"5","size_leaf_vector":"1"}}]},"name":"gbtree"},"learner_model_param":{"base_score":"[5E-1]","boost_from_average":"1","num_class":"0","num_feature":"156","num_target":"1"},"objective":{"name":"binary:logistic","reg_loss_param":{"scale_pos_weight":"287.928558"}}},"version":[3,2,0]}