{"learner":{"attributes":{"best_iteration":"0","best_score":"1.0"},"feature_names":["dns__query_count","dns__query_rate_per_minute","dns__avg_query_length","dns__max_query_length","dns__avg_entropy","dns__max_entropy","dns__avg_subdomain_depth","dns__max_label_length","dns__avg_label_length","dns__label_entropy_max","dns__unique_subdomain_ratio","dns__base64_pattern_count","dns__hex_pattern_count","dns__numeric_ratio","dns__subdomain_has_numbers_ratio","dns__unique_base_domains","dns__top_domain_query_ratio","dns__max_unique_subdomains_per_domain","dns__txt_record_ratio","dns__null_record_ratio","dns__mx_record_ratio","dns__cname_record_ratio","dns__any_record_ratio","dns__tunneling_type_ratio","dns__record_type_count","dns__avg_response_size","dns__max_response_size","dns__response_variance","dns__nxdomain_ratio","dns__fast_flux_ratio","dns__min_ttl","dns__ttl_variance","dns__inter_query_interval_mean","dns__inter_query_interval_cv","dns__unique_process_count","dns__non_browser_dns_ratio","dns__non_standard_dns_ratio","dns__nx_subdomains_per_top_domain","dns__nx_top_domain_query_ratio","dns__consonant_run_max","dns__digit_letter_run_max","dns__vowel_ratio_min","auth__total_auth_events","auth__successful_logon_count","auth__failed_logon_count","auth__failed_logon_ratio","auth__network_logon_count","auth__interactive_logon_count","auth__remote_interactive_logon_count","auth__service_logon_count","auth__cleartext_logon_count","auth__network_logon_ratio","auth__explicit_credential_count","auth__ntlm_count","auth__kerberos_tgt_count","auth__kerberos_tgs_count","auth__special_logon_count","auth__unique_privileged_users","auth__unique_users","auth__unique_target_hosts","auth__unique_source_ips","auth__lateral_velocity_per_min","auth__max_hosts_per_user","auth__max_failures_per_user","auth__unique_failed_users","auth__max_users_per_source","auth__account_created_count","auth__account_enabled_count","auth__password_reset_count","auth__account_disabled_count","auth__account_deleted_count","auth__account_changed_count","auth__success_after_failures","auth__time_to_first_success_secs","auth__offhours_logon_count","auth__offhours_interactive_count","auth__psexec_invocations","auth__wmic_invocations","auth__winrm_invocations","auth__schtasks_invocations","auth__powershell_encoded_count","auth__lsass_access_count","process__total_process_events","process__credential_tool_count","process__lsass_access_count","process__image_load_count","process__remote_thread_count","process__process_tamper_count","process__psexec_count","process__wmic_count","process__mshta_count","process__rundll32_count","process__regsvr32_count","process__certutil_count","process__bitsadmin_count","process__schtasks_count","process__esentutl_count","process__total_lolbin_count","process__powershell_count","process__encoded_command_count","process__download_command_count","process__amsi_bypass_count","process__office_to_shell_count","process__browser_to_shell_count","process__pipe_event_count","process__pipe_attack_count","process__archive_drop_count","process__user_exe_drop_count","process__file_create_count","process__unique_image_count","process__unique_parent_count","network__total_connections","network__connections_per_minute","network__total_lateral_count","network__smb_count","network__rdp_count","network__winrm_count","network__wmi_count","network__ssh_count","network__netbios_count","network__telnet_count","network__unique_dest_ips","network__unique_dest_ports","network__unique_source_processes","network__internal_connection_count","network__external_connection_count","network__internal_to_external_ratio","network__shell_initiated_count","network__lolbin_initiated_count","network__shell_lateral_count","network__total_bytes_sent","network__total_bytes_received","network__max_bytes_per_connection","temporal__total_event_count","temporal__window_duration_seconds","temporal__events_per_minute","temporal__burst_factor","temporal__per_minute_stdev","temporal__active_minute_count","temporal__off_hours_ratio","temporal__night_hours_ratio","temporal__weekend_ratio","temporal__inter_event_interval_mean","temporal__inter_event_interval_cv","temporal__inter_event_interval_min","temporal__inter_event_interval_max","behavioral__pth_chain_count","behavioral__bruteforce_success_count","behavioral__auth_then_network_count","behavioral__auth_then_process_count","behavioral__priv_escalation_chain","behavioral__unique_users_overall","behavioral__unique_hosts_overall","behavioral__unique_processes_overall","behavioral__host_user_pair_count","behavioral__entity_diversity_score"],"feature_types":[],"gradient_booster":{"model":{"cats":{"enc":[],"feature_segments":[],"sorted_idx":[]},"gbtree_model_param":{"num_parallel_tree":"1","num_trees":"21"},"iteration_indptr":[0,1,2,3,4,5,6,7,8,9,10,11,12,13,14,15,16,17,18,19,20,21],"tree_info":[0,0,0,0,0,0,0,0,0,0,0,0,0,0,0,0,0,0,0,0,0],"trees":[{"base_weights":[1.0386295E-1,-1.9976033E-1,1.9681066E0,1.9829266E0,-1.5555556E-1,-1.5555556E-1,1.9978578E-1],"categories":[],"categories_nodes":[],"categories_segments":[],"categories_sizes":[],"default_left":[0,0,0,0,0,0,0],"id":0,"left_children":[1,-1,3,5,-1,-1,-1],"loss_changes":[6.9543564E3,0E0,5.2205322E1,5.2620117E1,0E0,0E0,0E0],"parents":[2147483647,0,0,2,2,3,3],"right_children":[2,-1,4,6,-1,-1,-1],"split_conditions":[1.3426574E1,-1.9976033E-1,3E2,9E0,-1.5555556E-1,-1.5555556E-1,1.9978578E-1],"split_indices":[135,0,30,134,0,0,0],"split_type":[0,0,0,0,0,0,0],"sum_hessian":[1.7731333E3,8.335E2,9.3963336E2,9.3613336E2,3.5E0,3.5E0,9.3263336E2],"tree_param":{"num_deleted":"0","num_feature":"156","num_nodes":"7","size_leaf_vector":"1"}},{"base_weights":[8.221431E-2,1.5817226E0,-1.8166791E-1,-1.7917329E-1,1.8061645E0,1.8169384E-1,-1.3484822E-1],"categories":[],"categories_nodes":[],"categories_segments":[],"categories_sizes":[],"default_left":[0,0,0,0,0,0,0],"id":1,"left_children":[1,3,-1,-1,5,-1,-1],"loss_changes":[5.036304E3,7.5149927E2,0E0,0E0,3.3960693E1,0E0,0E0],"parents":[2147483647,0,0,1,1,4,4],"right_children":[2,4,-1,-1,6,-1,-1],"split_conditions":[4.962264E0,3.856946E-2,-1.8166791E-1,-1.7917329E-1,3E2,1.8169384E-1,-1.3484822E-1],"split_indices":[142,143,0,0,30,0,0],"split_type":[0,0,0,0,0,0,0],"sum_hessian":[1.7667247E3,9.872697E2,7.794551E2,6.115165E1,9.2611804E2,9.233885E2,2.729546E0],"tree_param":{"num_deleted":"0","num_feature":"156","num_nodes":"7","size_leaf_vector":"1"}},{"base_weights":[-4.927744E-2,1.4273568E0,-1.6808185E-1,-1.6589437E-1,1.6709836E0,1.6806705E-1,-1.1912912E-1],"categories":[],"categories_nodes":[],"categories_segments":[],"categories_sizes":[],"default_left":[0,0,0,0,0,0,0],"id":2,"left_children":[1,3,-1,-1,5,-1,-1],"loss_changes":[3.8312595E3,6.3044836E2,0E0,0E0,2.3468018E1,0E0,0E0],"parents":[2147483647,0,0,1,1,4,4],"right_children":[2,4,-1,-1,6,-1,-1],"split_conditions":[4.962264E0,4E0,-1.6808185E-1,-1.6589437E-1,3E2,1.6806705E-1,-1.1912912E-1],"split_indices":[142,133,0,0,30,0,0],"split_type":[0,0,0,0,0,0,0],"sum_hessian":[1.5882733E3,8.3378094E2,7.544924E2,6.0576714E1,7.732042E2,7.710077E2,2.1965349E0],"tree_param":{"num_deleted":"0","num_feature":"156","num_nodes":"7","size_leaf_vector":"1"}},{"base_weights":[7.110497E-2,-1.5754475E-1,1.5484972E0,-1.2829128E-1,1.5622486E0,1.5691291E-1,-1.0521752E-1],"categories":[],"categories_nodes":[],"categories_segments":[],"categories_sizes":[],"default_left":[0,0,0,0,0,0,0],"id":3,"left_children":[1,-1,3,-1,5,-1,-1],"loss_changes":[4.0336545E3,0E0,3.6032227E1,0E0,1.7304443E1,0E0,0E0],"parents":[2147483647,0,0,2,2,4,4],"right_children":[2,-1,4,-1,6,-1,-1],"split_conditions":[1.3426574E1,-1.5754475E-1,4E0,-1.2829128E-1,4.946429E0,1.5691291E-1,-1.0521752E-1],"split_indices":[135,0,133,0,32,0,0],"split_type":[0,0,0,0,0,0,0],"sum_hessian":[1.6561606E3,7.832088E2,8.729519E2,3.7731168E0,8.691788E2,8.672961E2,1.882683E0],"tree_param":{"num_deleted":"0","num_feature":"156","num_nodes":"7","size_leaf_vector":"1"}},{"base_weights":[1.24614336E-1,1.3143903E0,-1.4911151E-1,-1.4693019E-1,1.4822081E0,1.491701E-1,-1.2332123E-1],"categories":[],"categories_nodes":[],"categories_segments":[],"categories_sizes":[],"default_left":[0,0,0,0,0,0,0],"id":4,"left_children":[1,3,-1,-1,5,-1,-1],"loss_changes":[3.1408218E3,4.417201E2,0E0,0E0,2.4726807E1,0E0,0E0],"parents":[2147483647,0,0,1,1,4,4],"right_children":[2,4,-1,-1,6,-1,-1],"split_conditions":[4.962264E0,3.856946E-2,-1.4911151E-1,-1.4693019E-1,3E2,1.491701E-1,-1.2332123E-1],"split_indices":[142,143,0,0,30,0,0],"split_type":[0,0,0,0,0,0,0],"sum_hessian":[1.6318203E3,9.398953E2,6.919249E2,5.2999897E1,8.8689545E2,8.842548E2,2.6405995E0],"tree_param":{"num_deleted":"0","num_feature":"156","num_nodes":"7","size_leaf_vector":"1"}},{"base_weights":[-1.0860287E-1,1.1972593E0,-1.4228041E-1,-1.4015219E-1,1.4101946E0,1.4226966E-1,-1.1504727E-1],"categories":[],"categories_nodes":[],"categories_segments":[],"categories_sizes":[],"default_left":[0,0,0,0,0,0,0],"id":5,"left_children":[1,3,-1,-1,5,-1,-1],"loss_changes":[2.2821187E3,3.7110327E2,0E0,0E0,2.1389893E1,0E0,0E0],"parents":[2147483647,0,0,1,1,4,4],"right_children":[2,4,-1,-1,6,-1,-1],"split_conditions":[4.962264E0,4E0,-1.4228041E-1,-1.4015219E-1,3E2,1.4226966E-1,-1.1504727E-1],"split_indices":[142,133,0,0,30,0,0],"split_type":[0,0,0,0,0,0,0],"sum_hessian":[1.3277848E3,6.6605E2,6.6173474E2,5.0018192E1,6.160318E2,6.13481E2,2.5507674E0],"tree_param":{"num_deleted":"0","num_feature":"156","num_nodes":"7","size_leaf_vector":"1"}},{"base_weights":[-1.0206994E-1,-1.3666986E-1,1.3350905E0,-1.0669936E-1,1.3496903E0,1.356605E-1,-8.377033E-2],"categories":[],"categories_nodes":[],"categories_segments":[],"categories_sizes":[],"default_left":[0,0,0,0,0,0,0],"id":6,"left_children":[1,-1,3,-1,5,-1,-1],"loss_changes":[2.268553E3,0E0,2.1930786E1,0E0,9.92688E0,0E0,0E0],"parents":[2147483647,0,0,2,2,4,4],"right_children":[2,-1,4,-1,6,-1,-1],"split_conditions":[1.3426574E1,-1.3666986E-1,4E0,-1.0669936E-1,4.946429E0,1.356605E-1,-8.377033E-2],"split_indices":[135,0,133,0,32,0,0],"split_type":[0,0,0,0,0,0,0],"sum_hessian":[1.2461858E3,6.629086E2,5.832771E2,3.0882702E0,5.8018884E2,5.787392E2,1.4496565E0],"tree_param":{"num_deleted":"0","num_feature":"156","num_nodes":"7","size_leaf_vector":"1"}},{"base_weights":[-9.873578E-2,-1.3195208E-1,1.2877128E0,1.3048642E0,-1.18569925E-1,-1.0235832E-1,1.3194416E-1],"categories":[],"categories_nodes":[],"categories_segments":[],"categories_sizes":[],"default_left":[0,0,0,0,0,0,0],"id":7,"left_children":[1,-1,3,5,-1,-1,-1],"loss_changes":[1.9778271E3,0E0,2.476007E1,1.9811646E1,0E0,0E0,0E0],"parents":[2147483647,0,0,2,2,3,3],"right_children":[2,-1,4,6,-1,-1,-1],"split_conditions":[1.3426574E1,-1.3195208E-1,3E2,3.856946E-2,-1.18569925E-1,-1.0235832E-1,1.3194416E-1],"split_indices":[135,0,30,143,0,0,0],"split_type":[0,0,0,0,0,0,0],"sum_hessian":[1.166541E3,6.2035724E2,5.4618384E2,5.428917E2,3.2921374E0,2.947029E0,5.399447E2],"tree_param":{"num_deleted":"0","num_feature":"156","num_nodes":"7","size_leaf_vector":"1"}},{"base_weights":[5.3449288E-2,-1.279688E-1,1.2549957E0,1.2687045E0,-1.1455941E-1,-9.841916E-2,1.2800977E-1],"categories":[],"categories_nodes":[],"categories_segments":[],"categories_sizes":[],"default_left":[0,0,0,0,0,0,0],"id":8,"left_children":[1,-1,3,5,-1,-1,-1],"loss_changes":[1.9712153E3,0E0,2.2753296E1,1.779004E1,0E0,0E0,0E0],"parents":[2147483647,0,0,2,2,3,3],"right_children":[2,-1,4,6,-1,-1,-1],"split_conditions":[1.3426574E1,-1.279688E-1,3E2,4E0,-1.1455941E-1,-9.841916E-2,1.2800977E-1],"split_indices":[135,0,30,133,0,0,0],"split_type":[0,0,0,0,0,0,0],"sum_hessian":[1.2286024E3,5.8237823E2,6.462241E2,6.4302356E2,3.2005777E0,2.8058114E0,6.402178E2],"tree_param":{"num_deleted":"0","num_feature":"156","num_nodes":"7","size_leaf_vector":"1"}},{"base_weights":[6.282753E-2,-1.2456741E-1,1.2216845E0,1.2347344E0,-1.0883047E-1,-9.481205E-2,1.246105E-1],"categories":[],"categories_nodes":[],"categories_segments":[],"categories_sizes":[],"default_left":[0,0,0,0,0,0,0],"id":9,"left_children":[1,-1,3,5,-1,-1,-1],"loss_changes":[1.7181664E3,0E0,1.9457458E1,1.6022888E1,0E0,0E0,0E0],"parents":[2147483647,0,0,2,2,3,3],"right_children":[2,-1,4,6,-1,-1,-1],"split_conditions":[1.3426574E1,-1.2456741E-1,3E2,4E0,-1.0883047E-1,-9.481205E-2,1.246105E-1],"split_indices":[135,0,30,133,0,0,0],"split_type":[0,0,0,0,0,0,0],"sum_hessian":[1.1310779E3,5.31204E2,5.9987396E2,5.969669E2,2.907028E0,2.666553E0,5.943004E2],"tree_param":{"num_deleted":"0","num_feature":"156","num_nodes":"7","size_leaf_vector":"1"}},{"base_weights":[1.3486484E-2,-1.2164956E-1,1.1933005E0,1.2062734E0,-1.0135879E-1,-8.6709075E-2,1.21674016E-1],"categories":[],"categories_nodes":[],"categories_segments":[],"categories_sizes":[],"default_left":[0,0,0,0,0,0,0],"id":10,"left_children":[1,-1,3,5,-1,-1,-1],"loss_changes":[1.4683171E3,0E0,1.6008362E1,1.2206665E1,0E0,0E0,0E0],"parents":[2147483647,0,0,2,2,3,3],"right_children":[2,-1,4,6,-1,-1,-1],"split_conditions":[1.3426574E1,-1.2164956E-1,3E2,4E0,-1.0135879E-1,-8.6709075E-2,1.21674016E-1],"split_indices":[135,0,30,133,0,0,0],"split_type":[0,0,0,0,0,0,0],"sum_hessian":[1.0098296E3,4.9438806E2,5.154415E2,5.1288E2,2.5615082E0,2.1650057E0,5.1071503E2],"tree_param":{"num_deleted":"0","num_feature":"156","num_nodes":"7","size_leaf_vector":"1"}},{"base_weights":[5.0266378E-2,-1.19128935E-1,1.1691716E0,-8.854423E-2,1.1805809E0,1.1916719E-1,-9.38456E-2],"categories":[],"categories_nodes":[],"categories_segments":[],"categories_sizes":[],"default_left":[0,0,0,0,0,0,0],"id":11,"left_children":[1,-1,3,-1,5,-1,-1],"loss_changes":[1.3557769E3,0E0,1.3078308E1,0E0,1.312561E1,0E0,0E0],"parents":[2147483647,0,0,2,2,4,4],"right_children":[2,-1,4,-1,6,-1,-1],"split_conditions":[1.3426574E1,-1.19128935E-1,4E0,-8.854423E-2,3E2,1.1916719E-1,-9.38456E-2],"split_indices":[135,0,133,0,30,0,0],"split_type":[0,0,0,0,0,0,0],"sum_hessian":[9.739501E2,4.6164096E2,5.1230914E2,2.4061105E0,5.09903E2,5.0768344E2,2.219559E0],"tree_param":{"num_deleted":"0","num_feature":"156","num_nodes":"7","size_leaf_vector":"1"}},{"base_weights":[1.6849631E-3,-1.16939105E-1,1.1441736E0,1.159463E0,-9.752713E-2,-7.9791225E-2,1.1695291E-1],"categories":[],"categories_nodes":[],"categories_segments":[],"categories_sizes":[],"default_left":[0,0,0,0,0,0,0],"id":12,"left_children":[1,-1,3,5,-1,-1,-1],"loss_changes":[1.1621985E3,0E0,1.5378967E1,9.543396E0,0E0,0E0,0E0],"parents":[2147483647,0,0,2,2,3,3],"right_children":[2,-1,4,6,-1,-1,-1],"split_conditions":[1.3426574E1,-1.16939105E-1,3E2,4E0,-9.752713E-2,-7.9791225E-2,1.1695291E-1],"split_indices":[135,0,30,133,0,0,0],"split_type":[0,0,0,0,0,0,0],"sum_hessian":[8.66647E2,4.2795755E2,4.3868945E2,4.3599716E2,2.6922917E0,1.8302675E0,4.341669E2],"tree_param":{"num_deleted":"0","num_feature":"156","num_nodes":"7","size_leaf_vector":"1"}},{"base_weights":[9.711988E-3,-1.150164E-1,1.1271026E0,-7.936844E-2,1.138068E0,1.1478442E-1,-7.9262026E-2],"categories":[],"categories_nodes":[],"categories_segments":[],"categories_sizes":[],"default_left":[0,0,0,0,0,0,0],"id":13,"left_children":[1,-1,3,-1,5,-1,-1],"loss_changes":[1.0279761E3,0E0,9.411926E0,0E0,8.499329E0,0E0,0E0],"parents":[2147483647,0,0,2,2,4,4],"right_children":[2,-1,4,-1,6,-1,-1],"split_conditions":[1.3426574E1,-1.150164E-1,4E0,-7.936844E-2,4.8474574E0,1.1478442E-1,-7.9262026E-2],"split_indices":[135,0,133,0,32,0,0],"split_type":[0,0,0,0,0,0,0],"sum_hessian":[7.9117E2,3.8819043E2,4.0297952E2,1.8822744E0,4.0109726E2,3.9947992E2,1.6173328E0],"tree_param":{"num_deleted":"0","num_feature":"156","num_nodes":"7","size_leaf_vector":"1"}},{"base_weights":[9.6525945E-2,-1.133311E-1,1.1138874E0,1.1271867E0,-9.1939926E-2,-7.4719064E-2,1.1361661E-1],"categories":[],"categories_nodes":[],"categories_segments":[],"categories_sizes":[],"default_left":[0,0,0,0,0,0,0],"id":14,"left_children":[1,-1,3,5,-1,-1,-1],"loss_changes":[9.877214E2,0E0,1.2717712E1,8.080017E0,0E0,0E0,0E0],"parents":[2147483647,0,0,2,2,3,3],"right_children":[2,-1,4,6,-1,-1,-1],"split_conditions":[1.3426574E1,-1.133311E-1,3E2,1.5E1,-9.1939926E-2,-7.4719064E-2,1.1361661E-1],"split_indices":[135,0,30,134,0,0,0],"split_type":[0,0,0,0,0,0,0],"sum_hessian":[7.874174E2,3.5643143E2,4.3098596E2,4.2862805E2,2.3579237E0,1.6516504E0,4.269764E2],"tree_param":{"num_deleted":"0","num_feature":"156","num_nodes":"7","size_leaf_vector":"1"}},{"base_weights":[1.866606E-2,-1.1184219E-1,1.0918076E0,1.1077822E0,-8.867461E-2,-7.831109E-2,1.12092935E-1],"categories":[],"categories_nodes":[],"categories_segments":[],"categories_sizes":[],"default_left":[0,0,0,0,0,0,0],"id":15,"left_children":[1,-1,3,5,-1,-1,-1],"loss_changes":[8.181901E2,0E0,1.1884888E1,9.395447E0,0E0,0E0,0E0],"parents":[2147483647,0,0,2,2,3,3],"right_children":[2,-1,4,6,-1,-1,-1],"split_conditions":[1.3426574E1,-1.1184219E-1,3E2,4E0,-8.867461E-2,-7.831109E-2,1.12092935E-1],"split_indices":[135,0,30,133,0,0,0],"split_type":[0,0,0,0,0,0,0],"sum_hessian":[6.685061E2,3.2456195E2,3.4394415E2,3.41626E2,2.318149E0,1.9544879E0,3.396715E2],"tree_param":{"num_deleted":"0","num_feature":"156","num_nodes":"7","size_leaf_vector":"1"}},{"base_weights":[1.6215261E-2,-1.1052692E-1,1.0817871E0,1.0958178E0,-8.130814E-2,-7.2185166E-2,1.1075021E-1],"categories":[],"categories_nodes":[],"categories_segments":[],"categories_sizes":[],"default_left":[0,0,0,0,0,0,0],"id":16,"left_children":[1,-1,3,5,-1,-1,-1],"loss_changes":[7.350335E2,0E0,9.276184E0,7.457611E0,0E0,0E0,0E0],"parents":[2147483647,0,0,2,2,3,3],"right_children":[2,-1,4,6,-1,-1,-1],"split_conditions":[1.3426574E1,-1.1052692E-1,3E2,1.5E1,-8.130814E-2,-7.2185166E-2,1.1075021E-1],"split_indices":[135,0,30,134,0,0,0],"split_type":[0,0,0,0,0,0,0],"sum_hessian":[6.130788E2,2.986845E2,3.143943E2,3.1250204E2,1.8922561E0,1.6077707E0,3.108943E2],"tree_param":{"num_deleted":"0","num_feature":"156","num_nodes":"7","size_leaf_vector":"1"}},{"base_weights":[5.651747E-2,9.4773483E-1,-1.0933775E-1,-1.0506985E-1,1.0828373E0,1.0957135E-1,-7.8232385E-2],"categories":[],"categories_nodes":[],"categories_segments":[],"categories_sizes":[],"default_left":[0,0,0,0,0,0,0],"id":17,"left_children":[1,3,-1,-1,5,-1,-1],"loss_changes":[5.9824084E2,8.992154E1,0E0,0E0,8.266357E0,0E0,0E0],"parents":[2147483647,0,0,1,1,4,4],"right_children":[2,4,-1,-1,6,-1,-1],"split_conditions":[4.962264E0,3E0,-1.0933775E-1,-1.0506985E-1,3E2,1.0957135E-1,-7.8232385E-2],"split_indices":[142,133,0,0,30,0,0],"split_type":[0,0,0,0,0,0,0],"sum_hessian":[5.817488E2,3.27837E2,2.5391177E2,2.0330572E1,3.0750644E2,3.0580783E2,1.6986182E0],"tree_param":{"num_deleted":"0","num_feature":"156","num_nodes":"7","size_leaf_vector":"1"}},{"base_weights":[1.9457363E-2,-1.08310595E-1,1.0543342E0,1.072755E0,-8.256521E-2,-6.744027E-2,1.08493425E-1],"categories":[],"categories_nodes":[],"categories_segments":[],"categories_sizes":[],"default_left":[0,0,0,0,0,0,0],"id":18,"left_children":[1,-1,3,5,-1,-1,-1],"loss_changes":[5.8428357E2,0E0,1.003302E1,6.3069153E0,0E0,0E0,0E0],"parents":[2147483647,0,0,2,2,3,3],"right_children":[2,-1,4,6,-1,-1,-1],"split_conditions":[1.3426574E1,-1.08310595E-1,3E2,4E0,-8.256521E-2,-6.744027E-2,1.08493425E-1],"split_indices":[135,0,30,133,0,0,0],"split_type":[0,0,0,0,0,0,0],"sum_hessian":[5.1007178E2,2.4693709E2,2.631347E2,2.6100662E2,2.128067E0,1.4304515E0,2.5957617E2],"tree_param":{"num_deleted":"0","num_feature":"156","num_nodes":"7","size_leaf_vector":"1"}},{"base_weights":[-2.494122E-2,-1.0737672E-1,1.0429476E0,1.0608929E0,-7.6643355E-2,-6.660454E-2,1.0751673E-1],"categories":[],"categories_nodes":[],"categories_segments":[],"categories_sizes":[],"default_left":[0,0,0,0,0,0,0],"id":19,"left_children":[1,-1,3,5,-1,-1,-1],"loss_changes":[5.0423563E2,0E0,8.05661E0,6.171631E0,0E0,0E0,0E0],"parents":[2147483647,0,0,2,2,3,3],"right_children":[2,-1,4,6,-1,-1,-1],"split_conditions":[1.3426574E1,-1.0737672E-1,3E2,4E0,-7.6643355E-2,-6.660454E-2,1.0751673E-1],"split_indices":[135,0,30,133,0,0,0],"split_type":[0,0,0,0,0,0,0],"sum_hessian":[4.4819858E2,2.2611473E2,2.2208385E2,2.2031248E2,1.7713667E0,1.4317782E0,2.188807E2],"tree_param":{"num_deleted":"0","num_feature":"156","num_nodes":"7","size_leaf_vector":"1"}},{"base_weights":[5.1628973E-2,-1.0653982E-1,1.0402416E0,-6.421405E-2,1.0525938E-1],"categories":[],"categories_nodes":[],"categories_segments":[],"categories_sizes":[],"default_left":[0,0,0,0,0],"id":20,"left_children":[1,-1,3,-1,-1],"loss_changes":[4.9175272E2,0E0,5.5845184E0,0E0,0E0],"parents":[2147483647,0,0,2,2],"right_children":[2,-1,4,-1,-1],"split_conditions":[1.3426574E1,-1.0653982E-1,3E0,-6.421405E-2,1.0525938E-1],"split_indices":[135,0,133,0,0],"split_type":[0,0,0,0,0],"sum_hessian":[4.433007E2,2.0809631E2,2.3520439E2,1.3426926E0,2.338617E2],"tree_param":{"num_deleted":"0","num_feature":"156","num_nodes":"5","size_leaf_vector":"1"}}]},"name":"gbtree"},"learner_model_param":{"base_score":"[5E-1]","boost_from_average":"1","num_class":"0","num_feature":"156","num_target":"1"},"objective":{"name":"binary:logistic","reg_loss_param":{"scale_pos_weight":"266.466675"}}},"version":[3,2,0]}