{"learner":{"attributes":{"best_iteration":"1","best_score":"1.0"},"feature_names":["dns__query_count","dns__query_rate_per_minute","dns__avg_query_length","dns__max_query_length","dns__avg_entropy","dns__max_entropy","dns__avg_subdomain_depth","dns__max_label_length","dns__avg_label_length","dns__label_entropy_max","dns__unique_subdomain_ratio","dns__base64_pattern_count","dns__hex_pattern_count","dns__numeric_ratio","dns__subdomain_has_numbers_ratio","dns__unique_base_domains","dns__top_domain_query_ratio","dns__max_unique_subdomains_per_domain","dns__txt_record_ratio","dns__null_record_ratio","dns__mx_record_ratio","dns__cname_record_ratio","dns__any_record_ratio","dns__tunneling_type_ratio","dns__record_type_count","dns__avg_response_size","dns__max_response_size","dns__response_variance","dns__nxdomain_ratio","dns__fast_flux_ratio","dns__min_ttl","dns__ttl_variance","dns__inter_query_interval_mean","dns__inter_query_interval_cv","dns__unique_process_count","dns__non_browser_dns_ratio","dns__non_standard_dns_ratio","dns__nx_subdomains_per_top_domain","dns__nx_top_domain_query_ratio","dns__consonant_run_max","dns__digit_letter_run_max","dns__vowel_ratio_min","auth__total_auth_events","auth__successful_logon_count","auth__failed_logon_count","auth__failed_logon_ratio","auth__network_logon_count","auth__interactive_logon_count","auth__remote_interactive_logon_count","auth__service_logon_count","auth__cleartext_logon_count","auth__network_logon_ratio","auth__explicit_credential_count","auth__ntlm_count","auth__kerberos_tgt_count","auth__kerberos_tgs_count","auth__special_logon_count","auth__unique_privileged_users","auth__unique_users","auth__unique_target_hosts","auth__unique_source_ips","auth__lateral_velocity_per_min","auth__max_hosts_per_user","auth__max_failures_per_user","auth__unique_failed_users","auth__max_users_per_source","auth__account_created_count","auth__account_enabled_count","auth__password_reset_count","auth__account_disabled_count","auth__account_deleted_count","auth__account_changed_count","auth__success_after_failures","auth__time_to_first_success_secs","auth__offhours_logon_count","auth__offhours_interactive_count","auth__psexec_invocations","auth__wmic_invocations","auth__winrm_invocations","auth__schtasks_invocations","auth__powershell_encoded_count","auth__lsass_access_count","process__total_process_events","process__credential_tool_count","process__lsass_access_count","process__image_load_count","process__remote_thread_count","process__process_tamper_count","process__psexec_count","process__wmic_count","process__mshta_count","process__rundll32_count","process__regsvr32_count","process__certutil_count","process__bitsadmin_count","process__schtasks_count","process__esentutl_count","process__total_lolbin_count","process__powershell_count","process__encoded_command_count","process__download_command_count","process__amsi_bypass_count","process__office_to_shell_count","process__browser_to_shell_count","process__pipe_event_count","process__pipe_attack_count","process__archive_drop_count","process__user_exe_drop_count","process__file_create_count","process__unique_image_count","process__unique_parent_count","network__total_connections","network__connections_per_minute","network__total_lateral_count","network__smb_count","network__rdp_count","network__winrm_count","network__wmi_count","network__ssh_count","network__netbios_count","network__telnet_count","network__unique_dest_ips","network__unique_dest_ports","network__unique_source_processes","network__internal_connection_count","network__external_connection_count","network__internal_to_external_ratio","network__shell_initiated_count","network__lolbin_initiated_count","network__shell_lateral_count","network__total_bytes_sent","network__total_bytes_received","network__max_bytes_per_connection","temporal__total_event_count","temporal__window_duration_seconds","temporal__events_per_minute","temporal__burst_factor","temporal__per_minute_stdev","temporal__active_minute_count","temporal__off_hours_ratio","temporal__night_hours_ratio","temporal__weekend_ratio","temporal__inter_event_interval_mean","temporal__inter_event_interval_cv","temporal__inter_event_interval_min","temporal__inter_event_interval_max","behavioral__pth_chain_count","behavioral__bruteforce_success_count","behavioral__auth_then_network_count","behavioral__auth_then_process_count","behavioral__priv_escalation_chain","behavioral__unique_users_overall","behavioral__unique_hosts_overall","behavioral__unique_processes_overall","behavioral__host_user_pair_count","behavioral__entity_diversity_score"],"feature_types":[],"gradient_booster":{"model":{"cats":{"enc":[],"feature_segments":[],"sorted_idx":[]},"gbtree_model_param":{"num_parallel_tree":"1","num_trees":"22"},"iteration_indptr":[0,1,2,3,4,5,6,7,8,9,10,11,12,13,14,15,16,17,18,19,20,21,22],"tree_info":[0,0,0,0,0,0,0,0,0,0,0,0,0,0,0,0,0,0,0,0,0,0],"trees":[{"base_weights":[-1.643316E-1,-1.9976227E-1,1.9709285E0,-1.6521738E-1,1.997213E-1],"categories":[],"categories_nodes":[],"categories_segments":[],"categories_sizes":[],"default_left":[0,0,0,0,0],"id":0,"left_children":[1,-1,3,-1,-1],"loss_changes":[6.1208457E3,0E0,7.2090576E1,0E0,0E0],"parents":[2147483647,0,0,2,2],"right_children":[2,-1,4,-1,-1],"split_conditions":[1.5E1,-1.9976227E-1,1.3E1,-1.6521738E-1,1.997213E-1],"split_indices":[135,0,134,0,0],"split_type":[0,0,0,0,0],"sum_hessian":[1.5616072E3,8.4025E2,7.213571E2,4.75E0,7.166071E2],"tree_param":{"num_deleted":"0","num_feature":"156","num_nodes":"5","size_leaf_vector":"1"}},{"base_weights":[1.6071767E-1,1.602066E0,-1.8166015E-1,-1.7955855E-1,1.8458258E0,1.816989E-1,2.1902423E-1],"categories":[],"categories_nodes":[],"categories_segments":[],"categories_sizes":[],"default_left":[0,0,0,0,0,0,0],"id":1,"left_children":[1,3,-1,-1,5,-1,-1],"loss_changes":[5.2486523E3,8.854568E2,0E0,0E0,5.895752E0,0E0,0E0],"parents":[2147483647,0,0,1,1,4,4],"right_children":[2,4,-1,-1,6,-1,-1],"split_conditions":[4.65625E0,6.01793E-2,-1.8166015E-1,-1.7955855E-1,2.369863E0,1.816989E-1,2.1902423E-1],"split_indices":[142,143,0,0,6,0,0],"split_type":[0,0,0,0,0,0,0],"sum_hessian":[1.8396077E3,1.0641183E3,7.754894E2,7.080701E1,9.933113E2,9.223608E2,7.095054E1],"tree_param":{"num_deleted":"0","num_feature":"156","num_nodes":"7","size_leaf_vector":"1"}},{"base_weights":[2.4821006E-2,1.4553173E0,-1.6806667E-1,-1.6610526E-1,1.7065091E0,1.6806805E-1,1.9536573E-1],"categories":[],"categories_nodes":[],"categories_segments":[],"categories_sizes":[],"default_left":[0,0,0,0,0,0,0],"id":2,"left_children":[1,3,-1,-1,5,-1,-1],"loss_changes":[4.0353818E3,7.0699927E2,0E0,0E0,2.0336914E0,0E0,0E0],"parents":[2147483647,0,0,1,1,4,4],"right_children":[2,4,-1,-1,6,-1,-1],"split_conditions":[4.65625E0,3E0,-1.6806667E-1,-1.6610526E-1,2.2987013E0,1.6806805E-1,1.9536573E-1],"split_indices":[142,133,0,0,6,0,0],"split_type":[0,0,0,0,0,0,0],"sum_hessian":[1.65205E3,8.9853815E2,7.535119E2,6.660476E1,8.319334E2,7.602793E2,7.165407E1],"tree_param":{"num_deleted":"0","num_feature":"156","num_nodes":"7","size_leaf_vector":"1"}},{"base_weights":[7.996837E-2,-1.5754138E-1,1.5666714E0,-1.3277808E-1,1.5845195E0,1.5929573E0,-1.1022275E-1,1.5739854E-1,1.7816916E-1],"categories":[],"categories_nodes":[],"categories_segments":[],"categories_sizes":[],"default_left":[0,0,0,0,0,0,0,0,0],"id":3,"left_children":[1,-1,3,-1,5,7,-1,-1,-1],"loss_changes":[4.0956482E3,0E0,4.739624E1,0E0,2.1519775E1,3.0908203E-1,0E0,0E0,0E0],"parents":[2147483647,0,0,2,2,4,4,5,5],"right_children":[2,-1,4,-1,6,8,-1,-1,-1],"split_conditions":[1.3333333E1,-1.5754138E-1,4E0,-1.3277808E-1,4.65625E0,2.369863E0,-1.1022275E-1,1.5739854E-1,1.7816916E-1],"split_indices":[135,0,133,0,142,6,0,0,0],"split_type":[0,0,0,0,0,0,0,0,0],"sum_hessian":[1.6621766E3,7.864441E2,8.7573254E2,4.917168E0,8.7081537E2,8.68495E2,2.3203943E0,7.9765326E2,7.084174E1],"tree_param":{"num_deleted":"0","num_feature":"156","num_nodes":"9","size_leaf_vector":"1"}},{"base_weights":[2.2645004E-2,1.2822528E0,-1.4910543E-1,-1.4732692E-1,1.5065098E-1],"categories":[],"categories_nodes":[],"categories_segments":[],"categories_sizes":[],"default_left":[0,0,0,0,0],"id":4,"left_children":[1,3,-1,-1,-1],"loss_changes":[2.8948987E3,5.1430786E2,0E0,0E0,0E0],"parents":[2147483647,0,0,1,1],"right_children":[2,4,-1,-1,-1],"split_conditions":[4.65625E0,6.01793E-2,-1.4910543E-1,-1.4732692E-1,1.5065098E-1],"split_indices":[142,143,0,0,0],"split_type":[0,0,0,0,0],"sum_hessian":[1.5163002E3,8.2769556E2,6.886046E2,6.187288E1,7.6582263E2],"tree_param":{"num_deleted":"0","num_feature":"156","num_nodes":"5","size_leaf_vector":"1"}},{"base_weights":[-1.1167711E-1,1.183255E0,-1.4227198E-1,-1.4053838E-1,1.4390358E-1],"categories":[],"categories_nodes":[],"categories_segments":[],"categories_sizes":[],"default_left":[0,0,0,0,0],"id":5,"left_children":[1,3,-1,-1,-1],"loss_changes":[2.2493132E3,4.433924E2,0E0,0E0,0E0],"parents":[2147483647,0,0,1,1],"right_children":[2,4,-1,-1,-1],"split_conditions":[4.65625E0,3E0,-1.4227198E-1,-1.4053838E-1,1.4390358E-1],"split_indices":[142,133,0,0,0],"split_type":[0,0,0,0,0],"sum_hessian":[1.3229178E3,6.6559717E2,6.573206E2,5.944882E1,6.061484E2],"tree_param":{"num_deleted":"0","num_feature":"156","num_nodes":"5","size_leaf_vector":"1"}},{"base_weights":[1.685869E-2,-1.3666306E-1,1.3520693E0,-1.1278633E-1,1.3690981E0,1.3772E-1,-9.257656E-2],"categories":[],"categories_nodes":[],"categories_segments":[],"categories_sizes":[],"default_left":[0,0,0,0,0,0,0],"id":6,"left_children":[1,-1,3,-1,5,-1,-1],"loss_changes":[2.5043416E3,0E0,3.0678345E1,0E0,1.4022949E1,0E0,0E0],"parents":[2147483647,0,0,2,2,4,4],"right_children":[2,-1,4,-1,6,-1,-1],"split_conditions":[1.3333333E1,-1.3666306E-1,4E0,-1.1278633E-1,4.65625E0,1.3772E-1,-9.257656E-2],"split_indices":[135,0,133,0,142,0,0],"split_type":[0,0,0,0,0,0,0],"sum_hessian":[1.3537135E3,6.648256E2,6.8888794E2,4.2532153E0,6.8463477E2,6.8262463E2,2.0101118E0],"tree_param":{"num_deleted":"0","num_feature":"156","num_nodes":"7","size_leaf_vector":"1"}},{"base_weights":[1.552348E-2,-1.3194676E-1,1.3045765E0,-1.06104076E-1,1.319692E0,1.3285314E-1,-9.1831796E-2],"categories":[],"categories_nodes":[],"categories_segments":[],"categories_sizes":[],"default_left":[0,0,0,0,0,0,0],"id":7,"left_children":[1,-1,3,-1,5,-1,-1],"loss_changes":[2.1848496E3,0E0,2.449646E1,0E0,1.3925415E1,0E0,0E0],"parents":[2147483647,0,0,2,2,4,4],"right_children":[2,-1,4,-1,6,-1,-1],"split_conditions":[1.3333333E1,-1.3194676E-1,6.01793E-2,-1.06104076E-1,4.65625E0,1.3285314E-1,-9.1831796E-2],"split_indices":[135,0,143,0,142,0,0],"split_type":[0,0,0,0,0,0,0],"sum_hessian":[1.2676157E3,6.2270044E2,6.449152E2,3.6553023E0,6.4125995E2,6.3914197E2,2.1179788E0],"tree_param":{"num_deleted":"0","num_feature":"156","num_nodes":"7","size_leaf_vector":"1"}},{"base_weights":[5.9794847E-2,-1.2796496E-1,1.2642604E0,-1.043031E-1,1.2795084E0,1.286919E-1,-8.560733E-2],"categories":[],"categories_nodes":[],"categories_segments":[],"categories_sizes":[],"default_left":[0,0,0,0,0,0,0],"id":8,"left_children":[1,-1,3,-1,5,-1,-1],"loss_changes":[1.9963558E3,0E0,2.4255981E1,0E0,1.1352051E1,0E0,0E0],"parents":[2147483647,0,0,2,2,4,4],"right_children":[2,-1,4,-1,6,-1,-1],"split_conditions":[1.3333333E1,-1.2796496E-1,4E0,-1.043031E-1,3E2,1.286919E-1,-8.560733E-2],"split_indices":[135,0,133,0,30,0,0],"split_type":[0,0,0,0,0,0,0],"sum_hessian":[1.2354222E3,5.8490607E2,6.5051624E2,3.8282557E0,6.466879E2,6.4484766E2,1.8402702E0],"tree_param":{"num_deleted":"0","num_feature":"156","num_nodes":"7","size_leaf_vector":"1"}},{"base_weights":[1.9990299E-2,-1.24564424E-1,1.2273656E0,-1.0343301E-1,1.246059E0,1.252507E-1,-7.569309E-2],"categories":[],"categories_nodes":[],"categories_segments":[],"categories_sizes":[],"default_left":[0,0,0,0,0,0,0],"id":9,"left_children":[1,-1,3,-1,5,-1,-1],"loss_changes":[1.6720807E3,0E0,2.4964417E1,0E0,8.127258E0,0E0,0E0],"parents":[2147483647,0,0,2,2,4,4],"right_children":[2,-1,4,-1,6,-1,-1],"split_conditions":[1.3333333E1,-1.24564424E-1,4E0,-1.0343301E-1,3E2,1.252507E-1,-7.569309E-2],"split_indices":[135,0,133,0,30,0,0],"split_type":[0,0,0,0,0,0,0],"sum_hessian":[1.0922245E3,5.3323145E2,5.58993E2,4.1369166E0,5.548561E2,5.534491E2,1.4070048E0],"tree_param":{"num_deleted":"0","num_feature":"156","num_nodes":"7","size_leaf_vector":"1"}},{"base_weights":[6.611438E-2,-1.2164815E-1,1.2028629E0,-9.357548E-2,1.2157415E0,1.22253194E-1,-7.675757E-2],"categories":[],"categories_nodes":[],"categories_segments":[],"categories_sizes":[],"default_left":[0,0,0,0,0,0,0],"id":10,"left_children":[1,-1,3,-1,5,-1,-1],"loss_changes":[1.5420758E3,0E0,1.6580505E1,0E0,8.450134E0,0E0,0E0],"parents":[2147483647,0,0,2,2,4,4],"right_children":[2,-1,4,-1,6,-1,-1],"split_conditions":[1.3333333E1,-1.2164815E-1,4E0,-9.357548E-2,3E2,1.22253194E-1,-7.675757E-2],"split_indices":[135,0,133,0,30,0,0],"split_type":[0,0,0,0,0,0,0],"sum_hessian":[1.0556697E3,4.9598196E2,5.5968774E2,2.9213064E0,5.567664E2,5.5524896E2,1.5174576E0],"tree_param":{"num_deleted":"0","num_feature":"156","num_nodes":"7","size_leaf_vector":"1"}},{"base_weights":[5.6923803E-2,-1.1912868E-1,1.1739601E0,-9.6160695E-2,1.1904745E0,1.1966095E-1,-7.059031E-2],"categories":[],"categories_nodes":[],"categories_segments":[],"categories_sizes":[],"default_left":[0,0,0,0,0,0,0],"id":11,"left_children":[1,-1,3,-1,5,-1,-1],"loss_changes":[1.3701749E3,0E0,1.9433777E1,0E0,6.83667E0,0E0,0E0],"parents":[2147483647,0,0,2,2,4,4],"right_children":[2,-1,4,-1,6,-1,-1],"split_conditions":[1.3333333E1,-1.1912868E-1,4E0,-9.6160695E-2,3E2,1.1966095E-1,-7.059031E-2],"split_indices":[135,0,133,0,30,0,0],"split_type":[0,0,0,0,0,0,0],"sum_hessian":[9.806968E2,4.631227E2,5.1757404E2,3.5325625E0,5.1404144E2,5.127517E2,1.2897872E0],"tree_param":{"num_deleted":"0","num_feature":"156","num_nodes":"7","size_leaf_vector":"1"}},{"base_weights":[-4.468594E-2,-1.16936944E-1,1.1480718E0,-8.8801675E-2,1.1641246E0,1.1742854E-1,-7.7802934E-2],"categories":[],"categories_nodes":[],"categories_segments":[],"categories_sizes":[],"default_left":[0,0,0,0,0,0,0],"id":12,"left_children":[1,-1,3,-1,5,-1,-1],"loss_changes":[1.1215588E3,0E0,1.4296387E1,0E0,8.866943E0,0E0,0E0],"parents":[2147483647,0,0,2,2,4,4],"right_children":[2,-1,4,-1,6,-1,-1],"split_conditions":[1.3333333E1,-1.16936944E-1,4E0,-8.8801675E-2,3E2,1.1742854E-1,-7.7802934E-2],"split_indices":[135,0,133,0,30,0,0],"split_type":[0,0,0,0,0,0,0],"sum_hessian":[8.340631E2,4.2929184E2,4.0477127E2,2.7414138E0,4.0202988E2,4.003308E2,1.6990573E0],"tree_param":{"num_deleted":"0","num_feature":"156","num_nodes":"7","size_leaf_vector":"1"}},{"base_weights":[4.4855636E-2,-1.1504225E-1,1.1353725E0,-8.4881715E-2,1.14877634E-1],"categories":[],"categories_nodes":[],"categories_segments":[],"categories_sizes":[],"default_left":[0,0,0,0,0],"id":13,"left_children":[1,-1,3,-1,-1],"loss_changes":[1.0697941E3,0E0,1.2388611E1,0E0,0E0],"parents":[2147483647,0,0,2,2],"right_children":[2,-1,4,-1,-1],"split_conditions":[1.5E1,-1.1504225E-1,4E0,-8.4881715E-2,1.14877634E-1],"split_indices":[135,0,133,0,0],"split_type":[0,0,0,0,0],"sum_hessian":[8.1872516E2,3.905747E2,4.2815045E2,2.4546607E0,4.256958E2],"tree_param":{"num_deleted":"0","num_feature":"156","num_nodes":"5","size_leaf_vector":"1"}},{"base_weights":[-7.365763E-2,-1.1332923E-1,1.1138142E0,-8.710492E-2,1.1342678E0,1.1453291E-1,-7.1670316E-2],"categories":[],"categories_nodes":[],"categories_segments":[],"categories_sizes":[],"default_left":[0,0,0,0,0,0,0],"id":14,"left_children":[1,-1,3,-1,5,-1,-1],"loss_changes":[8.5406525E2,0E0,1.3983337E1,0E0,7.3166504E0,0E0,0E0],"parents":[2147483647,0,0,2,2,4,4],"right_children":[2,-1,4,-1,6,-1,-1],"split_conditions":[1.3333333E1,-1.1332923E-1,1.3E1,-8.710492E-2,3E2,1.1453291E-1,-7.1670316E-2],"split_indices":[135,0,134,0,30,0,0],"split_type":[0,0,0,0,0,0,0],"sum_hessian":[6.767495E2,3.576489E2,3.1910062E2,2.830564E0,3.1627005E2,3.1477023E2,1.4998136E0],"tree_param":{"num_deleted":"0","num_feature":"156","num_nodes":"7","size_leaf_vector":"1"}},{"base_weights":[2.6732225E-2,-1.11840606E-1,1.1014206E0,-8.452783E-2,1.1188344E0,1.127509E-1,-6.67192E-2],"categories":[],"categories_nodes":[],"categories_segments":[],"categories_sizes":[],"default_left":[0,0,0,0,0,0,0],"id":15,"left_children":[1,-1,3,-1,5,-1,-1],"loss_changes":[8.306197E2,0E0,1.27482605E1,0E0,6.1052856E0,0E0,0E0],"parents":[2147483647,0,0,2,2,4,4],"right_children":[2,-1,4,-1,6,-1,-1],"split_conditions":[1.3333333E1,-1.11840606E-1,4E0,-8.452783E-2,3E2,1.127509E-1,-6.67192E-2],"split_indices":[135,0,133,0,30,0,0],"split_type":[0,0,0,0,0,0,0],"sum_hessian":[6.729337E2,3.2576883E2,3.471649E2,2.6564615E0,3.4450842E2,3.4321017E2,1.2982507E0],"tree_param":{"num_deleted":"0","num_feature":"156","num_nodes":"7","size_leaf_vector":"1"}},{"base_weights":[1.0624778E-1,-1.10525645E-1,1.0926263E0,-7.975809E-2,1.1064781E-1],"categories":[],"categories_nodes":[],"categories_segments":[],"categories_sizes":[],"default_left":[0,0,0,0,0],"id":16,"left_children":[1,-1,3,-1,-1],"loss_changes":[7.998799E2,0E0,1.0541412E1,0E0,0E0],"parents":[2147483647,0,0,2,2],"right_children":[2,-1,4,-1,-1],"split_conditions":[1.3333333E1,-1.10525645E-1,1.3E1,-7.975809E-2,1.1064781E-1],"split_indices":[135,0,134,0,0],"split_type":[0,0,0,0,0],"sum_hessian":[6.6734406E2,2.9944043E2,3.679036E2,2.2648535E0,3.6563876E2],"tree_param":{"num_deleted":"0","num_feature":"156","num_nodes":"5","size_leaf_vector":"1"}},{"base_weights":[1.05411544E-1,9.5837337E-1,-1.0936482E-1,-1.0556009E-1,1.10036395E-1],"categories":[],"categories_nodes":[],"categories_segments":[],"categories_sizes":[],"default_left":[0,0,0,0,0],"id":17,"left_children":[1,3,-1,-1,-1],"loss_changes":[6.262074E2,1.0345322E2,0E0,0E0,0E0],"parents":[2147483647,0,0,1,1],"right_children":[2,4,-1,-1,-1],"split_conditions":[4.65625E0,3E0,-1.0936482E-1,-1.0556009E-1,1.10036395E-1],"split_indices":[142,133,0,0,0],"split_type":[0,0,0,0,0],"sum_hessian":[6.1025195E2,3.567064E2,2.5354556E2,2.3068724E1,3.336377E2],"tree_param":{"num_deleted":"0","num_feature":"156","num_nodes":"5","size_leaf_vector":"1"}},{"base_weights":[2.7790422E-2,-1.0830923E-1,1.0601407E0,-7.574936E-2,1.0771438E0,1.0898167E-1,-6.995226E-2],"categories":[],"categories_nodes":[],"categories_segments":[],"categories_sizes":[],"default_left":[0,0,0,0,0,0,0],"id":18,"left_children":[1,-1,3,-1,5,-1,-1],"loss_changes":[5.915742E2,0E0,9.078644E0,0E0,6.735565E0,0E0,0E0],"parents":[2147483647,0,0,2,2,4,4],"right_children":[2,-1,4,-1,6,-1,-1],"split_conditions":[1.3333333E1,-1.0830923E-1,4E0,-7.574936E-2,3E2,1.0898167E-1,-6.995226E-2],"split_indices":[135,0,133,0,30,0,0],"split_type":[0,0,0,0,0,0,0],"sum_hessian":[5.1383746E2,2.4748105E2,2.6635645E2,2.0649104E0,2.6429153E2,2.6280353E2,1.4879854E0],"tree_param":{"num_deleted":"0","num_feature":"156","num_nodes":"7","size_leaf_vector":"1"}},{"base_weights":[2.5438484E-2,-1.0737558E-1,1.0520482E0,-7.119899E-2,1.0678378E0,1.0798242E-1,-6.539916E-2],"categories":[],"categories_nodes":[],"categories_segments":[],"categories_sizes":[],"default_left":[0,0,0,0,0,0,0],"id":19,"left_children":[1,-1,3,-1,5,-1,-1],"loss_changes":[5.3242224E2,0E0,7.5552063E0,0E0,5.70459E0,0E0,0E0],"parents":[2147483647,0,0,2,2,4,4],"right_children":[2,-1,4,-1,6,-1,-1],"split_conditions":[1.3333333E1,-1.0737558E-1,4E0,-7.119899E-2,3E2,1.0798242E-1,-6.539916E-2],"split_indices":[135,0,133,0,30,0,0],"split_type":[0,0,0,0,0,0,0],"sum_hessian":[4.6981897E2,2.2686644E2,2.4295253E2,1.7641743E0,2.4118835E2,2.3989124E2,1.2971293E0],"tree_param":{"num_deleted":"0","num_feature":"156","num_nodes":"7","size_leaf_vector":"1"}},{"base_weights":[6.198835E-2,-1.0653939E-1,1.0449029E0,-7.173241E-2,1.0614867E0,1.070892E-1,-5.773678E-2],"categories":[],"categories_nodes":[],"categories_segments":[],"categories_sizes":[],"default_left":[0,0,0,0,0,0,0],"id":20,"left_children":[1,-1,3,-1,5,-1,-1],"loss_changes":[4.9890707E2,0E0,7.7897034E0,0E0,4.2969055E0,0E0,0E0],"parents":[2147483647,0,0,2,2,4,4],"right_children":[2,-1,4,-1,6,-1,-1],"split_conditions":[1.3333333E1,-1.0653939E-1,4E0,-7.173241E-2,4.59375E0,1.070892E-1,-5.773678E-2],"split_indices":[135,0,133,0,32,0,0],"split_type":[0,0,0,0,0,0,0],"sum_hessian":[4.4822357E2,2.0873035E2,2.3949321E2,1.8388535E0,2.3765436E2,2.3664284E2,1.0115167E0],"tree_param":{"num_deleted":"0","num_feature":"156","num_nodes":"7","size_leaf_vector":"1"}},{"base_weights":[7.246093E-2,-1.05773166E-1,1.0324792E0,-7.3195E-2,1.0517559E0,1.0636214E-1,-6.1794568E-2],"categories":[],"categories_nodes":[],"categories_segments":[],"categories_sizes":[],"default_left":[0,0,0,0,0,0,0],"id":21,"left_children":[1,-1,3,-1,5,-1,-1],"loss_changes":[4.452774E2,0E0,8.3159485E0,0E0,5.0134277E0,0E0,0E0],"parents":[2147483647,0,0,2,2,4,4],"right_children":[2,-1,4,-1,6,-1,-1],"split_conditions":[1.3333333E1,-1.05773166E-1,4E0,-7.3195E-2,4.65625E0,1.0636214E-1,-6.1794568E-2],"split_indices":[135,0,133,0,142,0,0],"split_type":[0,0,0,0,0,0,0],"sum_hessian":[4.0838528E2,1.8752158E2,2.2086372E2,1.9873455E0,2.1887637E2,2.1769235E2,1.1840212E0],"tree_param":{"num_deleted":"0","num_feature":"156","num_nodes":"7","size_leaf_vector":"1"}}]},"name":"gbtree"},"learner_model_param":{"base_score":"[5E-1]","boost_from_average":"1","num_class":"0","num_feature":"156","num_target":"1"},"objective":{"name":"binary:logistic","reg_loss_param":{"scale_pos_weight":"286.642853"}}},"version":[3,2,0]}