{"learner":{"attributes":{"best_iteration":"0","best_score":"1.0"},"feature_names":["dns__query_count","dns__query_rate_per_minute","dns__avg_query_length","dns__max_query_length","dns__avg_entropy","dns__max_entropy","dns__avg_subdomain_depth","dns__max_label_length","dns__avg_label_length","dns__label_entropy_max","dns__unique_subdomain_ratio","dns__base64_pattern_count","dns__hex_pattern_count","dns__numeric_ratio","dns__subdomain_has_numbers_ratio","dns__unique_base_domains","dns__top_domain_query_ratio","dns__max_unique_subdomains_per_domain","dns__txt_record_ratio","dns__null_record_ratio","dns__mx_record_ratio","dns__cname_record_ratio","dns__any_record_ratio","dns__tunneling_type_ratio","dns__record_type_count","dns__avg_response_size","dns__max_response_size","dns__response_variance","dns__nxdomain_ratio","dns__fast_flux_ratio","dns__min_ttl","dns__ttl_variance","dns__inter_query_interval_mean","dns__inter_query_interval_cv","dns__unique_process_count","dns__non_browser_dns_ratio","dns__non_standard_dns_ratio","dns__nx_subdomains_per_top_domain","dns__nx_top_domain_query_ratio","dns__consonant_run_max","dns__digit_letter_run_max","dns__vowel_ratio_min","auth__total_auth_events","auth__successful_logon_count","auth__failed_logon_count","auth__failed_logon_ratio","auth__network_logon_count","auth__interactive_logon_count","auth__remote_interactive_logon_count","auth__service_logon_count","auth__cleartext_logon_count","auth__network_logon_ratio","auth__explicit_credential_count","auth__ntlm_count","auth__kerberos_tgt_count","auth__kerberos_tgs_count","auth__special_logon_count","auth__unique_privileged_users","auth__unique_users","auth__unique_target_hosts","auth__unique_source_ips","auth__lateral_velocity_per_min","auth__max_hosts_per_user","auth__max_failures_per_user","auth__unique_failed_users","auth__max_users_per_source","auth__account_created_count","auth__account_enabled_count","auth__password_reset_count","auth__account_disabled_count","auth__account_deleted_count","auth__account_changed_count","auth__success_after_failures","auth__time_to_first_success_secs","auth__offhours_logon_count","auth__offhours_interactive_count","auth__psexec_invocations","auth__wmic_invocations","auth__winrm_invocations","auth__schtasks_invocations","auth__powershell_encoded_count","auth__lsass_access_count","process__total_process_events","process__credential_tool_count","process__lsass_access_count","process__image_load_count","process__remote_thread_count","process__process_tamper_count","process__psexec_count","process__wmic_count","process__mshta_count","process__rundll32_count","process__regsvr32_count","process__certutil_count","process__bitsadmin_count","process__schtasks_count","process__esentutl_count","process__total_lolbin_count","process__powershell_count","process__encoded_command_count","process__download_command_count","process__amsi_bypass_count","process__office_to_shell_count","process__browser_to_shell_count","process__pipe_event_count","process__pipe_attack_count","process__archive_drop_count","process__user_exe_drop_count","process__file_create_count","process__unique_image_count","process__unique_parent_count","network__total_connections","network__connections_per_minute","network__total_lateral_count","network__smb_count","network__rdp_count","network__winrm_count","network__wmi_count","network__ssh_count","network__netbios_count","network__telnet_count","network__unique_dest_ips","network__unique_dest_ports","network__unique_source_processes","network__internal_connection_count","network__external_connection_count","network__internal_to_external_ratio","network__shell_initiated_count","network__lolbin_initiated_count","network__shell_lateral_count","network__total_bytes_sent","network__total_bytes_received","network__max_bytes_per_connection","temporal__total_event_count","temporal__window_duration_seconds","temporal__events_per_minute","temporal__burst_factor","temporal__per_minute_stdev","temporal__active_minute_count","temporal__off_hours_ratio","temporal__night_hours_ratio","temporal__weekend_ratio","temporal__inter_event_interval_mean","temporal__inter_event_interval_cv","temporal__inter_event_interval_min","temporal__inter_event_interval_max","behavioral__pth_chain_count","behavioral__bruteforce_success_count","behavioral__auth_then_network_count","behavioral__auth_then_process_count","behavioral__priv_escalation_chain","behavioral__unique_users_overall","behavioral__unique_hosts_overall","behavioral__unique_processes_overall","behavioral__host_user_pair_count","behavioral__entity_diversity_score"],"feature_types":[],"gradient_booster":{"model":{"cats":{"enc":[],"feature_segments":[],"sorted_idx":[]},"gbtree_model_param":{"num_parallel_tree":"1","num_trees":"21"},"iteration_indptr":[0,1,2,3,4,5,6,7,8,9,10,11,12,13,14,15,16,17,18,19,20,21],"tree_info":[0,0,0,0,0,0,0,0,0,0,0,0,0,0,0,0,0,0,0,0,0],"trees":[{"base_weights":[5.338695E-3,-1.997612E-1,1.963807E0,1.9812376E0,-1.5789475E-1,-1.5555556E-1,1.997645E-1],"categories":[],"categories_nodes":[],"categories_segments":[],"categories_sizes":[],"default_left":[0,0,0,0,0,0,0],"id":0,"left_children":[1,-1,3,5,-1,-1,-1],"loss_changes":[6.6451553E3,0E0,5.6020508E1,5.2593506E1,0E0,0E0,0E0],"parents":[2147483647,0,0,2,2,3,3],"right_children":[2,-1,4,6,-1,-1,-1],"split_conditions":[1.3235294E1,-1.997612E-1,3E2,1.9E1,-1.5789475E-1,-1.5555556E-1,1.997645E-1],"split_indices":[135,0,30,134,0,0,0],"split_type":[0,0,0,0,0,0,0],"sum_hessian":[1.6920193E3,8.365E2,8.555193E2,8.517693E2,3.75E0,3.5E0,8.482693E2],"tree_param":{"num_deleted":"0","num_feature":"156","num_nodes":"7","size_leaf_vector":"1"}},{"base_weights":[7.1924426E-2,1.5834185E0,-1.8167308E-1,-1.7910664E-1,1.8041117E0,1.8169405E-1,-1.4070512E-1],"categories":[],"categories_nodes":[],"categories_segments":[],"categories_sizes":[],"default_left":[0,0,0,0,0,0,0],"id":1,"left_children":[1,3,-1,-1,5,-1,-1],"loss_changes":[5.0371963E3,7.3314185E2,0E0,0E0,4.047412E1,0E0,0E0],"parents":[2147483647,0,0,1,1,4,4],"right_children":[2,4,-1,-1,6,-1,-1],"split_conditions":[5E0,4.7334012E-1,-1.8167308E-1,-1.7910664E-1,3E2,1.8169405E-1,-1.4070512E-1],"split_indices":[142,143,0,0,30,0,0],"split_type":[0,0,0,0,0,0,0],"sum_hessian":[1.7625251E3,9.7910626E2,7.834189E2,5.966651E1,9.1943976E2,9.162136E2,3.2261243E0],"tree_param":{"num_deleted":"0","num_feature":"156","num_nodes":"7","size_leaf_vector":"1"}},{"base_weights":[-1.5792932E-3,1.4598854E0,-1.6807505E-1,-1.6558057E-1,1.6676427E0,1.6808102E-1,-1.3172773E-1],"categories":[],"categories_nodes":[],"categories_segments":[],"categories_sizes":[],"default_left":[0,0,0,0,0,0,0],"id":2,"left_children":[1,3,-1,-1,5,-1,-1],"loss_changes":[4.0236116E3,5.7020325E2,0E0,0E0,3.453369E1,0E0,0E0],"parents":[2147483647,0,0,1,1,4,4],"right_children":[2,4,-1,-1,6,-1,-1],"split_conditions":[5E0,4E0,-1.6807505E-1,-1.6558057E-1,3E2,1.6808102E-1,-1.3172773E-1],"split_indices":[142,133,0,0,30,0,0],"split_type":[0,0,0,0,0,0,0],"sum_hessian":[1.6375807E3,8.756181E2,7.619625E2,5.4301464E1,8.2131665E2,8.181445E2,3.172154E0],"tree_param":{"num_deleted":"0","num_feature":"156","num_nodes":"7","size_leaf_vector":"1"}},{"base_weights":[-6.51281E-3,-1.575475E-1,1.5468175E0,-1.2315365E-1,1.5599096E0,1.5722863E-1,-1.22254826E-1],"categories":[],"categories_nodes":[],"categories_segments":[],"categories_sizes":[],"default_left":[0,0,0,0,0,0,0],"id":3,"left_children":[1,-1,3,-1,5,-1,-1],"loss_changes":[3.8576072E3,0E0,3.085315E1,0E0,2.920044E1,0E0,0E0],"parents":[2147483647,0,0,2,2,4,4],"right_children":[2,-1,4,-1,6,-1,-1],"split_conditions":[1.3235294E1,-1.575475E-1,4E0,-1.2315365E-1,4.892857E0,1.5722863E-1,-1.22254826E-1],"split_indices":[135,0,133,0,32,0,0],"split_type":[0,0,0,0,0,0,0],"sum_hessian":[1.580857E3,7.864642E2,7.9439294E2,3.289271E0,7.911037E2,7.880333E2,3.070359E0],"tree_param":{"num_deleted":"0","num_feature":"156","num_nodes":"7","size_leaf_vector":"1"}},{"base_weights":[-3.6930013E-4,1.2822441E0,-1.4910617E-1,-1.4702325E-1,1.4784088E0,1.491249E-1,-1.2491613E-1],"categories":[],"categories_nodes":[],"categories_segments":[],"categories_sizes":[],"default_left":[0,0,0,0,0,0,0],"id":4,"left_children":[1,3,-1,-1,5,-1,-1],"loss_changes":[2.8737603E3,4.3838965E2,0E0,0E0,2.829248E1,0E0,0E0],"parents":[2147483647,0,0,1,1,4,4],"right_children":[2,4,-1,-1,6,-1,-1],"split_conditions":[5E0,4.7334012E-1,-1.4910617E-1,-1.4702325E-1,3E2,1.491249E-1,-1.2491613E-1],"split_indices":[142,143,0,0,30,0,0],"split_type":[0,0,0,0,0,0,0],"sum_hessian":[1.501027E3,8.068991E2,6.941279E2,5.3248623E1,7.5365045E2,7.5057043E2,3.0800564E0],"tree_param":{"num_deleted":"0","num_feature":"156","num_nodes":"7","size_leaf_vector":"1"}},{"base_weights":[-6.43684E-3,1.2250096E0,-1.4227657E-1,-1.4017181E-1,1.4094265E0,1.4228998E-1,-1.2000855E-1],"categories":[],"categories_nodes":[],"categories_segments":[],"categories_sizes":[],"default_left":[0,0,0,0,0,0,0],"id":5,"left_children":[1,3,-1,-1,5,-1,-1],"loss_changes":[2.4908137E3,3.7202686E2,0E0,0E0,2.6821655E1,0E0,0E0],"parents":[2147483647,0,0,1,1,4,4],"right_children":[2,4,-1,-1,6,-1,-1],"split_conditions":[5E0,4E0,-1.4227657E-1,-1.4017181E-1,3E2,1.4228998E-1,-1.2000855E-1],"split_indices":[142,133,0,0,30,0,0],"split_type":[0,0,0,0,0,0,0],"sum_hessian":[1.4261105E3,7.6291705E2,6.631935E2,4.9615902E1,7.1330115E2,7.1008954E2,3.211581E0],"tree_param":{"num_deleted":"0","num_feature":"156","num_nodes":"7","size_leaf_vector":"1"}},{"base_weights":[5.5909064E-2,-1.3666804E-1,1.3448455E0,1.3534482E0,-9.8572634E-2,-9.7018376E-2,1.3619287E-1],"categories":[],"categories_nodes":[],"categories_segments":[],"categories_sizes":[],"default_left":[0,0,0,0,0,0,0],"id":6,"left_children":[1,-1,3,5,-1,-1,-1],"loss_changes":[2.5691626E3,0E0,1.6071655E1,1.5761719E1,0E0,0E0,0E0],"parents":[2147483647,0,0,2,2,3,3],"right_children":[2,-1,4,6,-1,-1,-1],"split_conditions":[1.3235294E1,-1.3666804E-1,4.892857E0,4E0,-9.8572634E-2,-9.7018376E-2,1.3619287E-1],"split_indices":[135,0,32,133,0,0,0],"split_type":[0,0,0,0,0,0,0],"sum_hessian":[1.3991343E3,6.650563E2,7.3407794E2,7.31796E2,2.281961E0,2.2487562E0,7.2954724E2],"tree_param":{"num_deleted":"0","num_feature":"156","num_nodes":"7","size_leaf_vector":"1"}},{"base_weights":[5.3406466E-2,-1.3194966E-1,1.2959474E0,1.3112451E0,-1.1654637E-1,-9.3178354E-2,1.3196866E-1],"categories":[],"categories_nodes":[],"categories_segments":[],"categories_sizes":[],"default_left":[0,0,0,0,0,0,0],"id":7,"left_children":[1,-1,3,5,-1,-1,-1],"loss_changes":[2.2375918E3,0E0,2.7453247E1,1.4194824E1,0E0,0E0,0E0],"parents":[2147483647,0,0,2,2,3,3],"right_children":[2,-1,4,6,-1,-1,-1],"split_conditions":[1.3235294E1,-1.3194966E-1,3E2,3E0,-1.1654637E-1,-9.3178354E-2,1.3196866E-1],"split_indices":[135,0,30,153,0,0,0],"split_type":[0,0,0,0,0,0,0],"sum_hessian":[1.3096846E3,6.221734E2,6.875111E2,6.83729E2,3.7820952E0,2.1534262E0,6.8157556E2],"tree_param":{"num_deleted":"0","num_feature":"156","num_nodes":"7","size_leaf_vector":"1"}},{"base_weights":[-7.127904E-2,-1.2796873E-1,1.2480862E0,1.2656827E0,-1.12371586E-1,-9.8233186E-2,1.279442E-1],"categories":[],"categories_nodes":[],"categories_segments":[],"categories_sizes":[],"default_left":[0,0,0,0,0,0,0],"id":8,"left_children":[1,-1,3,5,-1,-1,-1],"loss_changes":[1.7888552E3,0E0,2.3809448E1,1.7740845E1,0E0,0E0,0E0],"parents":[2147483647,0,0,2,2,3,3],"right_children":[2,-1,4,6,-1,-1,-1],"split_conditions":[1.3235294E1,-1.2796873E-1,3E2,4E0,-1.12371586E-1,-9.8233186E-2,1.279442E-1],"split_indices":[135,0,30,133,0,0,0],"split_type":[0,0,0,0,0,0,0],"sum_hessian":[1.1200076E3,5.8460095E2,5.354067E2,5.3192664E2,3.4800222E0,2.807702E0,5.2911896E2],"tree_param":{"num_deleted":"0","num_feature":"156","num_nodes":"7","size_leaf_vector":"1"}},{"base_weights":[1.0980994E-3,-1.24567024E-1,1.2163423E0,1.2323827E0,-1.0788007E-1,-9.628362E-2,1.2457037E-1],"categories":[],"categories_nodes":[],"categories_segments":[],"categories_sizes":[],"default_left":[0,0,0,0,0,0,0],"id":9,"left_children":[1,-1,3,5,-1,-1,-1],"loss_changes":[1.6379956E3,0E0,2.1484253E1,1.7111328E1,0E0,0E0,0E0],"parents":[2147483647,0,0,2,2,3,3],"right_children":[2,-1,4,6,-1,-1,-1],"split_conditions":[1.3235294E1,-1.24567024E-1,3E2,4E0,-1.0788007E-1,-9.628362E-2,1.2457037E-1],"split_indices":[135,0,30,133,0,0,0],"split_type":[0,0,0,0,0,0,0],"sum_hessian":[1.0790939E3,5.3262616E2,5.464677E2,5.4313495E2,3.3328073E0,2.8460388E0,5.402889E2],"tree_param":{"num_deleted":"0","num_feature":"156","num_nodes":"7","size_leaf_vector":"1"}},{"base_weights":[5.2422393E-2,-1.2165065E-1,1.1963869E0,-8.947587E-2,1.2070204E0,1.21673085E-1,-8.908524E-2],"categories":[],"categories_nodes":[],"categories_segments":[],"categories_sizes":[],"default_left":[0,0,0,0,0,0,0],"id":10,"left_children":[1,-1,3,-1,5,-1,-1],"loss_changes":[1.5207909E3,0E0,1.3330627E1,0E0,1.2259094E1,0E0,0E0],"parents":[2147483647,0,0,2,2,4,4],"right_children":[2,-1,4,-1,6,-1,-1],"split_conditions":[1.3235294E1,-1.2165065E-1,4E0,-8.947587E-2,3E2,1.21673085E-1,-8.908524E-2],"split_indices":[135,0,133,0,30,0,0],"split_type":[0,0,0,0,0,0,0],"sum_hessian":[1.0456556E3,4.9572043E2,5.4993524E2,2.361611E0,5.4757367E2,5.454689E2,2.1048017E0],"tree_param":{"num_deleted":"0","num_feature":"156","num_nodes":"7","size_leaf_vector":"1"}},{"base_weights":[-6.616341E-2,-1.19130805E-1,1.1575613E0,1.1771846E0,-1.019084E-1,-8.82448E-2,1.19103804E-1],"categories":[],"categories_nodes":[],"categories_segments":[],"categories_sizes":[],"default_left":[0,0,0,0,0,0,0],"id":11,"left_children":[1,-1,3,5,-1,-1,-1],"loss_changes":[1.2253188E3,0E0,1.9408997E1,1.3119751E1,0E0,0E0,0E0],"parents":[2147483647,0,0,2,2,3,3],"right_children":[2,-1,4,6,-1,-1,-1],"split_conditions":[1.3235294E1,-1.19130805E-1,3E2,4E0,-1.019084E-1,-8.82448E-2,1.19103804E-1],"split_indices":[135,0,30,133,0,0,0],"split_type":[0,0,0,0,0,0,0],"sum_hessian":[8.8793085E2,4.626121E2,4.2531876E2,4.219737E2,3.3450742E0,2.400404E0,4.195733E2],"tree_param":{"num_deleted":"0","num_feature":"156","num_nodes":"7","size_leaf_vector":"1"}},{"base_weights":[3.8615864E-2,-1.16938725E-1,1.1406564E0,1.1563562E0,-9.728996E-2,-8.854296E-2,1.1695852E-1],"categories":[],"categories_nodes":[],"categories_segments":[],"categories_sizes":[],"default_left":[0,0,0,0,0,0,0],"id":12,"left_children":[1,-1,3,5,-1,-1,-1],"loss_changes":[1.1973138E3,0E0,1.6730713E1,1.3657349E1,0E0,0E0,0E0],"parents":[2147483647,0,0,2,2,3,3],"right_children":[2,-1,4,6,-1,-1,-1],"split_conditions":[1.3235294E1,-1.16938725E-1,3E2,4E0,-9.728996E-2,-8.854296E-2,1.1695852E-1],"split_indices":[135,0,30,133,0,0,0],"split_type":[0,0,0,0,0,0,0],"sum_hessian":[8.973763E2,4.2807748E2,4.692988E2,4.6628802E2,3.0107918E0,2.5772638E0,4.6371075E2],"tree_param":{"num_deleted":"0","num_feature":"156","num_nodes":"7","size_leaf_vector":"1"}},{"base_weights":[-4.566924E-3,-1.1501463E-1,1.1191357E0,1.1351655E0,-9.167929E-2,-8.255724E-2,1.1480204E-1],"categories":[],"categories_nodes":[],"categories_segments":[],"categories_sizes":[],"default_left":[0,0,0,0,0,0,0],"id":13,"left_children":[1,-1,3,5,-1,-1,-1],"loss_changes":[1.0119823E3,0E0,1.3992249E1,1.088382E1,0E0,0E0,0E0],"parents":[2147483647,0,0,2,2,3,3],"right_children":[2,-1,4,6,-1,-1,-1],"split_conditions":[1.3235294E1,-1.1501463E-1,2.0973658E6,4E0,-9.167929E-2,-8.255724E-2,1.1480204E-1],"split_indices":[135,0,31,133,0,0,0],"split_type":[0,0,0,0,0,0,0],"sum_hessian":[7.8413367E2,3.882755E2,3.9585812E2,3.932047E2,2.6534345E0,2.1493337E0,3.9105536E2],"tree_param":{"num_deleted":"0","num_feature":"156","num_nodes":"7","size_leaf_vector":"1"}},{"base_weights":[5.3250886E-2,-1.133306E-1,1.1100221E0,1.1239915E0,-8.7491505E-2,-8.16557E-2,1.1366349E-1],"categories":[],"categories_nodes":[],"categories_segments":[],"categories_sizes":[],"default_left":[0,0,0,0,0,0,0],"id":14,"left_children":[1,-1,3,5,-1,-1,-1],"loss_changes":[9.5328375E2,0E0,1.213266E1,1.0735138E1,0E0,0E0,0E0],"parents":[2147483647,0,0,2,2,3,3],"right_children":[2,-1,4,6,-1,-1,-1],"split_conditions":[1.3235294E1,-1.133306E-1,3E2,1.9E1,-8.7491505E-2,-8.16557E-2,1.1366349E-1],"split_indices":[135,0,30,134,0,0,0],"split_type":[0,0,0,0,0,0,0],"sum_hessian":[7.582402E2,3.571523E2,4.0108786E2,3.9871555E2,2.3723025E0,2.1693673E0,3.965462E2],"tree_param":{"num_deleted":"0","num_feature":"156","num_nodes":"7","size_leaf_vector":"1"}},{"base_weights":[6.9899964E-3,-1.11842565E-1,1.0890908E0,1.1073955E0,-8.897977E-2,-7.9177774E-2,1.1214042E-1],"categories":[],"categories_nodes":[],"categories_segments":[],"categories_sizes":[],"default_left":[0,0,0,0,0,0,0],"id":15,"left_children":[1,-1,3,5,-1,-1,-1],"loss_changes":[8.1048254E2,0E0,1.327533E1,9.8437195E0,0E0,0E0,0E0],"parents":[2147483647,0,0,2,2,3,3],"right_children":[2,-1,4,6,-1,-1,-1],"split_conditions":[1.3235294E1,-1.11842565E-1,3E2,4E0,-8.897977E-2,-7.9177774E-2,1.1214042E-1],"split_indices":[135,0,30,133,0,0,0],"split_type":[0,0,0,0,0,0,0],"sum_hessian":[6.635226E2,3.2523517E2,3.3828738E2,3.356233E2,2.6641152E0,2.0509596E0,3.3357233E2],"tree_param":{"num_deleted":"0","num_feature":"156","num_nodes":"7","size_leaf_vector":"1"}},{"base_weights":[5.209877E-2,-1.10576786E-1,1.0909086E0,-7.12371E-2,1.1015327E-1],"categories":[],"categories_nodes":[],"categories_segments":[],"categories_sizes":[],"default_left":[0,0,0,0,0],"id":16,"left_children":[1,-1,3,-1,-1],"loss_changes":[7.671077E2,0E0,7.2245483E0,0E0,0E0],"parents":[2147483647,0,0,2,2],"right_children":[2,-1,4,-1,-1],"split_conditions":[1.368E1,-1.10576786E-1,1.9E1,-7.12371E-2,1.1015327E-1],"split_indices":[135,0,134,0,0],"split_type":[0,0,0,0,0],"sum_hessian":[6.357637E2,3.006226E2,3.3514105E2,1.5760615E0,3.33565E2],"tree_param":{"num_deleted":"0","num_feature":"156","num_nodes":"5","size_leaf_vector":"1"}},{"base_weights":[1.615206E-2,9.433912E-1,-1.09334104E-1,-1.0501555E-1,1.0858254E0,1.098539E-1,-7.433175E-2],"categories":[],"categories_nodes":[],"categories_segments":[],"categories_sizes":[],"default_left":[0,0,0,0,0,0,0],"id":17,"left_children":[1,3,-1,-1,5,-1,-1],"loss_changes":[5.7918384E2,8.8220276E1,0E0,0E0,7.484131E0,0E0,0E0],"parents":[2147483647,0,0,1,1,4,4],"right_children":[2,4,-1,-1,6,-1,-1],"split_conditions":[5E0,4E0,-1.09334104E-1,-1.0501555E-1,3E2,1.098539E-1,-7.433175E-2],"split_indices":[142,133,0,0,30,0,0],"split_type":[0,0,0,0,0,0,0],"sum_hessian":[5.609866E2,3.0567435E2,2.5531223E2,1.9958405E1,2.8571594E2,2.8414044E2,1.575516E0],"tree_param":{"num_deleted":"0","num_feature":"156","num_nodes":"7","size_leaf_vector":"1"}},{"base_weights":[1.9530348E-2,-1.08311E-1,1.0573446E0,1.0785547E0,-8.500357E-2,-5.8537282E-2,1.0875752E-1],"categories":[],"categories_nodes":[],"categories_segments":[],"categories_sizes":[],"default_left":[0,0,0,0,0,0,0],"id":18,"left_children":[1,-1,3,5,-1,-1,-1],"loss_changes":[5.866783E2,0E0,1.1600952E1,4.563507E0,0E0,0E0,0E0],"parents":[2147483647,0,0,2,2,3,3],"right_children":[2,-1,4,6,-1,-1,-1],"split_conditions":[1.3235294E1,-1.08311E-1,3E2,4E0,-8.500357E-2,-5.8537282E-2,1.0875752E-1],"split_indices":[135,0,30,133,0,0,0],"split_type":[0,0,0,0,0,0,0],"sum_hessian":[5.1067938E2,2.4758527E2,2.6309412E2,2.6063043E2,2.4636834E0,1.060792E0,2.5956964E2],"tree_param":{"num_deleted":"0","num_feature":"156","num_nodes":"7","size_leaf_vector":"1"}},{"base_weights":[6.258333E-2,-1.07376516E-1,1.0479687E0,1.064906E0,-7.757845E-2,-6.817352E-2,1.0778208E-1],"categories":[],"categories_nodes":[],"categories_segments":[],"categories_sizes":[],"default_left":[0,0,0,0,0,0,0],"id":19,"left_children":[1,-1,3,5,-1,-1,-1],"loss_changes":[5.482817E2,0E0,8.92572E0,6.604706E0,0E0,0E0,0E0],"parents":[2147483647,0,0,2,2,3,3],"right_children":[2,-1,4,6,-1,-1,-1],"split_conditions":[1.3235294E1,-1.07376516E-1,3E2,4E0,-7.757845E-2,-6.817352E-2,1.0778208E-1],"split_indices":[135,0,30,133,0,0,0],"split_type":[0,0,0,0,0,0,0],"sum_hessian":[4.876454E2,2.2643286E2,2.6121252E2,2.5922122E2,1.9913003E0,1.5225167E0,2.576987E2],"tree_param":{"num_deleted":"0","num_feature":"156","num_nodes":"7","size_leaf_vector":"1"}},{"base_weights":[-2.8867546E-1,-1.06649004E-1,1.06787145E-1],"categories":[],"categories_nodes":[],"categories_segments":[],"categories_sizes":[],"default_left":[0,0,0],"id":20,"left_children":[1,-1,-1],"loss_changes":[3.5376834E2,0E0,0E0],"parents":[2147483647,0,0],"right_children":[2,-1,-1],"split_conditions":[9.899495E0,-1.06649004E-1,1.06787145E-1],"split_indices":[137,0,0],"split_type":[0,0,0],"sum_hessian":[3.3320096E2,2.1191011E2,1.2129085E2],"tree_param":{"num_deleted":"0","num_feature":"156","num_nodes":"3","size_leaf_vector":"1"}}]},"name":"gbtree"},"learner_model_param":{"base_score":"[5E-1]","boost_from_average":"1","num_class":"0","num_feature":"156","num_target":"1"},"objective":{"name":"binary:logistic","reg_loss_param":{"scale_pos_weight":"308.461548"}}},"version":[3,2,0]}