{"learner":{"attributes":{"best_iteration":"0","best_score":"1.0"},"feature_names":["dns__query_count","dns__query_rate_per_minute","dns__avg_query_length","dns__max_query_length","dns__avg_entropy","dns__max_entropy","dns__avg_subdomain_depth","dns__max_label_length","dns__avg_label_length","dns__label_entropy_max","dns__unique_subdomain_ratio","dns__base64_pattern_count","dns__hex_pattern_count","dns__numeric_ratio","dns__subdomain_has_numbers_ratio","dns__unique_base_domains","dns__top_domain_query_ratio","dns__max_unique_subdomains_per_domain","dns__txt_record_ratio","dns__null_record_ratio","dns__mx_record_ratio","dns__cname_record_ratio","dns__any_record_ratio","dns__tunneling_type_ratio","dns__record_type_count","dns__avg_response_size","dns__max_response_size","dns__response_variance","dns__nxdomain_ratio","dns__fast_flux_ratio","dns__min_ttl","dns__ttl_variance","dns__inter_query_interval_mean","dns__inter_query_interval_cv","dns__unique_process_count","dns__non_browser_dns_ratio","dns__non_standard_dns_ratio","dns__nx_subdomains_per_top_domain","dns__nx_top_domain_query_ratio","dns__consonant_run_max","dns__digit_letter_run_max","dns__vowel_ratio_min","auth__total_auth_events","auth__successful_logon_count","auth__failed_logon_count","auth__failed_logon_ratio","auth__network_logon_count","auth__interactive_logon_count","auth__remote_interactive_logon_count","auth__service_logon_count","auth__cleartext_logon_count","auth__network_logon_ratio","auth__explicit_credential_count","auth__ntlm_count","auth__kerberos_tgt_count","auth__kerberos_tgs_count","auth__special_logon_count","auth__unique_privileged_users","auth__unique_users","auth__unique_target_hosts","auth__unique_source_ips","auth__lateral_velocity_per_min","auth__max_hosts_per_user","auth__max_failures_per_user","auth__unique_failed_users","auth__max_users_per_source","auth__account_created_count","auth__account_enabled_count","auth__password_reset_count","auth__account_disabled_count","auth__account_deleted_count","auth__account_changed_count","auth__success_after_failures","auth__time_to_first_success_secs","auth__offhours_logon_count","auth__offhours_interactive_count","auth__psexec_invocations","auth__wmic_invocations","auth__winrm_invocations","auth__schtasks_invocations","auth__powershell_encoded_count","auth__lsass_access_count","process__total_process_events","process__credential_tool_count","process__lsass_access_count","process__image_load_count","process__remote_thread_count","process__process_tamper_count","process__psexec_count","process__wmic_count","process__mshta_count","process__rundll32_count","process__regsvr32_count","process__certutil_count","process__bitsadmin_count","process__schtasks_count","process__esentutl_count","process__total_lolbin_count","process__powershell_count","process__encoded_command_count","process__download_command_count","process__amsi_bypass_count","process__office_to_shell_count","process__browser_to_shell_count","process__pipe_event_count","process__pipe_attack_count","process__archive_drop_count","process__user_exe_drop_count","process__file_create_count","process__unique_image_count","process__unique_parent_count","network__total_connections","network__connections_per_minute","network__total_lateral_count","network__smb_count","network__rdp_count","network__winrm_count","network__wmi_count","network__ssh_count","network__netbios_count","network__telnet_count","network__unique_dest_ips","network__unique_dest_ports","network__unique_source_processes","network__internal_connection_count","network__external_connection_count","network__internal_to_external_ratio","network__shell_initiated_count","network__lolbin_initiated_count","network__shell_lateral_count","network__total_bytes_sent","network__total_bytes_received","network__max_bytes_per_connection","temporal__total_event_count","temporal__window_duration_seconds","temporal__events_per_minute","temporal__burst_factor","temporal__per_minute_stdev","temporal__active_minute_count","temporal__off_hours_ratio","temporal__night_hours_ratio","temporal__weekend_ratio","temporal__inter_event_interval_mean","temporal__inter_event_interval_cv","temporal__inter_event_interval_min","temporal__inter_event_interval_max","behavioral__pth_chain_count","behavioral__bruteforce_success_count","behavioral__auth_then_network_count","behavioral__auth_then_process_count","behavioral__priv_escalation_chain","behavioral__unique_users_overall","behavioral__unique_hosts_overall","behavioral__unique_processes_overall","behavioral__host_user_pair_count","behavioral__entity_diversity_score"],"feature_types":[],"gradient_booster":{"model":{"cats":{"enc":[],"feature_segments":[],"sorted_idx":[]},"gbtree_model_param":{"num_parallel_tree":"1","num_trees":"21"},"iteration_indptr":[0,1,2,3,4,5,6,7,8,9,10,11,12,13,14,15,16,17,18,19,20,21],"tree_info":[0,0,0,0,0,0,0,0,0,0,0,0,0,0,0,0,0,0,0,0,0],"trees":[{"base_weights":[-5.081444E-2,-1.9976091E-1,1.9604791E0,1.9789069E0,-1.5789475E-1,-1.5789475E-1,1.9975069E-1],"categories":[],"categories_nodes":[],"categories_segments":[],"categories_sizes":[],"default_left":[0,0,0,0,0,0,0],"id":0,"left_children":[1,-1,3,5,-1,-1,-1],"loss_changes":[6.4458213E3,0E0,5.5936035E1,5.648828E1,0E0,0E0,0E0],"parents":[2147483647,0,0,2,2,3,3],"right_children":[2,-1,4,6,-1,-1,-1],"split_conditions":[1.31448765E1,-1.9976091E-1,3E2,1.1E1,-1.5789475E-1,-1.5789475E-1,1.9975069E-1],"split_indices":[135,0,30,134,0,0,0],"split_type":[0,0,0,0,0,0,0],"sum_hessian":[1.6442001E3,8.355E2,8.087001E2,8.049501E2,3.75E0,3.75E0,8.012001E2],"tree_param":{"num_deleted":"0","num_feature":"156","num_nodes":"7","size_leaf_vector":"1"}},{"base_weights":[-2.2359666E-1,1.4690506E0,-1.8166654E-1,-1.7942582E-1,1.8010997E0,1.8161876E-1,-1.3572952E-1],"categories":[],"categories_nodes":[],"categories_segments":[],"categories_sizes":[],"default_left":[0,0,0,0,0,0,0],"id":1,"left_children":[1,3,-1,-1,5,-1,-1],"loss_changes":[4.0699707E3,7.962777E2,0E0,0E0,3.414453E1,0E0,0E0],"parents":[2147483647,0,0,1,1,4,4],"right_children":[2,4,-1,-1,6,-1,-1],"split_conditions":[4.948276E0,4.7715735E-1,-1.8166654E-1,-1.7942582E-1,3E2,1.8161876E-1,-1.3572952E-1],"split_indices":[142,143,0,0,30,0,0],"split_type":[0,0,0,0,0,0,0],"sum_hessian":[1.5073616E3,7.308771E2,7.764845E2,6.709341E1,6.637836E2,6.610507E2,2.7329311E0],"tree_param":{"num_deleted":"0","num_feature":"156","num_nodes":"7","size_leaf_vector":"1"}},{"base_weights":[-1.2230625E-1,1.3902164E0,-1.6807179E-1,-1.6602369E-1,1.6664298E0,1.680553E-1,-1.3021004E-1],"categories":[],"categories_nodes":[],"categories_segments":[],"categories_sizes":[],"default_left":[0,0,0,0,0,0,0],"id":2,"left_children":[1,3,-1,-1,5,-1,-1],"loss_changes":[3.6053772E3,6.5681885E2,0E0,0E0,3.2051636E1,0E0,0E0],"parents":[2147483647,0,0,1,1,4,4],"right_children":[2,4,-1,-1,6,-1,-1],"split_conditions":[4.948276E0,4E0,-1.6807179E-1,-1.6602369E-1,3E2,1.680553E-1,-1.3021004E-1],"split_indices":[142,133,0,0,30,0,0],"split_type":[0,0,0,0,0,0,0],"sum_hessian":[1.5275695E3,7.752527E2,7.523167E2,6.395327E1,7.1129944E2,7.0836316E2,2.9362566E0],"tree_param":{"num_deleted":"0","num_feature":"156","num_nodes":"7","size_leaf_vector":"1"}},{"base_weights":[7.120947E-2,-1.5754129E-1,1.5513237E0,-1.23010054E-1,1.5632203E0,1.5736885E-1,-1.20835185E-1],"categories":[],"categories_nodes":[],"categories_segments":[],"categories_sizes":[],"default_left":[0,0,0,0,0,0,0],"id":3,"left_children":[1,-1,3,-1,5,-1,-1],"loss_changes":[4.0505054E3,0E0,3.0883057E1,0E0,2.7199219E1,0E0,0E0],"parents":[2147483647,0,0,2,2,4,4],"right_children":[2,-1,4,-1,6,-1,-1],"split_conditions":[1.31448765E1,-1.5754129E-1,4E0,-1.23010054E-1,4.7E0,1.5736885E-1,-1.20835185E-1],"split_indices":[135,0,133,0,32,0,0],"split_type":[0,0,0,0,0,0,0],"sum_hessian":[1.659955E3,7.8574817E2,8.742068E2,3.2871003E0,8.709197E2,8.680732E2,2.8465118E0],"tree_param":{"num_deleted":"0","num_feature":"156","num_nodes":"7","size_leaf_vector":"1"}},{"base_weights":[1.75406E-2,1.2750845E0,-1.4910327E-1,-1.4719978E-1,1.480772E0,1.4912812E-1,-1.1787192E-1],"categories":[],"categories_nodes":[],"categories_segments":[],"categories_sizes":[],"default_left":[0,0,0,0,0,0,0],"id":4,"left_children":[1,3,-1,-1,5,-1,-1],"loss_changes":[2.883105E3,4.7049963E2,0E0,0E0,2.332312E1,0E0,0E0],"parents":[2147483647,0,0,1,1,4,4],"right_children":[2,4,-1,-1,6,-1,-1],"split_conditions":[4.948276E0,4.7715735E-1,-1.4910327E-1,-1.4719978E-1,3E2,1.4912812E-1,-1.1787192E-1],"split_indices":[142,143,0,0,30,0,0],"split_type":[0,0,0,0,0,0,0],"sum_hessian":[1.5177437E3,8.27825E2,6.8991864E2,5.7236763E1,7.7058826E2,7.6799274E2,2.5955477E0],"tree_param":{"num_deleted":"0","num_feature":"156","num_nodes":"7","size_leaf_vector":"1"}},{"base_weights":[6.3778445E-2,1.2303064E0,-1.422704E-1,-1.4041123E-1,1.4161279E0,1.4230727E-1,-1.0079439E-1],"categories":[],"categories_nodes":[],"categories_segments":[],"categories_sizes":[],"default_left":[0,0,0,0,0,0,0],"id":5,"left_children":[1,3,-1,-1,5,-1,-1],"loss_changes":[2.6001863E3,4.132671E2,0E0,0E0,1.4654053E1,0E0,0E0],"parents":[2147483647,0,0,1,1,4,4],"right_children":[2,4,-1,-1,6,-1,-1],"split_conditions":[4.948276E0,4E0,-1.422704E-1,-1.4041123E-1,3E2,1.4230727E-1,-1.0079439E-1],"split_indices":[142,133,0,0,30,0,0],"split_type":[0,0,0,0,0,0,0],"sum_hessian":[1.4975011E3,8.3914685E2,6.5835425E2,5.4858204E1,7.8428864E2,7.8245996E2,1.828705E0],"tree_param":{"num_deleted":"0","num_feature":"156","num_nodes":"7","size_leaf_vector":"1"}},{"base_weights":[1.2753396E-2,-1.3666207E-1,1.3393415E0,-1.0875273E-1,1.3531821E0,1.3634503E-1,-1.02660954E-1],"categories":[],"categories_nodes":[],"categories_segments":[],"categories_sizes":[],"default_left":[0,0,0,0,0,0,0],"id":6,"left_children":[1,-1,3,-1,5,-1,-1],"loss_changes":[2.4800396E3,0E0,2.467749E1,0E0,1.8197266E1,0E0,0E0],"parents":[2147483647,0,0,2,2,4,4],"right_children":[2,-1,4,-1,6,-1,-1],"split_conditions":[1.31448765E1,-1.3666207E-1,4E0,-1.0875273E-1,4.7E0,1.3634503E-1,-1.02660954E-1],"split_indices":[135,0,133,0,32,0,0],"split_type":[0,0,0,0,0,0,0],"sum_hessian":[1.3533154E3,6.634432E2,6.8987225E2,3.4721384E0,6.864001E2,6.838764E2,2.5237112E0],"tree_param":{"num_deleted":"0","num_feature":"156","num_nodes":"7","size_leaf_vector":"1"}},{"base_weights":[1.1694598E-2,-1.319459E-1,1.2913078E0,1.3065364E0,-1.1390989E-1,-1.028825E-1,1.3194947E-1],"categories":[],"categories_nodes":[],"categories_segments":[],"categories_sizes":[],"default_left":[0,0,0,0,0,0,0],"id":7,"left_children":[1,-1,3,5,-1,-1,-1],"loss_changes":[2.1611426E3,0E0,2.5430908E1,2.0826416E1,0E0,0E0,0E0],"parents":[2147483647,0,0,2,2,3,3],"right_children":[2,-1,4,6,-1,-1,-1],"split_conditions":[1.31448765E1,-1.319459E-1,3E2,4.7715735E-1,-1.1390989E-1,-1.028825E-1,1.3194947E-1],"split_indices":[135,0,30,143,0,0,0],"split_type":[0,0,0,0,0,0,0],"sum_hessian":[1.2667513E3,6.208567E2,6.4589465E2,6.4233234E2,3.562356E0,3.1118844E0,6.3922046E2],"tree_param":{"num_deleted":"0","num_feature":"156","num_nodes":"7","size_leaf_vector":"1"}},{"base_weights":[5.3248208E-2,-1.2796448E-1,1.2553633E0,1.2686167E0,-1.07692495E-1,-9.7335674E-2,1.279814E-1],"categories":[],"categories_nodes":[],"categories_segments":[],"categories_sizes":[],"default_left":[0,0,0,0,0,0,0],"id":8,"left_children":[1,-1,3,5,-1,-1,-1],"loss_changes":[1.9755894E3,0E0,2.1404724E1,1.7439331E1,0E0,0E0,0E0],"parents":[2147483647,0,0,2,2,3,3],"right_children":[2,-1,4,6,-1,-1,-1],"split_conditions":[1.31448765E1,-1.2796448E-1,3E2,4E0,-1.07692495E-1,-9.7335674E-2,1.279814E-1],"split_indices":[135,0,30,133,0,0,0],"split_type":[0,0,0,0,0,0,0],"sum_hessian":[1.2309753E3,5.8370483E2,6.472705E2,6.4406665E2,3.2039034E0,2.7736652E0,6.4129297E2],"tree_param":{"num_deleted":"0","num_feature":"156","num_nodes":"7","size_leaf_vector":"1"}},{"base_weights":[-3.3739507E-2,-1.2456454E-1,1.2153101E0,1.2307664E0,-1.0368311E-1,-9.6954405E-2,1.24551475E-1],"categories":[],"categories_nodes":[],"categories_segments":[],"categories_sizes":[],"default_left":[0,0,0,0,0,0,0],"id":9,"left_children":[1,-1,3,5,-1,-1,-1],"loss_changes":[1.5900562E3,0E0,1.9283203E1,1.7894775E1,0E0,0E0,0E0],"parents":[2147483647,0,0,2,2,3,3],"right_children":[2,-1,4,6,-1,-1,-1],"split_conditions":[1.31448765E1,-1.2456454E-1,3E2,4E0,-1.0368311E-1,-9.6954405E-2,1.24551475E-1],"split_indices":[135,0,30,133,0,0,0],"split_type":[0,0,0,0,0,0,0],"sum_hessian":[1.0484221E3,5.3212445E2,5.1629767E2,5.132289E2,3.0687609E0,2.9861321E0,5.1024274E2],"tree_param":{"num_deleted":"0","num_feature":"156","num_nodes":"7","size_leaf_vector":"1"}},{"base_weights":[1.3073331E-2,-1.2164831E-1,1.1885228E0,1.2037069E0,-1.01056054E-1,-9.2114806E-2,1.21654026E-1],"categories":[],"categories_nodes":[],"categories_segments":[],"categories_sizes":[],"default_left":[0,0,0,0,0,0,0],"id":10,"left_children":[1,-1,3,5,-1,-1,-1],"loss_changes":[1.4652854E3,0E0,1.852356E1,1.5170166E1,0E0,0E0,0E0],"parents":[2147483647,0,0,2,2,3,3],"right_children":[2,-1,4,6,-1,-1,-1],"split_conditions":[1.31448765E1,-1.2164831E-1,3E2,4E0,-1.01056054E-1,-9.2114806E-2,1.21654026E-1],"split_indices":[135,0,30,133,0,0,0],"split_type":[0,0,0,0,0,0,0],"sum_hessian":[1.0118405E3,4.945212E2,5.1731934E2,5.1422144E2,3.0979087E0,2.6621513E0,5.1155927E2],"tree_param":{"num_deleted":"0","num_feature":"156","num_nodes":"7","size_leaf_vector":"1"}},{"base_weights":[5.8527784E-3,-1.19128846E-1,1.1671088E0,1.1792246E0,-8.991816E-2,-8.7367445E-2,1.1913194E-1],"categories":[],"categories_nodes":[],"categories_segments":[],"categories_sizes":[],"default_left":[0,0,0,0,0,0,0],"id":11,"left_children":[1,-1,3,5,-1,-1,-1],"loss_changes":[1.3088507E3,0E0,1.3024719E1,1.284845E1,0E0,0E0,0E0],"parents":[2147483647,0,0,2,2,3,3],"right_children":[2,-1,4,6,-1,-1,-1],"split_conditions":[1.31448765E1,-1.19128846E-1,3E2,4E0,-8.991816E-2,-8.7367445E-2,1.1913194E-1],"split_indices":[135,0,30,133,0,0,0],"split_type":[0,0,0,0,0,0,0],"sum_hessian":[9.394922E2,4.6258572E2,4.7690646E2,4.745532E2,2.353276E0,2.3622403E0,4.7219095E2],"tree_param":{"num_deleted":"0","num_feature":"156","num_nodes":"7","size_leaf_vector":"1"}},{"base_weights":[1.9238787E-3,-1.1693604E-1,1.1409801E0,1.1555448E0,-9.289257E-2,-8.772218E-2,1.1693831E-1],"categories":[],"categories_nodes":[],"categories_segments":[],"categories_sizes":[],"default_left":[0,0,0,0,0,0,0],"id":12,"left_children":[1,-1,3,5,-1,-1,-1],"loss_changes":[1.1606653E3,0E0,1.4369873E1,1.3358398E1,0E0,0E0,0E0],"parents":[2147483647,0,0,2,2,3,3],"right_children":[2,-1,4,6,-1,-1,-1],"split_conditions":[1.31448765E1,-1.1693604E-1,3E2,4E0,-9.289257E-2,-8.772218E-2,1.1693831E-1],"split_indices":[135,0,30,133,0,0,0],"split_type":[0,0,0,0,0,0,0],"sum_hessian":[8.679603E2,4.2791324E2,4.400471E2,4.3741104E2,2.636038E0,2.535737E0,4.348753E2],"tree_param":{"num_deleted":"0","num_feature":"156","num_nodes":"7","size_leaf_vector":"1"}},{"base_weights":[5.2620366E-2,-1.1501368E-1,1.1256341E0,-8.1760034E-2,1.1369843E0,1.1480581E-1,-8.14658E-2],"categories":[],"categories_nodes":[],"categories_segments":[],"categories_sizes":[],"default_left":[0,0,0,0,0,0,0],"id":13,"left_children":[1,-1,3,-1,5,-1,-1],"loss_changes":[1.064808E3,0E0,1.0546692E1,0E0,1.0312866E1,0E0,0E0],"parents":[2147483647,0,0,2,2,4,4],"right_children":[2,-1,4,-1,6,-1,-1],"split_conditions":[1.31448765E1,-1.1501368E-1,4E0,-8.1760034E-2,4.7E0,1.1480581E-1,-8.14658E-2],"split_indices":[135,0,133,0,32,0,0],"split_type":[0,0,0,0,0,0,0],"sum_hessian":[8.2306165E2,3.8803528E2,4.350264E2,2.1137009E0,4.329127E2,4.3087964E2,2.0330672E0],"tree_param":{"num_deleted":"0","num_feature":"156","num_nodes":"7","size_leaf_vector":"1"}},{"base_weights":[5.0522685E-2,-1.1332909E-1,1.1111726E0,1.1227143E0,-8.256915E-2,-7.73903E-2,1.1336094E-1],"categories":[],"categories_nodes":[],"categories_segments":[],"categories_sizes":[],"default_left":[0,0,0,0,0,0,0],"id":14,"left_children":[1,-1,3,5,-1,-1,-1],"loss_changes":[9.520483E2,0E0,9.866547E0,9.100586E0,0E0,0E0,0E0],"parents":[2147483647,0,0,2,2,3,3],"right_children":[2,-1,4,6,-1,-1,-1],"split_conditions":[1.31448765E1,-1.1332909E-1,3E2,1.1E1,-8.256915E-2,-7.73903E-2,1.1336094E-1],"split_indices":[135,0,30,134,0,0,0],"split_type":[0,0,0,0,0,0,0],"sum_hessian":[7.562317E2,3.573346E2,3.988971E2,3.9695203E2,1.945069E0,1.8672909E0,3.9508475E2],"tree_param":{"num_deleted":"0","num_feature":"156","num_nodes":"7","size_leaf_vector":"1"}},{"base_weights":[-8.312535E-2,-1.1184045E-1,1.0820886E0,1.1027874E0,-8.881994E-2,-7.69025E-2,1.1179216E-1],"categories":[],"categories_nodes":[],"categories_segments":[],"categories_sizes":[],"default_left":[0,0,0,0,0,0,0],"id":15,"left_children":[1,-1,3,5,-1,-1,-1],"loss_changes":[7.432076E2,0E0,1.2802124E1,8.999176E0,0E0,0E0,0E0],"parents":[2147483647,0,0,2,2,3,3],"right_children":[2,-1,4,6,-1,-1,-1],"split_conditions":[1.31448765E1,-1.1184045E-1,3E2,4E0,-8.881994E-2,-7.69025E-2,1.1179216E-1],"split_indices":[135,0,30,133,0,0,0],"split_type":[0,0,0,0,0,0,0],"sum_hessian":[6.1409076E2,3.2519708E2,2.8889368E2,2.86326E2,2.567708E0,1.8969418E0,2.8442905E2],"tree_param":{"num_deleted":"0","num_feature":"156","num_nodes":"7","size_leaf_vector":"1"}},{"base_weights":[-8.4197246E-2,-1.1055175E-1,1.0827904E0,-7.6297745E-2,1.0991999E-1],"categories":[],"categories_nodes":[],"categories_segments":[],"categories_sizes":[],"default_left":[0,0,0,0,0],"id":16,"left_children":[1,-1,3,-1,-1],"loss_changes":[6.735606E2,0E0,8.828461E0,0E0,0E0],"parents":[2147483647,0,0,2,2],"right_children":[2,-1,4,-1,-1],"split_conditions":[1.4334471E1,-1.1055175E-1,1.1E1,-7.6297745E-2,1.0991999E-1],"split_indices":[135,0,134,0,0],"split_type":[0,0,0,0,0],"sum_hessian":[5.6312585E2,3.0033362E2,2.6279227E2,1.9148226E0,2.6087744E2],"tree_param":{"num_deleted":"0","num_feature":"156","num_nodes":"5","size_leaf_vector":"1"}},{"base_weights":[1.7894967E-2,9.31595E-1,-1.0932654E-1,-1.0534983E-1,1.083034E0,1.0959613E-1,-7.7081166E-2],"categories":[],"categories_nodes":[],"categories_segments":[],"categories_sizes":[],"default_left":[0,0,0,0,0,0,0],"id":17,"left_children":[1,3,-1,-1,5,-1,-1],"loss_changes":[5.727097E2,9.419592E1,0E0,0E0,7.7490845E0,0E0,0E0],"parents":[2147483647,0,0,1,1,4,4],"right_children":[2,4,-1,-1,6,-1,-1],"split_conditions":[4.948276E0,4E0,-1.0932654E-1,-1.0534983E-1,3E2,1.0959613E-1,-7.7081166E-2],"split_indices":[142,133,0,0,30,0,0],"split_type":[0,0,0,0,0,0,0],"sum_hessian":[5.6209424E2,3.0854294E2,2.5355127E2,2.1447546E1,2.870954E2,2.8551324E2,1.5821375E0],"tree_param":{"num_deleted":"0","num_feature":"156","num_nodes":"7","size_leaf_vector":"1"}},{"base_weights":[6.1203595E-2,-1.0830851E-1,1.0555841E0,1.0715344E0,-8.066608E-2,-7.2552234E-2,1.08544014E-1],"categories":[],"categories_nodes":[],"categories_segments":[],"categories_sizes":[],"default_left":[0,0,0,0,0,0,0],"id":18,"left_children":[1,-1,3,5,-1,-1,-1],"loss_changes":[6.067753E2,0E0,9.338379E0,7.866974E0,0E0,0E0,0E0],"parents":[2147483647,0,0,2,2,3,3],"right_children":[2,-1,4,6,-1,-1,-1],"split_conditions":[1.31448765E1,-1.0830851E-1,3E2,4E0,-8.066608E-2,-7.2552234E-2,1.08544014E-1],"split_indices":[135,0,30,133,0,0,0],"split_type":[0,0,0,0,0,0,0],"sum_hessian":[5.3125616E2,2.4696762E2,2.8428854E2,2.8229526E2,1.9932891E0,1.7747133E0,2.8052054E2],"tree_param":{"num_deleted":"0","num_feature":"156","num_nodes":"7","size_leaf_vector":"1"}},{"base_weights":[-1.3118593E-1,-1.07406214E-1,1.045702E0,-6.720116E-2,1.0633991E-1],"categories":[],"categories_nodes":[],"categories_segments":[],"categories_sizes":[],"default_left":[0,0,0,0,0],"id":19,"left_children":[1,-1,3,-1,-1],"loss_changes":[4.5738333E2,0E0,6.2895813E0,0E0,0E0],"parents":[2147483647,0,0,2,2],"right_children":[2,-1,4,-1,-1],"split_conditions":[1.4334471E1,-1.07406214E-1,4E0,-6.720116E-2,1.0633991E-1],"split_indices":[135,0,133,0,0],"split_type":[0,0,0,0,0],"sum_hessian":[4.1017133E2,2.2777464E2,1.8239668E2,1.4829735E0,1.8091371E2],"tree_param":{"num_deleted":"0","num_feature":"156","num_nodes":"5","size_leaf_vector":"1"}},{"base_weights":[6.3178994E-2,-1.0653895E-1,1.0417618E0,1.0526961E0,-6.1467614E-2,-6.1209835E-2,1.0637101E-1],"categories":[],"categories_nodes":[],"categories_segments":[],"categories_sizes":[],"default_left":[0,0,0,0,0,0,0],"id":20,"left_children":[1,-1,3,5,-1,-1,-1],"loss_changes":[4.9797253E2,0E0,5.0204773E0,5.0563354E0,0E0,0E0,0E0],"parents":[2147483647,0,0,2,2,3,3],"right_children":[2,-1,4,6,-1,-1,-1],"split_conditions":[1.31448765E1,-1.0653895E-1,4.7E0,4E0,-6.1467614E-2,-6.1209835E-2,1.0637101E-1],"split_indices":[135,0,32,133,0,0,0],"split_type":[0,0,0,0,0,0,0],"sum_hessian":[4.488947E2,2.0843015E2,2.4046458E2,2.3924974E2,1.2148393E0,1.2137513E0,2.38036E2],"tree_param":{"num_deleted":"0","num_feature":"156","num_nodes":"7","size_leaf_vector":"1"}}]},"name":"gbtree"},"learner_model_param":{"base_score":"[5E-1]","boost_from_average":"1","num_class":"0","num_feature":"156","num_target":"1"},"objective":{"name":"binary:logistic","reg_loss_param":{"scale_pos_weight":"267.066681"}}},"version":[3,2,0]}