{"learner":{"attributes":{"best_iteration":"0","best_score":"1.0"},"feature_names":["dns__query_count","dns__query_rate_per_minute","dns__avg_query_length","dns__max_query_length","dns__avg_entropy","dns__max_entropy","dns__avg_subdomain_depth","dns__max_label_length","dns__avg_label_length","dns__label_entropy_max","dns__unique_subdomain_ratio","dns__base64_pattern_count","dns__hex_pattern_count","dns__numeric_ratio","dns__subdomain_has_numbers_ratio","dns__unique_base_domains","dns__top_domain_query_ratio","dns__max_unique_subdomains_per_domain","dns__txt_record_ratio","dns__null_record_ratio","dns__mx_record_ratio","dns__cname_record_ratio","dns__any_record_ratio","dns__tunneling_type_ratio","dns__record_type_count","dns__avg_response_size","dns__max_response_size","dns__response_variance","dns__nxdomain_ratio","dns__fast_flux_ratio","dns__min_ttl","dns__ttl_variance","dns__inter_query_interval_mean","dns__inter_query_interval_cv","dns__unique_process_count","dns__non_browser_dns_ratio","dns__non_standard_dns_ratio","dns__nx_subdomains_per_top_domain","dns__nx_top_domain_query_ratio","dns__consonant_run_max","dns__digit_letter_run_max","dns__vowel_ratio_min","auth__total_auth_events","auth__successful_logon_count","auth__failed_logon_count","auth__failed_logon_ratio","auth__network_logon_count","auth__interactive_logon_count","auth__remote_interactive_logon_count","auth__service_logon_count","auth__cleartext_logon_count","auth__network_logon_ratio","auth__explicit_credential_count","auth__ntlm_count","auth__kerberos_tgt_count","auth__kerberos_tgs_count","auth__special_logon_count","auth__unique_privileged_users","auth__unique_users","auth__unique_target_hosts","auth__unique_source_ips","auth__lateral_velocity_per_min","auth__max_hosts_per_user","auth__max_failures_per_user","auth__unique_failed_users","auth__max_users_per_source","auth__account_created_count","auth__account_enabled_count","auth__password_reset_count","auth__account_disabled_count","auth__account_deleted_count","auth__account_changed_count","auth__success_after_failures","auth__time_to_first_success_secs","auth__offhours_logon_count","auth__offhours_interactive_count","auth__psexec_invocations","auth__wmic_invocations","auth__winrm_invocations","auth__schtasks_invocations","auth__powershell_encoded_count","auth__lsass_access_count","process__total_process_events","process__credential_tool_count","process__lsass_access_count","process__image_load_count","process__remote_thread_count","process__process_tamper_count","process__psexec_count","process__wmic_count","process__mshta_count","process__rundll32_count","process__regsvr32_count","process__certutil_count","process__bitsadmin_count","process__schtasks_count","process__esentutl_count","process__total_lolbin_count","process__powershell_count","process__encoded_command_count","process__download_command_count","process__amsi_bypass_count","process__office_to_shell_count","process__browser_to_shell_count","process__pipe_event_count","process__pipe_attack_count","process__archive_drop_count","process__user_exe_drop_count","process__file_create_count","process__unique_image_count","process__unique_parent_count","network__total_connections","network__connections_per_minute","network__total_lateral_count","network__smb_count","network__rdp_count","network__winrm_count","network__wmi_count","network__ssh_count","network__netbios_count","network__telnet_count","network__unique_dest_ips","network__unique_dest_ports","network__unique_source_processes","network__internal_connection_count","network__external_connection_count","network__internal_to_external_ratio","network__shell_initiated_count","network__lolbin_initiated_count","network__shell_lateral_count","network__total_bytes_sent","network__total_bytes_received","network__max_bytes_per_connection","temporal__total_event_count","temporal__window_duration_seconds","temporal__events_per_minute","temporal__burst_factor","temporal__per_minute_stdev","temporal__active_minute_count","temporal__off_hours_ratio","temporal__night_hours_ratio","temporal__weekend_ratio","temporal__inter_event_interval_mean","temporal__inter_event_interval_cv","temporal__inter_event_interval_min","temporal__inter_event_interval_max","behavioral__pth_chain_count","behavioral__bruteforce_success_count","behavioral__auth_then_network_count","behavioral__auth_then_process_count","behavioral__priv_escalation_chain","behavioral__unique_users_overall","behavioral__unique_hosts_overall","behavioral__unique_processes_overall","behavioral__host_user_pair_count","behavioral__entity_diversity_score"],"feature_types":[],"gradient_booster":{"model":{"cats":{"enc":[],"feature_segments":[],"sorted_idx":[]},"gbtree_model_param":{"num_parallel_tree":"1","num_trees":"21"},"iteration_indptr":[0,1,2,3,4,5,6,7,8,9,10,11,12,13,14,15,16,17,18,19,20,21],"tree_info":[0,0,0,0,0,0,0,0,0,0,0,0,0,0,0,0,0,0,0,0,0],"trees":[{"base_weights":[4.9795983E-3,-1.9976304E-1,1.9789777E0,-1.5E-1,1.992968E0,1.9976532E-1,-1E-1],"categories":[],"categories_nodes":[],"categories_segments":[],"categories_sizes":[],"default_left":[0,0,0,0,0,0,0],"id":0,"left_children":[1,-1,3,-1,5,-1,-1],"loss_changes":[6.721264E3,0E0,4.466382E1,0E0,1.3962402E1,0E0,0E0],"parents":[2147483647,0,0,2,2,4,4],"right_children":[2,-1,4,-1,6,-1,-1],"split_conditions":[1.3978495E1,-1.9976304E-1,1E1,-1.5E-1,3E2,1.9976532E-1,-1E-1],"split_indices":[135,0,134,0,30,0,0],"split_type":[0,0,0,0,0,0,0],"sum_hessian":[1.6982307E3,8.43E2,8.552307E2,3E0,8.522307E2,8.512307E2,1E0],"tree_param":{"num_deleted":"0","num_feature":"156","num_nodes":"7","size_leaf_vector":"1"}},{"base_weights":[-7.2065373E-3,1.5451403E0,-1.8169363E-1,-1.7947648E-1,1.8157014E-1],"categories":[],"categories_nodes":[],"categories_segments":[],"categories_sizes":[],"default_left":[0,0,0,0,0],"id":1,"left_children":[1,3,-1,-1,-1],"loss_changes":[4.7591846E3,8.2727686E2,0E0,0E0,0E0],"parents":[2147483647,0,0,1,1],"right_children":[2,4,-1,-1,-1],"split_conditions":[4.6666665E0,3.4077436E-2,-1.8169363E-1,-1.7947648E-1,1.8157014E-1],"split_indices":[142,143,0,0,0],"split_type":[0,0,0,0,0],"sum_hessian":[1.6920657E3,9.1087933E2,7.811863E2,6.783729E1,8.4304205E2],"tree_param":{"num_deleted":"0","num_feature":"156","num_nodes":"5","size_leaf_vector":"1"}},{"base_weights":[-1.5557203E-3,1.4301971E0,-1.6809344E-1,-1.6611879E-1,1.6809015E-1],"categories":[],"categories_nodes":[],"categories_segments":[],"categories_sizes":[],"default_left":[0,0,0,0,0],"id":2,"left_children":[1,3,-1,-1,-1],"loss_changes":[3.956131E3,6.9112695E2,0E0,0E0,0E0],"parents":[2147483647,0,0,1,1],"right_children":[2,4,-1,-1,-1],"split_conditions":[4.6666665E0,3E0,-1.6809344E-1,-1.6611879E-1,1.6809015E-1],"split_indices":[142,133,0,0,0],"split_type":[0,0,0,0,0],"sum_hessian":[1.643334E3,8.871465E2,7.5618756E2,6.61266E1,8.2101984E2],"tree_param":{"num_deleted":"0","num_feature":"156","num_nodes":"5","size_leaf_vector":"1"}},{"base_weights":[-1.6432016E-1,-1.575974E-1,1.5748452E-1],"categories":[],"categories_nodes":[],"categories_segments":[],"categories_sizes":[],"default_left":[0,0,0],"id":3,"left_children":[1,-1,-1],"loss_changes":[3.5475635E3,0E0,0E0],"parents":[2147483647,0,0],"right_children":[2,-1,-1],"split_conditions":[9.899495E0,-1.575974E-1,1.5748452E-1],"split_indices":[137,0,0],"split_type":[0,0,0],"sum_hessian":[1.4429669E3,7.965297E2,6.4643713E2],"tree_param":{"num_deleted":"0","num_feature":"156","num_nodes":"3","size_leaf_vector":"1"}},{"base_weights":[9.32638E-2,1.3181293E0,-1.4911316E-1,-1.4723797E-1,1.5229255E0,1.6646464E-1,1.4897186E-1],"categories":[],"categories_nodes":[],"categories_segments":[],"categories_sizes":[],"default_left":[0,0,0,0,0,0,0],"id":4,"left_children":[1,3,-1,-1,5,-1,-1],"loss_changes":[3.0820771E3,5.1409937E2,0E0,0E0,1.449585E0,0E0,0E0],"parents":[2147483647,0,0,1,1,4,4],"right_children":[2,4,-1,-1,6,-1,-1],"split_conditions":[4.6666665E0,3.4077436E-2,-1.4911316E-1,-1.4723797E-1,5.7E1,1.6646464E-1,1.4897186E-1],"split_indices":[142,143,0,0,134,0,0],"split_type":[0,0,0,0,0,0,0],"sum_hessian":[1.5861373E3,8.946605E2,6.9147675E2,6.074691E1,8.3391364E2,1.4897758E2,6.8493604E2],"tree_param":{"num_deleted":"0","num_feature":"156","num_nodes":"7","size_leaf_vector":"1"}},{"base_weights":[2.2161035E-2,1.2497863E0,-1.4227217E-1,-1.4027467E-1,1.4507359E0,1.5612905E-1,1.4209466E-1],"categories":[],"categories_nodes":[],"categories_segments":[],"categories_sizes":[],"default_left":[0,0,0,0,0,0,0],"id":5,"left_children":[1,3,-1,-1,5,-1,-1],"loss_changes":[2.5661768E3,4.189469E2,0E0,0E0,1.776123E-1,0E0,0E0],"parents":[2147483647,0,0,1,1,4,4],"right_children":[2,4,-1,-1,6,-1,-1],"split_conditions":[4.6666665E0,3E0,-1.4227217E-1,-1.4027467E-1,1.6E1,1.5612905E-1,1.4209466E-1],"split_indices":[142,133,0,0,133,0,0],"split_type":[0,0,0,0,0,0,0],"sum_hessian":[1.4447297E3,7.8116144E2,6.635683E2,5.4590233E1,7.265712E2,1.4330911E2,5.832621E2],"tree_param":{"num_deleted":"0","num_feature":"156","num_nodes":"7","size_leaf_vector":"1"}},{"base_weights":[8.1960425E-2,-1.3669491E-1,1.3720928E0,-1.10933736E-1,1.3858205E-1],"categories":[],"categories_nodes":[],"categories_segments":[],"categories_sizes":[],"default_left":[0,0,0,0,0],"id":6,"left_children":[1,-1,3,-1,-1],"loss_changes":[2.6548462E3,0E0,2.712854E1,0E0,0E0],"parents":[2147483647,0,0,2,2],"right_children":[2,-1,4,-1,-1],"split_conditions":[1.3978495E1,-1.3669491E-1,4E0,-1.10933736E-1,1.3858205E-1],"split_indices":[135,0,133,0,0],"split_type":[0,0,0,0,0],"sum_hessian":[1.4182434E3,6.679872E2,7.502562E2,3.6886277E0,7.4656757E2],"tree_param":{"num_deleted":"0","num_feature":"156","num_nodes":"5","size_leaf_vector":"1"}},{"base_weights":[7.775208E-2,-1.3197689E-1,1.323764E0,-1.0225437E-1,1.3350525E-1],"categories":[],"categories_nodes":[],"categories_segments":[],"categories_sizes":[],"default_left":[0,0,0,0,0],"id":7,"left_children":[1,-1,3,-1,-1],"loss_changes":[2.3184539E3,0E0,2.0007202E1,0E0,0E0],"parents":[2147483647,0,0,2,2],"right_children":[2,-1,4,-1,-1],"split_conditions":[1.3978495E1,-1.3197689E-1,3E0,-1.0225437E-1,1.3350525E-1],"split_indices":[135,0,153,0,0],"split_type":[0,0,0,0,0],"sum_hessian":[1.3294255E3,6.2658813E2,7.028374E2,2.9363222E0,6.9990106E2],"tree_param":{"num_deleted":"0","num_feature":"156","num_nodes":"5","size_leaf_vector":"1"}},{"base_weights":[-5.7891827E-2,-1.2799208E-1,1.2702924E0,-1.00348964E-1,1.2853338E-1],"categories":[],"categories_nodes":[],"categories_segments":[],"categories_sizes":[],"default_left":[0,0,0,0,0],"id":8,"left_children":[1,-1,3,-1,-1],"loss_changes":[1.8388842E3,0E0,1.9858276E1,0E0,0E0],"parents":[2147483647,0,0,2,2],"right_children":[2,-1,4,-1,-1],"split_conditions":[1.3978495E1,-1.2799208E-1,4E0,-1.00348964E-1,1.2853338E-1],"split_indices":[135,0,133,0,0],"split_type":[0,0,0,0,0],"sum_hessian":[1.1309583E3,5.8903674E2,5.419216E2,3.1294718E0,5.3879205E2],"tree_param":{"num_deleted":"0","num_feature":"156","num_nodes":"5","size_leaf_vector":"1"}},{"base_weights":[-1.0901482E-1,-1.24591075E-1,1.2341946E0,-9.618224E-2,1.250036E-1],"categories":[],"categories_nodes":[],"categories_segments":[],"categories_sizes":[],"default_left":[0,0,0,0,0],"id":9,"left_children":[1,-1,3,-1,-1],"loss_changes":[1.5168667E3,0E0,1.7043945E1,0E0,0E0],"parents":[2147483647,0,0,2,2],"right_children":[2,-1,4,-1,-1],"split_conditions":[1.3978495E1,-1.24591075E-1,4E0,-9.618224E-2,1.250036E-1],"split_indices":[135,0,133,0,0],"split_type":[0,0,0,0,0],"sum_hessian":[9.912988E2,5.369204E2,4.543784E2,2.8265824E0,4.5155182E2],"tree_param":{"num_deleted":"0","num_feature":"156","num_nodes":"5","size_leaf_vector":"1"}},{"base_weights":[-4.668136E-2,-1.21673875E-1,1.2073509E0,-8.7732375E-2,1.2190565E-1],"categories":[],"categories_nodes":[],"categories_segments":[],"categories_sizes":[],"default_left":[0,0,0,0,0],"id":10,"left_children":[1,-1,3,-1,-1],"loss_changes":[1.4198E3,0E0,1.2467346E1,0E0,0E0],"parents":[2147483647,0,0,2,2],"right_children":[2,-1,4,-1,-1],"split_conditions":[1.3978495E1,-1.21673875E-1,4E0,-8.7732375E-2,1.2190565E-1],"split_indices":[135,0,133,0,0],"split_type":[0,0,0,0,0],"sum_hessian":[9.6563336E2,4.9955774E2,4.6607565E2,2.189552E0,4.638861E2],"tree_param":{"num_deleted":"0","num_feature":"156","num_nodes":"5","size_leaf_vector":"1"}},{"base_weights":[2.4961256E-3,-1.19151615E-1,1.1786063E0,-8.83153E-2,1.1909244E-1],"categories":[],"categories_nodes":[],"categories_segments":[],"categories_sizes":[],"default_left":[0,0,0,0,0],"id":11,"left_children":[1,-1,3,-1,-1],"loss_changes":[1.3219872E3,0E0,1.30963745E1,0E0,0E0],"parents":[2147483647,0,0,2,2],"right_children":[2,-1,4,-1,-1],"split_conditions":[1.3978495E1,-1.19151615E-1,4E0,-8.83153E-2,1.1909244E-1],"split_indices":[135,0,133,0,0],"split_type":[0,0,0,0,0],"sum_hessian":[9.3939197E2,4.6614175E2,4.7325018E2,2.3908176E0,4.7085938E2],"tree_param":{"num_deleted":"0","num_feature":"156","num_nodes":"5","size_leaf_vector":"1"}},{"base_weights":[6.169722E-2,-1.1695784E-1,1.1630795E0,-8.2795136E-2,1.1734159E-1],"categories":[],"categories_nodes":[],"categories_segments":[],"categories_sizes":[],"default_left":[0,0,0,0,0],"id":12,"left_children":[1,-1,3,-1,-1],"loss_changes":[1.2433972E3,0E0,1.0931213E1,0E0,0E0],"parents":[2147483647,0,0,2,2],"right_children":[2,-1,4,-1,-1],"split_conditions":[1.3978495E1,-1.1695784E-1,4E0,-8.2795136E-2,1.1734159E-1],"split_indices":[135,0,133,0,0],"split_type":[0,0,0,0,0],"sum_hessian":[9.1488544E2,4.3194095E2,4.829445E2,2.0857258E0,4.8085876E2],"tree_param":{"num_deleted":"0","num_feature":"156","num_nodes":"5","size_leaf_vector":"1"}},{"base_weights":[6.894498E-2,-1.15011394E-1,1.1402434E0,-8.43502E-2,1.1523731E-1],"categories":[],"categories_nodes":[],"categories_segments":[],"categories_sizes":[],"default_left":[0,0,0,0,0],"id":13,"left_children":[1,-1,3,-1,-1],"loss_changes":[1.0942627E3,0E0,1.1702209E1,0E0,0E0],"parents":[2147483647,0,0,2,2],"right_children":[2,-1,4,-1,-1],"split_conditions":[1.3978495E1,-1.15011394E-1,4E0,-8.43502E-2,1.1523731E-1],"split_indices":[135,0,133,0,0],"split_type":[0,0,0,0,0],"sum_hessian":[8.358847E2,3.9094473E2,4.4493997E2,2.2875E0,4.4265247E2],"tree_param":{"num_deleted":"0","num_feature":"156","num_nodes":"5","size_leaf_vector":"1"}},{"base_weights":[1.85776E-2,-1.1334943E-1,1.1210248E0,1.131654E0,-1.0806216E-1,-7.4625954E-2,1.1422061E-1],"categories":[],"categories_nodes":[],"categories_segments":[],"categories_sizes":[],"default_left":[0,0,0,0,0,0,0],"id":14,"left_children":[1,-1,3,5,-1,-1,-1],"loss_changes":[9.3767145E2,0E0,1.00512085E1,8.301697E0,0E0,0E0,0E0],"parents":[2147483647,0,0,2,2,3,3],"right_children":[2,-1,4,6,-1,-1,-1],"split_conditions":[1.3978495E1,-1.1334943E-1,4.6666665E0,1E1,-1.0806216E-1,-7.4625954E-2,1.1422061E-1],"split_indices":[135,0,142,134,0,0,0],"split_type":[0,0,0,0,0,0,0],"sum_hessian":[7.362663E2,3.6001633E2,3.7624997E2,3.7492587E2,1.3240894E0,1.7053709E0,3.732205E2],"tree_param":{"num_deleted":"0","num_feature":"156","num_nodes":"7","size_leaf_vector":"1"}},{"base_weights":[-1.1933319E-1,-1.1215749E-1,1.11690655E-1],"categories":[],"categories_nodes":[],"categories_segments":[],"categories_sizes":[],"default_left":[0,0,0],"id":15,"left_children":[1,-1,-1],"loss_changes":[7.452766E2,0E0,0E0],"parents":[2147483647,0,0],"right_children":[2,-1,-1],"split_conditions":[5.1283526E0,-1.1215749E-1,1.11690655E-1],"split_indices":[137,0,0],"split_type":[0,0,0],"sum_hessian":[5.994982E2,3.311344E2,2.683638E2],"tree_param":{"num_deleted":"0","num_feature":"156","num_nodes":"3","size_leaf_vector":"1"}},{"base_weights":[8.934057E-2,-1.10541336E-1,1.1015351E0,1.111766E0,-9.750305E-2,-6.901796E-2,1.12131834E-1],"categories":[],"categories_nodes":[],"categories_segments":[],"categories_sizes":[],"default_left":[0,0,0,0,0,0,0],"id":16,"left_children":[1,-1,3,5,-1,-1,-1],"loss_changes":[7.9673303E2,0E0,8.6604E0,6.890259E0,0E0,0E0,0E0],"parents":[2147483647,0,0,2,2,3,3],"right_children":[2,-1,4,6,-1,-1,-1],"split_conditions":[1.3978495E1,-1.10541336E-1,4.6666665E0,1E1,-9.750305E-2,-6.901796E-2,1.12131834E-1],"split_indices":[135,0,142,134,0,0,0],"split_type":[0,0,0,0,0,0,0],"sum_hessian":[6.568186E2,3.0120096E2,3.5561765E2,3.5433652E2,1.2811378E0,1.4927664E0,3.5284375E2],"tree_param":{"num_deleted":"0","num_feature":"156","num_nodes":"7","size_leaf_vector":"1"}},{"base_weights":[-1.4587176E-1,8.889417E-1,-1.09529436E-1,-1.0543195E-1,1.100532E-1],"categories":[],"categories_nodes":[],"categories_segments":[],"categories_sizes":[],"default_left":[0,0,0,0,0],"id":17,"left_children":[1,3,-1,-1,-1],"loss_changes":[4.824823E2,9.780908E1,0E0,0E0,0E0],"parents":[2147483647,0,0,1,1],"right_children":[2,4,-1,-1,-1],"split_conditions":[4.6666665E0,3E0,-1.09529436E-1,-1.0543195E-1,1.100532E-1],"split_indices":[142,133,0,0,0],"split_type":[0,0,0,0,0],"sum_hessian":[4.8909747E2,2.3405515E2,2.5504233E2,2.2591366E1,2.1146378E2],"tree_param":{"num_deleted":"0","num_feature":"156","num_nodes":"5","size_leaf_vector":"1"}},{"base_weights":[4.8745614E-2,-1.08329915E-1,1.073888E0,-7.016583E-2,1.0870042E-1],"categories":[],"categories_nodes":[],"categories_segments":[],"categories_sizes":[],"default_left":[0,0,0,0,0],"id":18,"left_children":[1,-1,3,-1,-1],"loss_changes":[6.109861E2,0E0,7.1964417E0,0E0,0E0],"parents":[2147483647,0,0,2,2],"right_children":[2,-1,4,-1,-1],"split_conditions":[1.3978495E1,-1.08329915E-1,4E0,-7.016583E-2,1.0870042E-1],"split_indices":[135,0,133,0,0],"split_type":[0,0,0,0,0],"sum_hessian":[5.2447955E2,2.4921716E2,2.7526242E2,1.6335508E0,2.7362888E2],"tree_param":{"num_deleted":"0","num_feature":"156","num_nodes":"5","size_leaf_vector":"1"}},{"base_weights":[4.7307175E-2,-1.0739584E-1,1.0657752E0,-6.525522E-2,1.0778137E-1],"categories":[],"categories_nodes":[],"categories_segments":[],"categories_sizes":[],"default_left":[0,0,0,0,0],"id":19,"left_children":[1,-1,3,-1,-1],"loss_changes":[5.500064E2,0E0,5.923706E0,0E0,0E0],"parents":[2147483647,0,0,2,2],"right_children":[2,-1,4,-1,-1],"split_conditions":[1.3978495E1,-1.0739584E-1,4E0,-6.525522E-2,1.0778137E-1],"split_indices":[135,0,133,0,0],"split_type":[0,0,0,0,0],"sum_hessian":[4.796259E2,2.2826587E2,2.5136002E2,1.3786141E0,2.4998141E2],"tree_param":{"num_deleted":"0","num_feature":"156","num_nodes":"5","size_leaf_vector":"1"}},{"base_weights":[8.2764596E-2,-1.0655868E-1,1.0521029E0,1.065901E0,-9.665978E-2,-6.0103137E-2,1.07625365E-1],"categories":[],"categories_nodes":[],"categories_segments":[],"categories_sizes":[],"default_left":[0,0,0,0,0,0,0],"id":20,"left_children":[1,-1,3,5,-1,-1,-1],"loss_changes":[5.1305664E2,0E0,7.990906E0,4.9381714E0,0E0,0E0,0E0],"parents":[2147483647,0,0,2,2,3,3],"right_children":[2,-1,4,6,-1,-1,-1],"split_conditions":[1.3978495E1,-1.0655868E-1,4.6666665E0,3E0,-9.665978E-2,-6.0103137E-2,1.07625365E-1],"split_indices":[135,0,142,133,0,0,0],"split_type":[0,0,0,0,0,0,0],"sum_hessian":[4.5890176E2,2.1000943E2,2.4889235E2,2.4767145E2,1.2208877E0,1.1765203E0,2.4649493E2],"tree_param":{"num_deleted":"0","num_feature":"156","num_nodes":"7","size_leaf_vector":"1"}}]},"name":"gbtree"},"learner_model_param":{"base_score":"[5E-1]","boost_from_average":"1","num_class":"0","num_feature":"156","num_target":"1"},"objective":{"name":"binary:logistic","reg_loss_param":{"scale_pos_weight":"309.538452"}}},"version":[3,2,0]}