{"learner":{"attributes":{"best_iteration":"9","best_score":"0.9922199399240216"},"feature_names":["auth__total_auth_events","auth__successful_logon_count","auth__failed_logon_count","auth__failed_logon_ratio","auth__network_logon_count","auth__interactive_logon_count","auth__remote_interactive_logon_count","auth__service_logon_count","auth__cleartext_logon_count","auth__network_logon_ratio","auth__explicit_credential_count","auth__ntlm_count","auth__kerberos_tgt_count","auth__kerberos_tgs_count","auth__special_logon_count","auth__unique_privileged_users","auth__unique_users","auth__unique_target_hosts","auth__unique_source_ips","auth__lateral_velocity_per_min","auth__max_hosts_per_user","auth__max_failures_per_user","auth__unique_failed_users","auth__max_users_per_source","auth__account_created_count","auth__account_enabled_count","auth__password_reset_count","auth__account_disabled_count","auth__account_deleted_count","auth__account_changed_count","auth__success_after_failures","auth__time_to_first_success_secs","auth__offhours_logon_count","auth__offhours_interactive_count","auth__psexec_invocations","auth__wmic_invocations","auth__winrm_invocations","auth__schtasks_invocations","auth__powershell_encoded_count","auth__lsass_access_count","process__total_process_events","process__credential_tool_count","process__lsass_access_count","process__image_load_count","process__remote_thread_count","process__process_tamper_count","process__psexec_count","process__wmic_count","process__mshta_count","process__rundll32_count","process__regsvr32_count","process__certutil_count","process__bitsadmin_count","process__schtasks_count","process__esentutl_count","process__total_lolbin_count","process__powershell_count","process__encoded_command_count","process__download_command_count","process__amsi_bypass_count","process__office_to_shell_count","process__browser_to_shell_count","process__pipe_event_count","process__pipe_attack_count","process__archive_drop_count","process__user_exe_drop_count","process__file_create_count","process__unique_image_count","process__unique_parent_count","network__total_connections","network__connections_per_minute","network__total_lateral_count","network__smb_count","network__rdp_count","network__winrm_count","network__wmi_count","network__ssh_count","network__netbios_count","network__telnet_count","network__unique_dest_ips","network__unique_dest_ports","network__unique_source_processes","network__internal_connection_count","network__external_connection_count","network__internal_to_external_ratio","network__shell_initiated_count","network__lolbin_initiated_count","network__shell_lateral_count","network__total_bytes_sent","network__total_bytes_received","network__max_bytes_per_connection","temporal__total_event_count","temporal__window_duration_seconds","temporal__events_per_minute","temporal__burst_factor","temporal__per_minute_stdev","temporal__active_minute_count","temporal__off_hours_ratio","temporal__night_hours_ratio","temporal__weekend_ratio","temporal__inter_event_interval_mean","temporal__inter_event_interval_cv","temporal__inter_event_interval_min","temporal__inter_event_interval_max","behavioral__pth_chain_count","behavioral__bruteforce_success_count","behavioral__auth_then_network_count","behavioral__auth_then_process_count","behavioral__priv_escalation_chain","behavioral__unique_users_overall","behavioral__unique_hosts_overall","behavioral__unique_processes_overall","behavioral__host_user_pair_count","behavioral__entity_diversity_score"],"feature_types":[],"gradient_booster":{"model":{"cats":{"enc":[],"feature_segments":[],"sorted_idx":[]},"gbtree_model_param":{"num_parallel_tree":"1","num_trees":"30"},"iteration_indptr":[0,1,2,3,4,5,6,7,8,9,10,11,12,13,14,15,16,17,18,19,20,21,22,23,24,25,26,27,28,29,30],"tree_info":[0,0,0,0,0,0,0,0,0,0,0,0,0,0,0,0,0,0,0,0,0,0,0,0,0,0,0,0,0,0],"trees":[{"base_weights":[3.3262655E-2,-1.9621264E0,1.3809673E0,-2.021029E-1,1.9185355E-1,-1.9994421E-1,1.4775132E0,1.1001447E0,1.9770275E-1,-1.4089684E0,1.4377898E0,-1.6853117E0,1.8620999E-1,1.5835686E0,5.5444205E-1,-5.0408166E-2,-2.0088105E-1,1.432861E-1,1.871125E-1,-1.539463E-2,1.1555129E-1],"categories":[],"categories_nodes":[],"categories_segments":[],"categories_sizes":[],"default_left":[0,0,0,0,0,0,0,0,0,0,0,0,0,0,0,0,0,0,0,0,0],"id":0,"left_children":[1,3,5,-1,-1,-1,7,9,-1,11,13,15,-1,17,19,-1,-1,-1,-1,-1,-1],"loss_changes":[2.8984316E4,1.0009375E3,2.1054326E3,0E0,0E0,0E0,1.174834E3,3.0268154E3,0E0,3.8972504E2,4.033379E2,1.4784583E2,0E0,1.1160791E2,1.9140332E2,0E0,0E0,0E0,0E0,0E0,0E0],"parents":[2147483647,0,0,1,1,2,2,6,6,7,7,9,9,10,10,11,11,13,13,14,14],"right_children":[2,4,6,-1,-1,-1,8,10,-1,12,14,16,-1,18,20,-1,-1,-1,-1,-1,-1],"split_conditions":[9.29293E0,1E0,3E0,-1.7525508E-1,2.6619655E-1,1.2735191E-2,1E0,4.6368093E0,2.9349E-1,6E0,2.5581396E0,2.1679482E0,2.35952E-1,2.637584E1,8.6419754E-2,3.941646E-2,-1.704052E-1,1.3887289E-1,2.5966883E-1,9.842087E-2,1.6008025E-1],"split_indices":[93,4,91,0,0,0,4,95,0,111,94,95,0,93,113,0,0,0,0,0,0],"split_type":[0,0,0,0,0,0,0,0,0,0,0,0,0,0,0,0,0,0,0,0,0],"sum_hessian":[1.0774048E4,4.342985E3,6.431063E3,4.2789946E3,6.3990368E1,1.7747903E2,6.253584E3,3.5659885E3,2.6875955E3,4.2219806E2,3.1437905E3,3.9020288E2,3.1995184E1,2.6971025E3,4.466879E2,8.498892E1,3.0521396E2,1.7774902E3,9.1961237E2,2.057226E2,2.4096532E2],"tree_param":{"num_deleted":"0","num_feature":"114","num_nodes":"21","size_leaf_vector":"1"}},{"base_weights":[-1.5716452E-2,-1.7806972E0,1.2377398E0,-1.8341005E-1,1.7522922E-1,-1.8186702E-1,1.3289396E0,1.0033137E0,1.8014699E-1,1.2444209E0,-1.1638659E0,1.6626911E0,8.832579E-1,-1.846975E-1,3.1987965E-1,1.7287824E-1,1.4197652E-1,-1.8241897E-1,9.882131E-2,-1.7436443E-1,8.774188E-2],"categories":[],"categories_nodes":[],"categories_segments":[],"categories_sizes":[],"default_left":[0,0,0,0,0,0,0,0,0,0,0,0,0,0,0,0,0,0,0,0,0],"id":1,"left_children":[1,3,5,-1,-1,-1,7,9,-1,11,13,15,17,-1,19,-1,-1,-1,-1,-1,-1],"loss_changes":[2.2987422E4,8.205293E2,1.6984121E3,0E0,0E0,0E0,9.0433984E2,1.8306755E3,0E0,4.727246E2,3.5718127E2,1.8480225E1,4.849718E2,0E0,1.3241403E2,0E0,0E0,0E0,0E0,0E0,0E0],"parents":[2147483647,0,0,1,1,2,2,6,6,7,7,9,9,10,10,11,11,12,12,14,14],"right_children":[2,4,6,-1,-1,-1,8,10,-1,12,14,16,18,-1,20,-1,-1,-1,-1,-1,-1],"split_conditions":[9.29293E0,1E0,2.8986987E-1,-3.199429E-2,7.3808455E-1,-2.705113E-1,1E0,5.64E0,3.7798876E-1,3.340909E0,1.0198659E0,3.0421052E0,1.2962962E0,-1.998935E-1,1.2E-1,1.7537199E-1,1.9711096E-2,-2.1274948E-1,2.027651E-1,-6.5960184E-2,3.4036896E-1],"split_indices":[93,4,101,0,0,0,4,100,0,100,101,100,94,0,113,0,0,0,0,0,0],"split_type":[0,0,0,0,0,0,0,0,0,0,0,0,0,0,0,0,0,0,0,0,0],"sum_hessian":[1.0386619E4,4.3128677E3,6.073752E3,4.2495938E3,6.3273533E1,1.7488495E2,5.8988667E3,3.4959888E3,2.4028782E3,3.1467517E3,3.4923694E2,1.4547585E3,1.6919933E3,2.3880342E2,1.104335E2,1.1340048E3,3.2075372E2,6.1920372E1,1.6300729E3,2.2585793E1,8.784771E1],"tree_param":{"num_deleted":"0","num_feature":"114","num_nodes":"21","size_leaf_vector":"1"}},{"base_weights":[-3.200633E-2,-1.6447301E0,1.1222187E0,-1.6942267E-1,1.6251265E-1,-1.684711E-1,1.2105309E0,8.6765105E-1,1.6692238E-1,-1.1752746E0,1.1614141E0,-1.4149995E0,1.6314362E-1,8.171319E-1,1.4267423E0,-2.7800476E-2,-1.7094186E-1,-2.0766596E-1,8.942001E-2,1.5669875E-1,1.226632E-1],"categories":[],"categories_nodes":[],"categories_segments":[],"categories_sizes":[],"default_left":[0,0,0,0,0,0,0,0,0,0,0,0,0,0,0,0,0,0,0,0,0],"id":2,"left_children":[1,3,5,-1,-1,-1,7,9,-1,11,13,15,-1,17,19,-1,-1,-1,-1,-1,-1],"loss_changes":[1.8738717E4,6.851494E2,1.4585405E3,0E0,0E0,0E0,8.919531E2,1.9591868E3,0E0,2.8104352E2,2.581184E2,1.2611456E2,0E0,2.81515E2,4.1270752E1,0E0,0E0,0E0,0E0,0E0,0E0],"parents":[2147483647,0,0,1,1,2,2,6,6,7,7,9,9,10,10,11,11,13,13,14,14],"right_children":[2,4,6,-1,-1,-1,8,10,-1,12,14,16,-1,18,20,-1,-1,-1,-1,-1,-1],"split_conditions":[9.29293E0,1E0,1.7E1,2.2549082E-2,9.5797665E-2,-1.20294206E-1,1E0,4.6368093E0,2.0667668E-1,6E0,2.0204082E1,2.1679482E0,3.001846E-1,2.8E2,1.7093859E1,4.8855543E-2,-4.7947922E-1,-1.20417885E-1,1.10674374E-1,1.7289855E-1,1.1694177E-2],"split_indices":[93,4,92,0,0,0,4,95,0,111,93,95,0,92,95,0,0,0,0,0,0],"split_type":[0,0,0,0,0,0,0,0,0,0,0,0,0,0,0,0,0,0,0,0,0],"sum_hessian":[1.0062769E4,4.1973013E3,5.865467E3,4.1356626E3,6.163879E1,1.7780869E2,5.687658E3,3.2580217E3,2.4296365E3,4.0883646E2,2.8491853E3,3.7757864E2,3.1257792E1,1.2436368E3,1.6055485E3,7.8461754E1,2.991169E2,3.0915535E1,1.2127213E3,9.359421E2,6.696064E2],"tree_param":{"num_deleted":"0","num_feature":"114","num_nodes":"21","size_leaf_vector":"1"}},{"base_weights":[-4.3822615E-3,-1.5395756E0,1.0599455E0,-1.5859294E-1,1.5248165E-1,-1.5759902E-1,1.1406553E0,8.238046E-1,1.5616758E0,1.0325085E0,-1.243211E0,1.5661353E-1,1.1641312E0,1.434681E0,6.897414E-1,-1.6079782E-1,-2.1326944E-1,-1.1244153E-1,1.4681782E-1,1.5272866E-1,1.3109472E-1,-6.491659E-2,9.3544245E-2,1.7315161E-1,-1.658699E-1],"categories":[],"categories_nodes":[],"categories_segments":[],"categories_sizes":[],"default_left":[0,0,0,0,0,0,0,0,0,0,0,0,0,0,0,0,0,0,0,0,0,0,0,0,0],"id":3,"left_children":[1,3,5,-1,-1,-1,7,9,11,13,15,-1,17,19,21,-1,23,-1,-1,-1,-1,-1,-1,-1,-1],"loss_changes":[1.6162978E4,5.801367E2,1.2464316E3,0E0,0E0,0E0,7.5373926E2,1.399928E3,6.660156E-1,4.037461E2,1.1125772E2,0E0,2.7498043E1,1.1491943E1,5.252022E2,0E0,2.3129016E2,0E0,0E0,0E0,0E0,0E0,0E0,0E0,0E0],"parents":[2147483647,0,0,1,1,2,2,6,6,7,7,8,8,9,9,10,10,12,12,13,13,14,14,16,16],"right_children":[2,4,6,-1,-1,-1,8,10,12,14,16,-1,18,20,22,-1,24,-1,-1,-1,-1,-1,-1,-1,-1],"split_conditions":[9.29293E0,1E0,1.7E1,-1.6237989E-1,6.75689E-1,-1.5270391E-1,1.4285715E-1,5.64E0,8.333333E-1,3.340909E0,1.0198659E0,1.8494646E-1,1E0,2.7961166E0,1.0090253E0,-3.4632817E-1,1.0233015E0,7.008406E-2,1.0834777E-1,1.688675E-1,2.4699411E-1,-3.37836E-2,1.4696895E-1,2.2243367E-1,-1.4263884E-3],"split_indices":[93,9,92,0,0,0,113,100,113,100,101,0,9,100,101,0,101,0,0,0,0,0,0,0,0],"split_type":[0,0,0,0,0,0,0,0,0,0,0,0,0,0,0,0,0,0,0,0,0,0,0,0,0],"sum_hessian":[9.887975E3,4.04809E3,5.839885E3,3.9887192E3,5.9370796E1,1.7239835E2,5.6674863E3,3.2371746E3,2.4303118E3,2.9412058E3,2.959687E2,2.397538E3,3.27736E1,1.3503977E3,1.5908082E3,2.1773318E2,7.82355E1,3.2106752E0,2.9562925E1,7.593751E2,5.910226E2,2.4615317E2,1.344655E3,3.318719E1,4.50483E1],"tree_param":{"num_deleted":"0","num_feature":"114","num_nodes":"25","size_leaf_vector":"1"}},{"base_weights":[-6.401182E-3,-1.3956789E0,1.041094E0,-1.4781613E0,1.464067E-1,-1.4845783E-1,1.1172999E0,-1.5018006E-1,-5.1231647E-1,8.455059E-1,1.4839618E-1,-1.455975E-1,1.4786997E-1,1.0346518E0,-5.348468E-1,1.134244E0,9.102228E-2,-1.8049672E0,3.0370138E-3,1.4035879E-1,9.661805E-2,-2.2196586E-1,6.543247E-2,-1.5524496E-1,-2.2901188E-1,-8.627951E-2,1.3227813E-1],"categories":[],"categories_nodes":[],"categories_segments":[],"categories_sizes":[],"default_left":[0,0,0,0,0,0,0,0,0,0,0,0,0,0,0,0,0,0,0,0,0,0,0,0,0,0,0],"id":4,"left_children":[1,3,5,7,-1,-1,9,-1,11,13,-1,-1,-1,15,17,19,21,23,25,-1,-1,-1,-1,-1,-1,-1,-1],"loss_changes":[1.3765212E4,9.6343604E2,1.0412803E3,8.871777E1,0E0,0E0,5.1929346E2,0E0,1.8744936E2,7.8741675E2,0E0,0E0,0E0,2.487793E2,2.488685E2,1.0576099E2,3.3494904E2,6.166046E0,2.9697015E2,0E0,0E0,0E0,0E0,0E0,0E0,0E0,0E0],"parents":[2147483647,0,0,1,1,2,2,3,3,6,6,8,8,9,9,13,13,14,14,15,15,16,16,17,17,18,18],"right_children":[2,4,6,8,-1,-1,10,-1,12,14,-1,-1,-1,16,18,20,22,24,26,-1,-1,-1,-1,-1,-1,-1,-1],"split_conditions":[1.0515464E1,1E0,1E0,2.03125E0,4.6562586E-2,-1.0358147E-1,1E0,-5.0407548E-2,4.736842E0,4.965517E0,3.0179828E-1,-6.652569E-2,4.1017514E-1,2.65625E0,1.0714286E-1,3.0421052E0,1E0,1.3265306E0,1.698718E0,1.0581694E-1,3.0032074E-1,-2.2212495E-1,2.2920363E-1,-1.7271549E-1,-3.522513E-1,-1.9609424E-1,2.4703765E-1],"split_indices":[93,4,102,94,0,0,4,0,93,100,0,0,0,94,113,100,97,94,94,0,0,0,0,0,0,0,0],"split_type":[0,0,0,0,0,0,0,0,0,0,0,0,0,0,0,0,0,0,0,0,0,0,0,0,0,0,0],"sum_hessian":[9.454928E3,4.0641028E3,5.390825E3,3.951109E3,1.1299401E2,1.5680829E2,5.234017E3,3.8556318E3,9.54769E1,3.0096658E3,2.2243513E3,6.514049E1,3.0336416E1,2.6474006E3,3.62265E2,2.3942983E3,2.5310234E2,1.0637271E2,2.5589229E2,9.1430383E2,1.4799945E3,4.845555E1,2.0464679E2,7.548383E1,3.088888E1,1.5493683E2,1.0095547E2],"tree_param":{"num_deleted":"0","num_feature":"114","num_nodes":"27","size_leaf_vector":"1"}},{"base_weights":[4.261176E-2,-1.4089833E0,9.645163E-1,-1.4300981E-1,1.3283654E-1,-1.4214225E-1,1.0305314E0,7.2736704E-1,1.4137441E-1,-1.1637292E0,9.556719E-1,-1.4729637E-1,-1.496032E-1,7.9819566E-1,1.3317242E0,1.597922E-1,-1.4727847E-1,-2.0306364E-1,8.354671E-2,1.3803475E-1,1.0313051E-1],"categories":[],"categories_nodes":[],"categories_segments":[],"categories_sizes":[],"default_left":[0,0,0,0,0,0,0,0,0,0,0,0,0,0,0,0,0,0,0,0,0],"id":5,"left_children":[1,3,5,-1,-1,-1,7,9,-1,11,13,-1,15,17,19,-1,-1,-1,-1,-1,-1],"loss_changes":[1.2517845E4,2.1379541E2,9.039878E2,0E0,0E0,0E0,6.447964E2,1.3461302E3,0E0,1.0499515E2,1.6241553E2,0E0,1.9151497E2,2.1040369E2,9.088745E0,0E0,0E0,0E0,0E0,0E0,0E0],"parents":[2147483647,0,0,1,1,2,2,6,6,7,7,9,9,10,10,12,12,13,13,14,14],"right_children":[2,4,6,-1,-1,-1,8,10,-1,12,14,-1,16,18,20,-1,-1,-1,-1,-1,-1],"split_conditions":[9.29293E0,1E0,1.7E1,-1.21017896E-1,1.3140415E-1,-2.432389E-1,1.4285715E-1,4.6368093E0,2.577384E-1,1.0198659E0,2.637584E1,-1.1324914E-1,1.0233015E0,2.77E2,5.4421768E-2,6.1055414E-2,1.7329745E-1,-1.07977316E-1,-1.1909168E-1,1.860364E-1,1.6370378E-1],"split_indices":[93,4,92,0,0,0,113,95,0,101,93,0,101,92,113,0,0,0,0,0,0],"split_type":[0,0,0,0,0,0,0,0,0,0,0,0,0,0,0,0,0,0,0,0,0],"sum_hessian":[9.349985E3,3.6312705E3,5.718715E3,3.6044229E3,2.6847687E1,1.5286208E2,5.565853E3,3.11072E3,2.4551328E3,3.342084E2,2.7765117E3,2.5541927E2,7.878915E1,1.9613983E3,8.151133E2,3.3771656E1,4.5017487E1,2.41155E1,1.9372828E3,6.953762E2,1.1973708E2],"tree_param":{"num_deleted":"0","num_feature":"114","num_nodes":"21","size_leaf_vector":"1"}},{"base_weights":[-3.8280871E-3,6.981647E-1,-1.3738136E-1,-1.3678949E-1,8.5995793E-1,5.343117E-1,1.3622457E-1,-6.4687E-1,9.3402934E-1,8.7056094E-1,-7.8170335E-1,8.453457E-1,1.1335506E0,-1.2715349E-1,1.21819235E-1,-1.5986341E-1,-5.5598438E-2,1.2853163E-1,7.958346E-2,1.0295327E-1,1.3077456E-1],"categories":[],"categories_nodes":[],"categories_segments":[],"categories_sizes":[],"default_left":[0,0,0,0,0,0,0,0,0,0,0,0,0,0,0,0,0,0,0,0,0],"id":6,"left_children":[1,3,-1,-1,5,7,-1,9,11,13,15,17,19,-1,-1,-1,-1,-1,-1,-1,-1],"loss_changes":[8.29453E3,1.9085933E3,0E0,0E0,8.637717E2,1.5179222E3,0E0,1.677868E2,4.0567627E1,5.323247E1,1.3616833E2,3.4333862E1,1.0587952E1,0E0,0E0,0E0,0E0,0E0,0E0,0E0,0E0],"parents":[2147483647,0,0,1,1,4,4,5,5,7,7,8,8,9,9,10,10,11,11,12,12],"right_children":[2,4,-1,-1,6,8,-1,10,12,14,16,18,20,-1,-1,-1,-1,-1,-1,-1,-1],"split_conditions":[4.5E1,1E0,4.8481587E-2,-3.141453E-1,1E0,6E0,1.3040489E-1,1.5E1,7E0,3E0,2.3E1,1.5E1,2.8E1,-2.6085812E-1,3.2245036E-2,-9.740232E-2,-8.335451E-2,-5.6719813E-2,8.2137756E-2,1.5387782E-1,2.7669708E-3],"split_indices":[103,102,0,0,4,111,0,103,111,96,103,103,103,0,0,0,0,0,0,0,0],"split_type":[0,0,0,0,0,0,0,0,0,0,0,0,0,0,0,0,0,0,0,0,0],"sum_hessian":[8.620689E3,5.700621E3,2.920068E3,4.129132E2,5.287708E3,3.2104302E3,2.0772778E3,8.114187E2,2.3990115E3,6.532542E1,7.4609326E2,1.6680615E3,7.3094995E2,8.378973E0,5.694644E1,1.5888516E2,5.872081E2,1.6367519E2,1.5043864E3,4.6631665E2,2.6463327E2],"tree_param":{"num_deleted":"0","num_feature":"114","num_nodes":"21","size_leaf_vector":"1"}},{"base_weights":[3.8425308E-2,-1.2873592E0,8.6368674E-1,-1.3263144E-1,1.2729193E-1,5.549303E-1,1.3157646E-1,-6.615587E-1,7.0949626E-1,-1.3792525E-1,2.4407032E-1,-1.3177958E-1,8.116143E-1,-1.3417259E-1,6.75997E-1,6.762866E-1,1.2216091E0,-1.7022353E-2,1.476627E-1,2.0142466E-2,7.653669E-2,1.2782168E-1,9.913941E-2],"categories":[],"categories_nodes":[],"categories_segments":[],"categories_sizes":[],"default_left":[0,0,0,0,0,0,0,0,0,0,0,0,0,0,0,0,0,0,0,0,0,0,0],"id":7,"left_children":[1,3,5,-1,-1,7,-1,9,11,-1,13,-1,15,-1,17,19,21,-1,-1,-1,-1,-1,-1],"loss_changes":[9.225049E3,3.260039E2,7.238977E2,0E0,0E0,5.82177E2,0E0,2.278525E2,5.701505E2,0E0,1.08823044E2,0E0,1.4334692E2,0E0,8.459244E1,8.299536E1,5.8849487E0,0E0,0E0,0E0,0E0,0E0,0E0],"parents":[2147483647,0,0,1,1,2,2,5,5,7,7,8,8,10,10,12,12,14,14,15,15,16,16],"right_children":[2,4,6,-1,-1,8,-1,10,12,-1,14,-1,16,-1,18,20,22,-1,-1,-1,-1,-1,-1],"split_conditions":[9.29293E0,1E0,1E0,-1.2223254E-1,2.404917E-1,1.228669E1,1.8121594E-1,3E1,1.1E1,-2.5012764E-1,1.2E-1,-4.9073225E-1,2.637584E1,-2.68439E-1,1.0515464E1,2E1,5.4421768E-2,-3.1749678E-1,8.510532E-2,-1.5763071E-1,3.528858E-2,7.010418E-2,5.1864497E-2],"split_indices":[93,4,4,0,0,93,0,103,103,0,113,0,93,0,93,103,113,0,0,0,0,0,0],"split_type":[0,0,0,0,0,0,0,0,0,0,0,0,0,0,0,0,0,0,0,0,0,0,0],"sum_hessian":[8.427455E3,3.232813E3,5.194642E3,3.1853118E3,4.7501186E1,3.0892363E3,2.1054058E3,3.4752567E2,2.7417107E3,1.9329617E2,1.5422949E2,1.3033969E2,2.6113708E3,3.211355E1,1.2211595E2,1.967315E3,6.4405597E2,6.0133266E1,6.198268E1,3.1178735E2,1.6555276E3,5.0963657E2,1.3441936E2],"tree_param":{"num_deleted":"0","num_feature":"114","num_nodes":"23","size_leaf_vector":"1"}},{"base_weights":[-9.26613E-6,-1.2478638E0,7.987643E-1,-1.2856542E-1,1.23199046E-1,5.0150764E-1,1.2765324E-1,-1.0908762E0,7.44315E-1,-1.3241214E-1,-1.1487581E-1,8.5105425E-1,-1.1518611E-1,1.2743448E0,-1.3202068E-1,-3.332334E-1,8.8968056E-1,-2.1898682E-1,4.3961352E-1,1.5487635E-1,-9.3252316E-2,-1.3671142E-1,1.3281989E-1,1.14270866E-1,7.432775E-2,-1.98063E-1,5.8431443E-2],"categories":[],"categories_nodes":[],"categories_segments":[],"categories_sizes":[],"default_left":[0,0,0,0,0,0,0,0,0,0,0,0,0,0,0,0,0,0,0,0,0,0,0,0,0,0,0],"id":8,"left_children":[1,3,5,-1,-1,7,-1,9,11,-1,13,15,17,19,-1,21,23,-1,25,-1,-1,-1,-1,-1,-1,-1,-1],"loss_changes":[7.7204814E3,2.8646973E2,6.694231E2,0E0,0E0,1.1285208E3,0E0,8.766501E1,2.3231775E2,0E0,1.3184016E2,1.0355859E2,3.2566827E2,2.5091045E1,0E0,1.2825262E2,7.90697E1,0E0,8.061641E1,0E0,0E0,0E0,0E0,0E0,0E0,0E0,0E0],"parents":[2147483647,0,0,1,1,2,2,5,5,7,7,8,8,10,10,11,11,12,12,13,13,15,15,16,16,18,18],"right_children":[2,4,6,-1,-1,8,-1,10,12,-1,14,16,18,20,-1,22,24,-1,26,-1,-1,-1,-1,-1,-1,-1,-1],"split_conditions":[9.29293E0,1E0,1E0,3.0359806E-2,2.6033294E-1,3.9370039E0,6.56796E-1,3E1,2.65625E0,-2.2540782E-1,2.1679482E0,1.1793103E1,1E0,3.1E1,-4.786766E-2,1.7777778E0,1.9148936E0,-2.2417112E-1,2.83E2,1.7309666E-1,-8.903079E-2,-9.0132505E-2,3.292594E-1,1.07628815E-1,7.037044E-2,-2.3402943E-1,-1.4369066E-1],"split_indices":[93,4,4,0,0,95,0,103,94,0,95,93,97,103,0,94,94,0,92,0,0,0,0,0,0,0,0],"split_type":[0,0,0,0,0,0,0,0,0,0,0,0,0,0,0,0,0,0,0,0,0,0,0,0,0,0,0],"sum_hessian":[7.7416304E3,3.0210234E3,4.720607E3,2.976626E3,4.4397614E1,2.9125703E3,1.8080366E3,3.844272E2,2.528143E3,3.097012E2,7.472597E1,2.2488801E3,2.7926294E2,3.466167E1,4.0064293E1,7.055014E1,2.17833E3,5.7678604E1,2.2158432E2,3.1358704E1,3.3029659E0,4.370658E1,2.684356E1,7.9343243E2,1.3848976E3,1.1069088E1,2.1051524E2],"tree_param":{"num_deleted":"0","num_feature":"114","num_nodes":"27","size_leaf_vector":"1"}},{"base_weights":[8.342685E-3,-1.2140243E0,7.618704E-1,-1.251051E-1,1.1963227E-1,4.509035E-1,1.2432323E-1,-4.2140213E-1,7.374667E-1,-1.0879365E0,5.338556E-1,8.72282E-1,5.4950956E-2,-1.2895776E-1,-1.7619732E-1,8.111642E-1,-1.9077344E-1,1.143187E0,6.904546E-1,-4.0728563E-1,1.444522E-1,1.3003747E-1,-1.3233458E-1,9.7815014E-2,-1.9307773E-1,1.1909523E-1,1.0151433E-1,7.5234205E-2,-3.1887388E-1,5.71087E-2,-7.818356E-2],"categories":[],"categories_nodes":[],"categories_segments":[],"categories_sizes":[],"default_left":[0,0,0,0,0,0,0,0,0,0,0,0,0,0,0,0,0,0,0,0,0,0,0,0,0,0,0,0,0,0,0],"id":9,"left_children":[1,3,5,-1,-1,7,-1,9,11,13,15,17,19,-1,21,23,-1,25,27,29,-1,-1,-1,-1,-1,-1,-1,-1,-1,-1,-1],"loss_changes":[6.7597134E3,2.5277295E2,6.7847314E2,0E0,0E0,6.9088214E2,0E0,4.3673566E2,1.9122498E2,7.374539E1,1.9436624E2,8.394141E1,2.2283862E2,0E0,1.3117755E2,1.2057301E2,0E0,1.8280029E0,2.554187E2,9.636006E1,0E0,0E0,0E0,0E0,0E0,0E0,0E0,0E0,0E0,0E0,0E0],"parents":[2147483647,0,0,1,1,2,2,5,5,7,7,8,8,9,9,10,10,11,11,12,12,14,14,15,15,17,17,18,18,19,19],"right_children":[2,4,6,-1,-1,8,-1,10,12,14,16,18,20,-1,22,24,-1,26,28,30,-1,-1,-1,-1,-1,-1,-1,-1,-1,-1,-1],"split_conditions":[9.29293E0,1E0,1E0,-9.841137E-2,1.8366324E-2,6E0,8.277452E-2,1.6E0,2.5581396E0,1.0198659E0,4.5692306E0,3.0421052E0,7E0,-1.2075648E-1,1.0233015E0,2.65625E0,-1.2783843E-1,2.7961166E0,2.4932432E1,1.015943E0,1.4286296E-1,-2.0529279E-1,-1.4191453E-1,4.7064683E-1,-3.5109174E-1,1.4312746E-1,1.10676095E-1,5.0037723E-2,-2.2889389E-1,8.849548E-2,-1.4744961E-1],"split_indices":[93,9,9,0,0,111,0,94,94,101,100,100,111,0,101,94,0,100,93,101,0,0,0,0,0,0,0,0,0,0,0],"split_type":[0,0,0,0,0,0,0,0,0,0,0,0,0,0,0,0,0,0,0,0,0,0,0,0,0,0,0,0,0,0,0],"sum_hessian":[7.3348315E3,2.796747E3,4.5380845E3,2.7553823E3,4.1364937E1,2.7593662E3,1.7787181E3,6.820989E2,2.0772673E3,4.0160193E2,2.8049695E2,1.7341665E3,3.431009E2,3.2819025E2,7.341168E1,2.5308755E2,2.7409391E1,6.9223285E2,1.0419337E3,2.585191E2,8.4581795E1,3.1980402E1,4.143128E1,2.3977182E2,1.3315724E1,4.9206985E2,2.0016295E2,1.0271588E3,1.4774855E1,7.12792E1,1.872399E2],"tree_param":{"num_deleted":"0","num_feature":"114","num_nodes":"31","size_leaf_vector":"1"}},{"base_weights":[-5.882713E-3,-1.1850646E0,7.2245884E-1,-1.22136556E-1,1.1648946E-1,4.0385273E-1,1.2145505E-1,-1.0235748E0,6.24941E-1,-5.486835E-1,-1.2523142E-1,1.0364507E0,3.549025E-1,-1.2347918E-1,7.7884454E-1,1.1956911E0,6.930968E-1,-2.0166504E0,4.451433E-1,1.2625608E-1,-9.9483386E-2,1.2688695E-1,1.1276171E-1,-1.2503907E-1,1.0487252E-1,-1.005699E-1,-2.1160284E-1,4.8998963E-2,-3.09417E-1],"categories":[],"categories_nodes":[],"categories_segments":[],"categories_sizes":[],"default_left":[0,0,0,0,0,0,0,0,0,0,0,0,0,0,0,0,0,0,0,0,0,0,0,0,0,0,0,0,0],"id":10,"left_children":[1,3,5,-1,-1,7,-1,9,11,13,-1,15,17,-1,19,21,23,25,27,-1,-1,-1,-1,-1,-1,-1,-1,-1,-1],"loss_changes":[5.8277085E3,2.238628E2,6.566677E2,0E0,0E0,8.0575226E2,0E0,3.5844482E1,2.4468011E2,1.0661711E2,0E0,4.6128967E1,2.8782153E2,0E0,3.7166004E1,9.906006E-2,1.9730275E2,7.0214844E-1,2.0765257E2,0E0,0E0,0E0,0E0,0E0,0E0,0E0,0E0,0E0,0E0],"parents":[2147483647,0,0,1,1,2,2,5,5,7,7,8,8,9,9,11,11,12,12,14,14,15,15,16,16,17,17,18,18],"right_children":[2,4,6,-1,-1,8,-1,10,12,14,-1,16,18,-1,20,22,24,26,28,-1,-1,-1,-1,-1,-1,-1,-1,-1,-1],"split_conditions":[9.29293E0,1E0,1E0,-1.6555908E-1,5.6892238E-3,3.9370039E0,1.3251603E-1,1.0671141E1,3.340909E0,1.0515464E1,-1.3313074E-1,1.7527122E1,2.81E2,-1.0553841E-1,2.1679482E0,2.3571428E1,2.1149467E1,1.228669E1,2.2230215E1,9.421557E-2,-9.723871E-2,2.1290503E-1,7.196433E-2,-2.1626738E-1,3.0107605E-1,-1.14690594E-1,-4.7651835E-2,-6.663669E-2,-3.050365E-1],"split_indices":[93,4,4,0,0,95,0,93,100,93,0,95,92,0,95,93,95,93,93,0,0,0,0,0,0,0,0,0,0],"split_type":[0,0,0,0,0,0,0,0,0,0,0,0,0,0,0,0,0,0,0,0,0,0,0,0,0,0,0,0,0],"sum_hessian":[6.7815083E3,2.5888755E3,4.1926323E3,2.550438E3,3.843743E1,2.5471287E3,1.6455039E3,3.4063074E2,2.2064978E3,1.1294344E2,2.2768729E2,8.7199475E2,1.334503E3,7.455222E1,3.839122E1,5.923228E2,2.796719E2,4.7353203E1,1.2871499E3,3.061756E1,7.773662E0,2.6845737E2,3.2386545E2,4.2481422E1,2.3719049E2,6.228792E0,4.1124413E1,1.2727462E3,1.4403721E1],"tree_param":{"num_deleted":"0","num_feature":"114","num_nodes":"29","size_leaf_vector":"1"}},{"base_weights":[-9.955836E-3,6.0883826E-1,-1.1511141E0,-1.1893537E-1,7.4942374E-1,-1.2234979E0,7.992445E-1,4.4842276E-1,1.19000375E-1,-1.1974821E-1,-2.6493597E-1,1.0041696E0,-1.4631812E-1,-9.6840805E-1,6.4564234E-1,-9.296625E-2,1.11975215E-1,-1.2273008E-1,3.8597053E-1,1.0971123E0,4.329087E-1,1.2424103E-1,-1.1616416E-1,1.1935031E-1,1.00372694E-1,-2.912574E-2,7.7200264E-2],"categories":[],"categories_nodes":[],"categories_segments":[],"categories_sizes":[],"default_left":[0,0,0,0,0,0,0,0,0,0,0,0,0,0,0,0,0,0,0,0,0,0,0,0,0,0,0],"id":11,"left_children":[1,3,5,-1,7,9,11,13,-1,-1,-1,15,-1,17,19,-1,-1,-1,21,23,25,-1,-1,-1,-1,-1,-1],"loss_changes":[4.503407E3,1.0471598E3,3.1851074E2,0E0,5.0771973E2,7.388574E1,4.07012E1,6.390564E2,0E0,0E0,0E0,1.9040596E1,0E0,9.902219E1,1.9160144E2,0E0,0E0,0E0,6.439652E1,3.3723755E0,3.3589285E2,0E0,0E0,0E0,0E0,0E0,0E0],"parents":[2147483647,0,0,1,1,2,2,4,4,5,5,6,6,7,7,11,11,13,13,14,14,18,18,19,19,20,20],"right_children":[2,4,6,-1,8,10,12,14,-1,-1,-1,16,-1,18,20,-1,-1,-1,22,24,26,-1,-1,-1,-1,-1,-1],"split_conditions":[3.3E1,3.6177558E-1,2.98E2,-1.286291E-1,1E0,6.1E1,2.99E2,4.6368093E0,4.56323E-1,5.4297704E-2,-1.6966367E-1,1.875E0,-1.0789824E-1,1.0198659E0,3.0421052E0,-9.993563E-2,-6.759166E-2,-3.870583E-1,1.0233015E0,1.67869E1,1.0940139E0,3.151612E-2,-9.134612E-2,2.0172402E-1,1.5466326E-1,-1.2165785E-1,1.9424559E-1],"split_indices":[103,101,92,0,4,91,92,95,0,0,0,94,0,101,100,0,0,0,101,95,101,0,0,0,0,0,0],"split_type":[0,0,0,0,0,0,0,0,0,0,0,0,0,0,0,0,0,0,0,0,0,0,0,0,0,0,0],"sum_hessian":[6.373496E3,4.1331987E3,2.2402976E3,2.9862646E2,3.834572E3,2.1608472E3,7.945033E1,2.2805515E3,1.5540206E3,2.1257412E3,3.5106E1,7.387154E1,5.5787983E0,2.7770322E2,2.0028483E3,3.3717465E0,7.049979E1,2.3329584E2,4.4407394E1,6.388167E2,1.3640315E3,2.8841236E1,1.5566158E1,3.0275635E2,3.3606036E2,4.3510568E2,9.2892584E2],"tree_param":{"num_deleted":"0","num_feature":"114","num_nodes":"27","size_leaf_vector":"1"}},{"base_weights":[5.348411E-3,-1.1188408E0,7.0634615E-1,-1.1513313E0,1.1058334E-1,4.6046028E-1,1.16800666E-1,-1.1756277E-1,-2.1147098E-1,-8.517325E-1,5.7712126E-1,1.15370765E-1,-1.1181527E-1,5.641823E-1,-1.1898308E-1,9.0872765E-1,3.7984714E-1,1.2094891E-1,-1.048224E-1,-6.0730594E-1,1.0392125E0,2.778222E-1,1.1041981E0,-1.2233619E-1,1.0646247E-1,-8.620812E-2,1.05388224E-1,3.6331862E-2,-3.0989385E-1,-2.842272E-1,1.2236487E-1],"categories":[],"categories_nodes":[],"categories_segments":[],"categories_sizes":[],"default_left":[0,0,0,0,0,0,0,0,0,0,0,0,0,0,0,0,0,0,0,0,0,0,0,0,0,0,0,0,0,0,0],"id":12,"left_children":[1,3,5,7,-1,9,-1,-1,11,13,15,-1,-1,17,-1,19,21,-1,-1,23,25,27,29,-1,-1,-1,-1,-1,-1,-1,-1],"loss_changes":[4.7489204E3,1.6983667E2,4.2025818E2,5.161548E1,0E0,3.722212E2,0E0,0E0,7.678183E1,9.651593E1,1.4507837E2,0E0,0E0,4.382094E1,0E0,1.6539752E2,1.02890976E2,0E0,0E0,7.163251E1,2.3145874E1,3.574476E2,8.815242E1,0E0,0E0,0E0,0E0,0E0,0E0,0E0,0E0],"parents":[2147483647,0,0,1,1,2,2,3,3,5,5,8,8,9,9,10,10,13,13,15,15,16,16,19,19,20,20,21,21,22,22],"right_children":[2,4,6,8,-1,10,-1,-1,12,14,16,-1,-1,18,-1,20,22,-1,-1,24,26,28,30,-1,-1,-1,-1,-1,-1,-1,-1],"split_conditions":[1.0515464E1,1E0,1E0,2.03125E0,-8.6273186E-2,5.7E1,3.4474567E-1,-8.882543E-2,2.096774E0,1.0671141E1,1.9148936E0,1.6135769E-1,-5.5991232E-2,1.2096775E0,-2.8881449E-1,1.2962962E0,1.31E2,1.1559249E-1,-1.1966661E-1,1.63E2,1.1793103E1,2.3571428E1,2.03125E0,6.549737E-2,2.2310862E-1,-5.912121E-2,-7.7047035E-2,-4.50732E-2,-1.8319234E-1,-3.2472908E-1,8.423011E-2],"split_indices":[93,4,4,94,0,91,0,0,94,93,94,0,0,94,0,94,91,0,0,91,93,93,94,0,0,0,0,0,0,0,0],"split_type":[0,0,0,0,0,0,0,0,0,0,0,0,0,0,0,0,0,0,0,0,0,0,0,0,0,0,0,0,0,0,0],"sum_hessian":[6.0221294E3,2.312455E3,3.709674E3,2.2801199E3,3.2335266E1,2.4230981E3,1.2865759E3,2.2221726E3,5.7947365E1,1.9680867E2,2.2262893E3,2.2908875E1,3.5038494E1,3.767846E1,1.591302E2,8.2772266E2,1.3985668E3,2.7266005E1,1.0412455E1,6.501697E1,7.627057E2,1.2283242E3,1.7024257E2,4.7902817E1,1.7114153E1,4.9551473E0,7.5775055E2,1.1997329E3,2.8591305E1,3.6621323E0,1.6658044E2],"tree_param":{"num_deleted":"0","num_feature":"114","num_nodes":"31","size_leaf_vector":"1"}},{"base_weights":[2.05161E-2,5.7133245E-1,-1.1541941E-1,3.2587126E-1,1.1492848E-1,-1.0270903E0,5.930843E-1,-1.154415E-1,-7.0996094E-1,9.926926E-1,3.0790484E-1,6.339174E-1,-1.179769E-1,1.0985231E-1,8.145543E-1,-2.7408874E-1,4.5460445E-1,1.1593745E-1,-9.465848E-2,-2.4059783E-1,9.248944E-2,5.8848478E-2,-3.871801E-2],"categories":[],"categories_nodes":[],"categories_segments":[],"categories_sizes":[],"default_left":[0,0,0,0,0,0,0,0,0,0,0,0,0,0,0,0,0,0,0,0,0,0,0],"id":13,"left_children":[1,3,-1,5,-1,7,9,-1,11,13,15,17,-1,-1,19,-1,21,-1,-1,-1,-1,-1,-1],"loss_changes":[3.6884158E3,5.497805E2,0E0,9.869704E2,0E0,1.6548462E1,2.5901147E2,0E0,8.624463E1,1.6079712E1,5.9838934E2,3.21518E1,0E0,0E0,1.3272815E2,0E0,1.439082E2,0E0,0E0,0E0,0E0,0E0,0E0],"parents":[2147483647,0,0,1,1,3,3,5,5,6,6,8,8,9,9,10,10,11,11,14,14,16,16],"right_children":[2,4,-1,6,-1,8,10,-1,12,14,16,18,-1,-1,20,-1,22,-1,-1,-1,-1,-1,-1],"split_conditions":[1E0,1E0,-1.8996128E-1,3.9370039E0,9.781357E-2,5E1,3.340909E0,-1.8127616E-2,5.1E1,1.7952715E1,7.2164945E-2,2.1679482E0,-7.251201E-2,-6.2351212E-2,1.24E2,-3.19055E-1,1.63187E1,3.0767298E-1,-5.320035E-2,-1.443467E-1,-5.4146115E-2,4.1731093E-2,-1.2449432E-1],"split_indices":[83,4,0,95,0,91,100,0,91,95,113,95,0,0,91,0,95,0,0,0,0,0,0],"split_type":[0,0,0,0,0,0,0,0,0,0,0,0,0,0,0,0,0,0,0,0,0,0,0],"sum_hessian":[5.6963213E3,3.8786616E3,1.8176598E3,2.72462E3,1.1540415E3,4.4842957E2,2.2761904E3,3.1619827E2,1.3223128E2,9.4585175E2,1.3303387E3,3.407154E1,9.815974E1,5.868662E2,3.5898553E2,5.944994E1,1.2708888E3,2.5970304E1,8.101237E0,1.0513529E1,3.4847202E2,1.0970172E3,1.7387158E2],"tree_param":{"num_deleted":"0","num_feature":"114","num_nodes":"23","size_leaf_vector":"1"}},{"base_weights":[1.0678381E-2,-1.0609689E0,6.4531934E-1,-1.1398011E-1,1.1060383E-1,4.0502137E-1,1.1326331E-1,-1.1526916E-1,5.35797E-1,9.5083535E-1,2.6731262E-1,1.0833042E0,7.57742E-1,-1.5106125E0,4.156461E-1,1.0072241E-1,1.1737665E-1,8.573936E-2,-2.2128522E-1,8.655252E-2,-2.586671E-1,5.09937E-2,-2.2003388E-1],"categories":[],"categories_nodes":[],"categories_segments":[],"categories_sizes":[],"default_left":[0,0,0,0,0,0,0,0,0,0,0,0,0,0,0,0,0,0,0,0,0,0,0],"id":14,"left_children":[1,3,5,-1,-1,7,-1,-1,9,11,13,15,17,19,21,-1,-1,-1,-1,-1,-1,-1,-1],"loss_changes":[3.6105046E3,3.3983105E2,3.8951294E2,0E0,0E0,4.567611E2,0E0,0E0,2.2952069E2,1.9078918E1,3.3255942E2,9.102173E-1,1.03337585E2,2.529276E2,2.8863843E2,0E0,0E0,0E0,0E0,0E0,0E0,0E0,0E0],"parents":[2147483647,0,0,1,1,2,2,5,5,8,8,9,9,10,10,11,11,12,12,13,13,14,14],"right_children":[2,4,6,-1,-1,8,-1,-1,10,12,14,16,18,20,22,-1,-1,-1,-1,-1,-1,-1,-1],"split_conditions":[1.0515464E1,1E0,1E0,-2.3195009E-1,1.7786476E-1,3.9370039E0,2.5353137E-1,5.9619206E-1,3.340909E0,1.7093859E1,2E1,1E0,3.2117648E0,1.5E1,1.925357E1,1.4635512E-1,-4.306006E-1,4.5202127E-1,-2.3334631E-1,9.828177E-2,-2.793533E-1,1.3509981E-1,-1.1189121E-1],"split_indices":[93,4,4,0,0,95,0,0,100,95,103,98,100,103,95,0,0,0,0,0,0,0,0],"split_type":[0,0,0,0,0,0,0,0,0,0,0,0,0,0,0,0,0,0,0,0,0,0,0],"sum_hessian":[5.304684E3,1.9725374E3,3.332147E3,1.9042133E3,6.832405E1,2.234139E3,1.0980079E3,1.7182652E2,2.0623125E3,8.0806964E2,1.2542428E3,4.738034E2,3.3426627E2,9.51698E1,1.159073E3,2.70542E2,2.0326141E2,3.247935E2,9.472779E0,2.9786648E1,6.5383156E1,1.1203027E3,3.8770195E1],"tree_param":{"num_deleted":"0","num_feature":"114","num_nodes":"23","size_leaf_vector":"1"}},{"base_weights":[-8.08892E-3,5.0054914E-1,-1.122175E-1,2.3274101E-1,1.1183118E-1,-8.763476E-1,4.7672236E-1,-9.898045E-1,1.0254226E-1,6.031202E-1,-5.6496963E-2,-1.1382605E-1,-4.117118E-1,-1.1441535E-1,6.3785505E-1,-4.1006753E-1,1.3014932E-1,1.0778465E-1,-1.1376468E-1,9.467502E-2,4.4230957E-2,2.4997687E-2,-1.4053355E-1],"categories":[],"categories_nodes":[],"categories_segments":[],"categories_sizes":[],"default_left":[0,0,0,0,0,0,0,0,0,0,0,0,0,0,0,0,0,0,0,0,0,0,0],"id":15,"left_children":[1,3,-1,5,-1,7,9,11,-1,13,15,-1,17,-1,19,21,-1,-1,-1,-1,-1,-1,-1],"loss_changes":[2.7565747E3,5.5202026E2,0E0,6.31954E2,0E0,9.292505E1,1.2900406E2,3.3267822E1,0E0,9.532733E1,1.7796002E2,0E0,9.3901634E1,0E0,9.0841064E1,1.9372527E2,0E0,0E0,0E0,0E0,0E0,0E0,0E0],"parents":[2147483647,0,0,1,1,3,3,5,5,6,6,7,7,9,9,10,10,12,12,14,14,15,15],"right_children":[2,4,-1,6,-1,8,10,12,-1,14,16,-1,18,-1,20,22,-1,-1,-1,-1,-1,-1,-1],"split_conditions":[1E0,1E0,-9.684807E-2,5.9E1,2.0478836E-1,6E0,2.5581396E0,1.0198659E0,1.3268667E-1,1.2745098E0,7E0,-4.380749E-2,1.0233015E0,1.5293059E-1,1.9148936E0,8.2E1,-1.8922044E-2,1.8280694E-1,-1.8802917E-1,1.1771787E-1,6.705921E-2,-9.329058E-2,-3.1442842E-1],"split_indices":[83,9,0,91,0,111,94,101,0,94,111,0,101,0,94,91,0,0,0,0,0,0,0],"split_type":[0,0,0,0,0,0,0,0,0,0,0,0,0,0,0,0,0,0,0,0,0,0,0],"sum_hessian":[4.860562E3,3.3377893E3,1.5227725E3,2.3303193E3,1.0074701E3,4.1926117E2,1.9110581E3,3.9656192E2,2.2699253E1,1.5446433E3,3.6641476E2,3.139903E2,8.257164E1,2.886299E1,1.5157804E3,2.9182925E2,7.458551E1,2.673798E1,5.5833656E1,5.846112E2,9.311691E2,1.7636484E2,1.1546441E2],"tree_param":{"num_deleted":"0","num_feature":"114","num_nodes":"23","size_leaf_vector":"1"}},{"base_weights":[4.4006847E-2,5.190481E-1,-1.1088796E-1,2.74994E-1,1.10554054E-1,-9.544907E-1,4.8851925E-1,-1.1131173E-1,-2.8993067E-1,2.0396546E-1,7.949108E-1,1.03294395E-1,-1.08133875E-1,-2.5794747E-1,5.4464126E-1,1.0350144E0,6.531684E-1,-1.8900985E-1,2.2759503E-2,7.391637E-2,-4.1785922E-2,9.755888E-2,1.2652199E-1,7.984663E-2,-1.3502522E-2],"categories":[],"categories_nodes":[],"categories_segments":[],"categories_sizes":[],"default_left":[0,0,0,0,0,0,0,0,0,0,0,0,0,0,0,0,0,0,0,0,0,0,0,0,0],"id":16,"left_children":[1,3,-1,5,-1,7,9,-1,11,13,15,-1,-1,17,19,21,23,-1,-1,-1,-1,-1,-1,-1,-1],"loss_changes":[2.6103213E3,4.8251727E2,0E0,6.273545E2,0E0,3.6646637E1,1.7704236E2,0E0,7.6433235E1,1.6668661E2,3.1963013E1,0E0,0E0,3.5765106E2,1.14685455E2,2.4555054E0,7.132919E1,0E0,0E0,0E0,0E0,0E0,0E0,0E0,0E0],"parents":[2147483647,0,0,1,1,3,3,5,5,6,6,8,8,9,9,10,10,13,13,14,14,15,15,16,16],"right_children":[2,4,-1,6,-1,8,10,-1,12,14,16,-1,-1,18,20,22,24,-1,-1,-1,-1,-1,-1,-1,-1],"split_conditions":[1E0,1E0,8.0647245E-2,3.9370039E0,1.6524829E-1,1.0198659E0,9.9E1,-9.9082224E-2,1.0233015E0,1.110632E0,5.4421768E-2,5.8102785E-3,-1.0439042E-1,8.5365854E-2,2.7710843E0,1.3880244E0,1.925357E1,-3.125112E-1,1.1795674E-1,6.4515084E-1,-3.6391165E-2,5.8774956E-2,7.669076E-1,5.5646396E-1,-4.5186225E-2],"split_indices":[83,4,0,95,0,101,91,0,101,101,113,0,0,113,94,101,95,0,0,0,0,0,0,0,0],"split_type":[0,0,0,0,0,0,0,0,0,0,0,0,0,0,0,0,0,0,0,0,0,0,0,0,0],"sum_hessian":[4.7621406E3,3.3732917E3,1.388849E3,2.3841323E3,9.891593E2,3.5175818E2,2.0323741E3,2.828852E2,6.887298E1,1.0554666E3,9.769077E2,2.555172E1,4.3321262E1,4.4822125E2,6.0724524E2,3.579525E2,6.189552E2,1.014412E2,3.4678006E2,5.0553928E2,1.01705956E2,2.928354E2,6.511714E1,5.2259283E2,9.6362366E1],"tree_param":{"num_deleted":"0","num_feature":"114","num_nodes":"25","size_leaf_vector":"1"}},{"base_weights":[2.2617795E-2,-1.0642802E0,5.408387E-1,-1.09733514E-1,1.0081178E-1,3.0920175E-1,1.0938843E-1,-7.588729E-1,4.5317626E-1,-1.1303022E-1,1.7652558E-1,6.0041887E-1,-2.783762E-1,7.8491426E-1,-1.2183356E-1,1.0030489E0,4.7466463E-1,-1.0445106E0,4.1424322E-1,9.987774E-2,-1.08518265E-1,1.0338414E-1,7.109564E-2,-3.166041E-1,5.302154E-2,3.673909E-2,-2.2643347E-1,9.3835674E-2,-6.5935366E-2],"categories":[],"categories_nodes":[],"categories_segments":[],"categories_sizes":[],"default_left":[0,0,0,0,0,0,0,0,0,0,0,0,0,0,0,0,0,0,0,0,0,0,0,0,0,0,0,0,0],"id":17,"left_children":[1,3,5,-1,-1,7,-1,9,11,-1,13,15,17,19,-1,21,23,25,27,-1,-1,-1,-1,-1,-1,-1,-1,-1,-1],"loss_changes":[2.4944822E3,1.0016113E2,3.8348926E2,0E0,0E0,3.2613202E2,0E0,8.8001755E1,2.0135529E2,0E0,6.419608E1,7.773889E1,1.6751393E2,2.3093067E1,0E0,1.8406982E0,2.4363828E2,2.5945447E2,9.485252E1,0E0,0E0,0E0,0E0,0E0,0E0,0E0,0E0,0E0,0E0],"parents":[2147483647,0,0,1,1,2,2,5,5,7,7,8,8,10,10,11,11,12,12,13,13,15,15,16,16,17,17,18,18],"right_children":[2,4,6,-1,-1,8,-1,10,12,-1,14,16,18,20,-1,22,24,26,28,-1,-1,-1,-1,-1,-1,-1,-1,-1,-1],"split_conditions":[9.29293E0,1E0,1E0,-3.2979742E-1,1.7395616E-1,6.2E1,1.8169767E-1,1.0198659E0,2.5581396E0,-1.1585326E-1,1E0,2.7961166E0,1.212826E0,5.1E1,-1.0787029E-1,5.4421768E-2,5.882353E-2,1.015943E0,4.2272725E0,3.633431E-2,6.1619516E-2,7.35316E-2,-3.0242443E-2,-3.1850958E-1,-3.6683884E-2,6.463536E-2,-2.1333088E-1,1.8289566E-1,-5.069982E-1],"split_indices":[93,4,4,0,0,91,0,101,94,0,99,100,101,91,0,113,113,101,100,0,0,0,0,0,0,0,0,0,0],"split_type":[0,0,0,0,0,0,0,0,0,0,0,0,0,0,0,0,0,0,0,0,0,0,0,0,0,0,0,0,0],"sum_hessian":[4.4246606E3,1.4278441E3,2.9968164E3,1.4063536E3,2.1490501E1,2.1143591E3,8.8245734E2,2.5014168E2,1.8642175E3,1.787476E2,7.139407E1,1.5521652E3,3.1205228E2,5.032059E1,2.1073484E1,3.660912E2,1.186074E3,1.4768063E2,1.6437166E2,4.5992733E1,4.327857E0,3.2658377E2,3.9507404E1,1.6142372E1,1.1699316E3,6.909887E1,7.8581764E1,1.1062041E2,5.3751244E1],"tree_param":{"num_deleted":"0","num_feature":"114","num_nodes":"29","size_leaf_vector":"1"}},{"base_weights":[4.6338722E-2,4.8262426E-1,-1.0867546E-1,2.635062E-1,1.08380176E-1,-9.277173E-1,4.4874668E-1,-1.082256E-1,-5.883315E-1,8.362341E-1,2.2465013E-1,6.31955E-1,-1.0922318E-1,1.0138786E0,5.88198E-1,2.6724425E-1,-2.3151754E-1,1.0468584E-1,-8.230103E-2,1.046988E-1,8.376726E-2,-1.1944117E-1,8.893387E-2,1.0708531E-2,1.04128204E-1],"categories":[],"categories_nodes":[],"categories_segments":[],"categories_sizes":[],"default_left":[0,0,0,0,0,0,0,0,0,0,0,0,0,0,0,0,0,0,0,0,0,0,0,0,0],"id":18,"left_children":[1,3,-1,5,-1,7,9,-1,11,13,15,17,-1,19,21,23,-1,-1,-1,-1,-1,-1,-1,-1,-1],"loss_changes":[2.0739636E3,3.9841913E2,0E0,4.91243E2,0E0,1.4447449E1,1.6675488E2,0E0,6.1742527E1,2.9849762E1,1.3345563E2,1.980676E1,0E0,6.2475586E-1,1.625093E2,1.4901357E2,0E0,0E0,0E0,0E0,0E0,0E0,0E0,0E0,0E0],"parents":[2147483647,0,0,1,1,3,3,5,5,6,6,8,8,9,9,10,10,11,11,13,13,14,14,15,15],"right_children":[2,4,-1,6,-1,8,10,-1,12,14,16,18,-1,20,22,24,-1,-1,-1,-1,-1,-1,-1,-1,-1],"split_conditions":[1E0,1E0,-1.9256052E-1,3.9370039E0,1.5067247E-1,5E1,3.340909E0,-1.3035262E-1,5.1E1,1.7093859E1,1.08E2,2.1679482E0,-8.174091E-2,1.63187E1,1.31E2,7E0,1.7970923E-1,1.2307527E-1,-1.8066303E-1,1.4964181E-1,2.4205919E-1,1.4721839E-1,4.105427E-2,9.7870216E-2,2.0734175E-1],"split_indices":[83,9,0,95,0,91,100,0,91,95,91,95,0,95,91,111,0,0,0,0,0,0,0,0,0],"split_type":[0,0,0,0,0,0,0,0,0,0,0,0,0,0,0,0,0,0,0,0,0,0,0,0,0],"sum_hessian":[4.191194E3,3.0268757E3,1.1643182E3,2.2204424E3,8.0643335E2,2.9774176E2,1.9227006E3,2.0157657E2,9.616521E1,7.02514E2,1.2201866E3,2.7956114E1,6.820909E1,4.0574356E2,2.9677042E2,1.201821E3,1.8365578E1,2.2189466E1,5.7666473E0,3.3324298E2,7.2500595E1,4.2031475E1,2.5473895E2,9.976669E2,2.0415416E2],"tree_param":{"num_deleted":"0","num_feature":"114","num_nodes":"25","size_leaf_vector":"1"}},{"base_weights":[1.3751402E-2,4.28449E-1,-1.0774249E-1,2.142445E-1,1.0745052E-1,-9.448778E-1,4.1171634E-1,-1.0879957E-1,-3.960426E-1,5.165634E-1,-9.882329E-2,8.730246E-2,-1.0716615E-1,1.4351414E-1,7.054919E-1,-7.868776E-1,4.278536E-1,-6.5831326E-2,7.757372E-2,8.021728E-2,3.0979052E-2,5.6652438E-2,-1.9811271E-1,-1.737586E-1,5.3927936E-2],"categories":[],"categories_nodes":[],"categories_segments":[],"categories_sizes":[],"default_left":[0,0,0,0,0,0,0,0,0,0,0,0,0,0,0,0,0,0,0,0,0,0,0,0,0],"id":19,"left_children":[1,3,-1,5,-1,7,9,-1,11,13,15,-1,-1,17,19,21,23,-1,-1,-1,-1,-1,-1,-1,-1],"loss_changes":[1.7438599E3,3.859804E2,0E0,4.813692E2,0E0,2.3192535E1,9.620651E1,0E0,5.8875206E1,1.04799225E2,1.1213099E2,0E0,0E0,2.5619388E2,3.7317932E1,2.1892383E2,4.422227E1,0E0,0E0,0E0,0E0,0E0,0E0,0E0,0E0],"parents":[2147483647,0,0,1,1,3,3,5,5,6,6,8,8,9,9,10,10,13,13,14,14,15,15,16,16],"right_children":[2,4,-1,6,-1,8,10,-1,12,14,16,-1,-1,18,20,22,24,-1,-1,-1,-1,-1,-1,-1,-1],"split_conditions":[1E0,1E0,-2.0659377E-1,4.6368093E0,2.1954598E-2,1.0198659E0,2.6119404E0,6.4324625E-2,1.0233015E0,1.0660994E0,1.212826E0,5.6653477E-2,-7.900537E-2,1.07E2,1.7527122E1,1.015943E0,7.5E1,-8.491843E-2,8.3613746E-2,-1.0482247E-2,-3.0604255E-1,3.5326466E-2,1.3172821E-3,-2.7301E-1,8.65561E-2],"split_indices":[83,4,0,95,0,101,94,0,101,101,101,0,0,91,95,101,91,0,0,0,0,0,0,0,0],"split_type":[0,0,0,0,0,0,0,0,0,0,0,0,0,0,0,0,0,0,0,0,0,0,0,0,0],"sum_hessian":[3.849724E3,2.7904417E3,1.0592825E3,2.097623E3,6.928185E2,3.042374E2,1.7933857E3,2.397531E2,6.448431E1,1.4878164E3,3.0556924E2,2.2199987E1,4.228432E1,5.0136472E2,9.864517E2,1.3205875E2,1.7351051E2,2.2099791E2,2.8036682E2,7.911076E2,1.9534415E2,6.2397285E1,6.966145E1,7.0628777E0,1.6644765E2],"tree_param":{"num_deleted":"0","num_feature":"114","num_nodes":"25","size_leaf_vector":"1"}},{"base_weights":[5.0202914E-2,-1.0369067E0,5.0031644E-1,-1.0694399E-1,9.579742E-2,3.1102306E-1,1.06635146E-1,5.235302E-1,-3.111857E-1,-1.0742265E-1,5.774554E-1,6.424473E-2,-2.665166E0,2.3957385E-1,7.0534897E-1,-1.1805848E0,3.18443E-1,-3.257212E-1,-2.0646714E-1,8.4579736E-2,-2.8414268E-2,8.113086E-2,3.382499E-2,-1.0707015E-1,-1.7316721E-1,-1.5083033E-1,4.1824672E-2],"categories":[],"categories_nodes":[],"categories_segments":[],"categories_sizes":[],"default_left":[0,0,0,0,0,0,0,0,0,0,0,0,0,0,0,0,0,0,0,0,0,0,0,0,0,0,0],"id":20,"left_children":[1,3,5,-1,-1,7,-1,9,11,-1,13,15,17,19,21,23,25,-1,-1,-1,-1,-1,-1,-1,-1,-1,-1],"loss_changes":[1.8140717E3,7.250195E1,2.80235E2,0E0,0E0,2.6046832E2,0E0,1.2766257E2,4.4410947E2,0E0,6.1054535E1,1.3840729E2,1.112207E1,1.2529435E2,3.9499084E1,7.846222E-1,6.741102E1,0E0,0E0,0E0,0E0,0E0,0E0,0E0,0E0,0E0,0E0],"parents":[2147483647,0,0,1,1,2,2,5,5,7,7,8,8,10,10,11,11,12,12,13,13,14,14,15,15,16,16],"right_children":[2,4,6,-1,-1,8,-1,10,12,-1,14,16,18,20,22,24,26,-1,-1,-1,-1,-1,-1,-1,-1,-1,-1],"split_conditions":[9.29293E0,1E0,1E0,-1.5186228E-1,1.9055822E-1,4.4375E0,1.9605178E-1,2.65E2,1.5373666E1,1.7620279E-2,1.0660994E0,9.144112E-1,1.4377065E1,3.0421052E0,1.878297E1,4.6368093E0,2.83E2,-7.592096E-1,-1.7221624E-1,9.5316425E-2,-1.16510205E-1,-2.3141187E-3,1.0000493E-1,-1.072788E-1,7.667412E-2,-2.8945717E-1,7.879091E-2],"split_indices":[93,9,9,0,0,100,0,92,93,0,101,101,95,100,95,95,92,0,0,0,0,0,0,0,0,0,0],"split_type":[0,0,0,0,0,0,0,0,0,0,0,0,0,0,0,0,0,0,0,0,0,0,0,0,0,0,0],"sum_hessian":[3.7031904E3,1.0835658E3,2.6196245E3,1.0670912E3,1.647466E1,1.9654408E3,6.541837E2,1.4653032E3,5.0013763E2,4.660474E1,1.4186985E3,4.3302155E2,6.7116104E1,3.911273E2,1.0275712E3,7.2193825E1,3.6082773E2,2.9340239E1,3.7775867E1,1.8071371E2,2.1041357E2,7.955291E2,2.3204205E2,6.5099236E1,7.094594E0,1.7230257E1,3.4359747E2],"tree_param":{"num_deleted":"0","num_feature":"114","num_nodes":"27","size_leaf_vector":"1"}},{"base_weights":[6.047067E-2,3.6257467E-1,-1.0612389E-1,1.5964524E-1,1.05923705E-1,-6.028013E-1,4.388483E-1,-8.856215E-1,4.820308E-1,8.482792E-1,3.1409904E-1,-7.832076E-1,-1.8116969E0,8.577828E-1,-1.4760354E-1,9.8263687E-1,5.86302E-1,-1.4326426E-1,5.1643676E-1,-9.613981E-2,6.6515724E-3,-2.2574651E-1,-9.4923645E-2,-1.5659283E-1,1.0947676E-1,1.1431976E-1,8.379684E-2,-2.5570689E-2,7.598507E-2,-1.7833561E-3,-2.4178424E-1,6.546783E-2,8.969144E-3],"categories":[],"categories_nodes":[],"categories_segments":[],"categories_sizes":[],"default_left":[0,0,0,0,0,0,0,0,0,0,0,0,0,0,0,0,0,0,0,0,0,0,0,0,0,0,0,0,0,0,0,0,0],"id":21,"left_children":[1,3,-1,5,-1,7,9,11,13,15,17,19,21,23,-1,25,27,29,31,-1,-1,-1,-1,-1,-1,-1,-1,-1,-1,-1,-1,-1,-1],"loss_changes":[1.1957671E3,3.926302E2,0E0,4.592744E2,0E0,1.783326E2,8.009158E1,4.0746643E1,9.149609E1,1.178186E1,1.12406166E2,6.331343E1,1.2721527E1,6.2425392E1,0E0,3.657257E0,1.9316463E1,1.0650903E2,4.952182E1,0E0,0E0,0E0,0E0,0E0,0E0,0E0,0E0,0E0,0E0,0E0,0E0,0E0,0E0],"parents":[2147483647,0,0,1,1,3,3,5,5,6,6,7,7,8,8,9,9,10,10,11,11,12,12,13,13,15,15,16,16,17,17,18,18],"right_children":[2,4,-1,6,-1,8,10,12,14,16,18,20,22,24,-1,26,28,30,32,-1,-1,-1,-1,-1,-1,-1,-1,-1,-1,-1,-1,-1,-1],"split_conditions":[3E0,1E0,-5.7743263E-1,6E0,5.7606947E-2,2.4742267E0,1.875E0,1.8382353E0,2.65625E0,7E0,1.0940139E0,1.6279069E0,1E0,1.070107E0,-2.0346926E-1,9.3186295E-1,1E0,1.0737548E0,2.6119404E0,-1.2795605E-1,2.2709733E-1,-3.217371E-1,-1.1330728E-1,2.1053454E-2,7.4171655E-2,1.186149E-1,-4.700116E-2,-2.663646E-1,5.421972E-2,7.151926E-2,-3.3852994E-1,5.1604696E-2,7.3902726E-2],"split_indices":[102,4,0,111,0,94,94,94,94,111,101,94,112,101,0,101,99,101,94,0,0,0,0,0,0,0,0,0,0,0,0,0,0],"split_type":[0,0,0,0,0,0,0,0,0,0,0,0,0,0,0,0,0,0,0,0,0,0,0,0,0,0,0,0,0,0,0,0,0],"sum_hessian":[3.524388E3,2.7776516E3,7.467363E2,2.1529744E3,6.2467737E2,5.764604E2,1.5765139E3,4.5754407E2,1.1891633E2,3.654607E2,1.2110532E3,4.1530707E2,4.2237003E1,1.0071333E2,1.8202997E1,2.3793271E2,1.2752799E2,3.7162268E2,8.394305E2,3.4309564E2,7.221143E1,2.5712425E1,1.6524576E1,7.9714613E0,9.2741875E1,1.0622943E2,1.3170328E2,2.1631462E1,1.0589653E2,3.5411105E2,1.751163E1,6.3323096E2,2.0619954E2],"tree_param":{"num_deleted":"0","num_feature":"114","num_nodes":"33","size_leaf_vector":"1"}},{"base_weights":[2.4240898E-2,-1.0553657E-1,4.175323E-1,2.1575549E-1,1.0526883E-1,-6.3999176E-1,3.1125328E-1,-1.2060732E-1,-1.0823206E-1,8.786973E-1,2.1454999E-1,-1.01110004E-1,3.3347183E-1,-1.4990033E-1,9.288586E-1,1.3431431E-1,1.0244284E0,7.6409236E-2,-9.655633E-2,8.470611E-2,-2.0093372E-1,7.5739525E-2,9.825235E-2,-1.4569099E-1,1.8507607E-2,-1.3916926E-1,1.1101421E-1],"categories":[],"categories_nodes":[],"categories_segments":[],"categories_sizes":[],"default_left":[0,0,0,0,0,0,0,0,0,0,0,0,0,0,0,0,0,0,0,0,0,0,0,0,0,0,0],"id":22,"left_children":[1,-1,3,5,-1,7,9,11,-1,13,15,-1,17,19,21,23,25,-1,-1,-1,-1,-1,-1,-1,-1,-1,-1],"loss_changes":[1.3734064E3,0E0,3.0338748E2,1.4764023E2,0E0,4.144468E1,8.863936E1,3.5346096E1,0E0,1.2432159E1,8.996086E1,0E0,3.4083836E1,2.6901182E1,5.809326E-1,1.0278035E2,2.8950378E1,0E0,0E0,0E0,0E0,0E0,0E0,0E0,0E0,0E0,0E0],"parents":[2147483647,0,0,2,2,3,3,5,5,6,6,7,7,9,9,10,10,12,12,13,13,14,14,15,15,16,16],"right_children":[2,-1,4,6,-1,8,10,12,-1,14,16,-1,18,20,22,24,26,-1,-1,-1,-1,-1,-1,-1,-1,-1,-1],"split_conditions":[7.5254235E0,-1.1901631E-1,1E0,5.7E1,1.7953525E-1,1E0,5.4421768E-2,4.8E1,-1.1509319E-1,1.32E2,1.0714286E-1,1.06255904E-1,5.1E1,2.66E2,1E0,6.8E1,2.84E2,1.90274E-1,-1.688432E-1,6.1453853E-2,-2.2575621E-1,1.9801214E-1,1.201026E-1,-3.351784E-1,-1.6463111E-1,-7.705632E-2,1.2712115E-3],"split_indices":[93,0,4,91,0,99,113,91,0,91,113,0,91,92,99,91,92,0,0,0,0,0,0,0,0,0,0],"split_type":[0,0,0,0,0,0,0,0,0,0,0,0,0,0,0,0,0,0,0,0,0,0,0,0,0,0,0],"sum_hessian":[3.2305134E3,8.6170874E2,2.3688047E3,1.7997411E3,5.6906366E2,1.7953558E2,1.6202054E3,8.3745995E1,9.578958E1,2.3355545E2,1.38665E3,2.7453548E1,5.6292446E1,1.06752E1,2.2288025E2,1.2637777E3,1.2287236E2,4.2896255E1,1.339619E1,7.65811E0,3.0170903E0,6.0334324E1,1.6254593E2,3.7356754E1,1.2264209E3,3.1656342E0,1.19706726E2],"tree_param":{"num_deleted":"0","num_feature":"114","num_nodes":"27","size_leaf_vector":"1"}},{"base_weights":[2.0752836E-2,-1.0496982E-1,4.1015264E-1,2.3738033E-1,1.0462546E-1,-1.7441642E-1,4.6514633E-1,-4.7121826E-1,7.87091E-1,5.973003E-1,-2.7787894E-1,-1.795862E0,4.347123E-2,8.7686604E-1,-2.1690542E-2,7.8419214E-1,3.3472458E-1,-1.3071752E0,7.571926E-1,-6.46079E-2,-2.403512E-1,3.66851E-2,-1.7455517E-1,9.722608E-2,6.2090345E-2,9.604861E-2,4.7098927E-2,-9.008655E-2,7.317453E-2,-2.9007094E-3,-1.8502456E-1,-1.2675817E-1,9.950391E-2],"categories":[],"categories_nodes":[],"categories_segments":[],"categories_sizes":[],"default_left":[0,0,0,0,0,0,0,0,0,0,0,0,0,0,0,0,0,0,0,0,0,0,0,0,0,0,0,0,0,0,0,0,0],"id":23,"left_children":[1,-1,3,5,-1,7,9,11,13,15,17,19,21,23,-1,25,27,29,31,-1,-1,-1,-1,-1,-1,-1,-1,-1,-1,-1,-1,-1,-1],"loss_changes":[1.2730493E3,0E0,2.4561197E2,1.6557968E2,0E0,1.8039665E2,1.1189014E2,3.2897552E2,1.3831917E1,4.683972E1,1.8620663E2,9.121768E1,2.0335693E2,2.147293E0,0E0,3.0146606E1,1.9990475E2,6.0584335E1,4.4653618E1,0E0,0E0,0E0,0E0,0E0,0E0,0E0,0E0,0E0,0E0,0E0,0E0,0E0,0E0],"parents":[2147483647,0,0,2,2,3,3,5,5,6,6,7,7,8,8,9,9,10,10,11,11,12,12,13,13,15,15,16,16,17,17,18,18],"right_children":[2,-1,4,6,-1,8,10,12,14,16,18,20,22,24,-1,26,28,30,32,-1,-1,-1,-1,-1,-1,-1,-1,-1,-1,-1,-1,-1,-1],"split_conditions":[9.29293E0,-2.652096E-2,1E0,1.0660994E0,-1.6253287E-2,1.27E2,2.65625E0,8.6419754E-2,1.005122E0,2.6E1,3.0113637E0,1.5E1,2.93E2,9.3186295E-1,8.2228154E-2,1.05E2,1.2425934E0,2.7142856E0,1E0,-1.15509845E-1,-2.5722396E-1,-5.253175E-4,6.4918436E-2,1.3313369E-2,1.7490026E-1,1.3808632E-1,6.9602065E-2,3.0236617E-2,1.7315416E-2,2.6163578E-4,-3.0981082E-1,-3.0108285E-1,7.930275E-2],"split_indices":[93,0,4,101,0,91,94,113,101,103,94,103,92,101,0,91,101,94,97,0,0,0,0,0,0,0,0,0,0,0,0,0,0],"split_type":[0,0,0,0,0,0,0,0,0,0,0,0,0,0,0,0,0,0,0,0,0,0,0,0,0,0,0,0,0,0,0,0,0],"sum_hessian":[3.0500305E3,8.126588E2,2.2373716E3,1.7616378E3,4.7573386E2,6.2753485E2,1.1341029E3,4.802953E2,1.4723956E2,9.6318396E2,1.7091898E2,1.3300504E2,3.4729025E2,1.3538684E2,1.1852726E1,5.6036414E2,4.0281985E2,8.543495E1,8.5484024E1,4.7414593E1,8.559045E1,2.9547137E2,5.181886E1,9.455151E1,4.0835327E1,3.559024E2,2.0446173E2,9.7341095E1,3.0547876E2,2.6103857E1,5.9331093E1,8.075858E0,7.7408165E1],"tree_param":{"num_deleted":"0","num_feature":"114","num_nodes":"33","size_leaf_vector":"1"}},{"base_weights":[6.0213573E-2,-1.04391806E-1,4.1431972E-1,2.5195852E-1,1.0415248E-1,-3.6794692E-1,3.9047557E-1,-6.822486E-1,2.8722075E-1,1.0257368E0,3.1189296E-1,-1.1621132E0,-1.31785E-1,-9.9557266E-2,8.0644196E-1,1.1778857E-1,5.2419126E-1,-2.3929274E-1,3.386992E-1,-1.0735639E-1,-1.4699179E-1,2.7406303E-2,-1.7991671E-1,1.17773496E-1,4.4936847E-2,1.1139796E-1,-2.3956127E-1,1.8092716E-2,6.523628E-2],"categories":[],"categories_nodes":[],"categories_segments":[],"categories_sizes":[],"default_left":[0,0,0,0,0,0,0,0,0,0,0,0,0,0,0,0,0,0,0,0,0,0,0,0,0,0,0,0,0],"id":24,"left_children":[1,-1,3,5,-1,7,9,11,13,15,17,19,21,-1,23,-1,25,-1,27,-1,-1,-1,-1,-1,-1,-1,-1,-1,-1],"loss_changes":[1.1546975E3,0E0,2.2716882E2,1.5302757E2,0E0,6.750238E1,7.198874E1,5.802797E1,7.291729E1,1.092012E1,9.5704865E1,5.2719116E-2,7.21141E1,0E0,9.192722E0,0E0,7.538725E1,0E0,6.343524E1,0E0,0E0,0E0,0E0,0E0,0E0,0E0,0E0,0E0,0E0],"parents":[2147483647,0,0,2,2,3,3,5,5,6,6,7,7,8,8,9,9,10,10,11,11,12,12,14,14,16,16,18,18],"right_children":[2,-1,4,6,-1,8,10,12,14,16,18,20,22,-1,24,-1,26,-1,28,-1,-1,-1,-1,-1,-1,-1,-1,-1,-1],"split_conditions":[7.5254235E0,-2.2729892E-1,1E0,6E0,7.602332E-2,1.9264214E1,1.3714286E1,1.0198659E0,8.0904967E-1,2.7E1,1.4295302E1,1.3714286E1,1.5373666E1,1.1747218E-1,8.511105E-1,-8.508749E-2,1.2E1,-3.2700998E-1,7E0,-3.9358117E-2,5.218745E-1,-1.8863616E-3,-8.441064E-2,7.422854E-2,1.0010211E-1,1.797568E-1,-4.8687685E-1,9.738113E-2,-2.3097537E-2],"split_indices":[93,0,4,111,0,93,93,101,101,103,93,93,93,0,101,0,93,0,111,0,0,0,0,0,0,0,0,0,0],"split_type":[0,0,0,0,0,0,0,0,0,0,0,0,0,0,0,0,0,0,0,0,0,0,0,0,0,0,0,0,0],"sum_hessian":[2.949131E3,7.1519604E2,2.233935E3,1.7767903E3,4.571447E2,3.2390506E2,1.4528853E3,2.1883928E2,1.0506579E2,1.5728542E2,1.2955999E3,1.15729866E2,1.03109406E2,2.974431E1,7.532148E1,1.1860758E2,3.8677837E1,1.0981708E1,1.284618E3,9.684506E1,1.888481E1,8.426919E1,1.8840221E1,3.467208E1,4.06494E1,3.3207092E1,5.4707456E0,8.5680225E2,4.2781586E2],"tree_param":{"num_deleted":"0","num_feature":"114","num_nodes":"29","size_leaf_vector":"1"}},{"base_weights":[1.28019005E-2,3.2039487E-1,-1.03911094E-1,1.3272053E-1,1.03668295E-1,-8.1012106E-1,2.4168214E-1,-1.0292943E-1,-4.0301782E-1,7.164657E-1,6.0549475E-2,6.977071E-1,-1.01873256E-1,6.1749405E-1,1.2039631E-1,1.2515882E-1,-2.3607098E-1,1.01999216E-1,-6.954569E-2,8.744136E-2,2.0970175E-2,-7.4112895E-3,7.4218884E-2],"categories":[],"categories_nodes":[],"categories_segments":[],"categories_sizes":[],"default_left":[0,0,0,0,0,0,0,0,0,0,0,0,0,0,0,0,0,0,0,0,0,0,0],"id":25,"left_children":[1,3,-1,5,-1,7,9,-1,11,13,15,17,-1,19,-1,21,-1,-1,-1,-1,-1,-1,-1],"loss_changes":[8.708409E2,2.796621E2,0E0,1.7014595E2,0E0,1.4484894E1,1.2742693E2,0E0,4.435841E1,1.826007E1,1.6883173E2,1.2155567E1,0E0,3.570694E1,0E0,1.2914175E2,0E0,0E0,0E0,0E0,0E0,0E0,0E0],"parents":[2147483647,0,0,1,1,3,3,5,5,6,6,8,8,9,9,10,10,11,11,13,13,15,15],"right_children":[2,4,-1,6,-1,8,10,-1,12,14,16,18,-1,20,-1,22,-1,-1,-1,-1,-1,-1,-1],"split_conditions":[1E0,1E0,3.8538646E-2,3.9370039E0,6.2233556E-2,5E1,3.2117648E0,2.38126E-1,5.1E1,2.375E0,1.11E2,1.2096775E0,-9.248808E-2,1.7952715E1,1.369944E-1,2.98E2,-5.2346927E-1,6.948895E-2,2.410296E-2,4.530279E-2,-3.2752994E-2,-1.3770797E-2,9.396074E-2],"split_indices":[83,15,0,95,0,91,100,0,91,94,91,94,0,95,0,92,0,0,0,0,0,0,0],"split_type":[0,0,0,0,0,0,0,0,0,0,0,0,0,0,0,0,0,0,0,0,0,0,0],"sum_hessian":[2.6873696E3,2.080419E3,6.069507E2,1.6503754E3,4.3004358E2,1.6963747E2,1.4807379E3,1.0828379E2,6.1353683E1,4.072766E2,1.0734613E3,2.1913021E1,3.944066E1,3.423135E2,6.4963104E1,1.0474086E3,2.6052635E1,1.8231249E1,3.6817727E0,2.0860101E2,1.3371248E2,7.9305035E2,2.5435825E2],"tree_param":{"num_deleted":"0","num_feature":"114","num_nodes":"23","size_leaf_vector":"1"}},{"base_weights":[4.7874343E-2,-1.0345192E-1,3.6519012E-1,2.1688618E-1,1.0317709E-1,-6.513535E-3,5.0043505E-1,-1.2805303E0,9.909174E-2,3.3569968E-1,7.943641E-1,-1.0099633E-1,-1.6404611E-1,-3.0347998E-3,1.125771E0,-2.4097884E0,4.439218E-1,4.5435315E-1,1.032287E0,3.4183204E-2,-4.6921913E-2,6.0667135E-2,1.2319323E-1,-2.693543E-1,-1.1401638E-1,1.7920865E-2,6.830846E-2,5.8057595E-2,-5.467561E-2,-1.273156E-1,1.0973718E-1],"categories":[],"categories_nodes":[],"categories_segments":[],"categories_sizes":[],"default_left":[0,0,0,0,0,0,0,0,0,0,0,0,0,0,0,0,0,0,0,0,0,0,0,0,0,0,0,0,0,0,0],"id":26,"left_children":[1,-1,3,5,-1,7,9,11,13,15,17,-1,-1,19,21,23,25,27,29,-1,-1,-1,-1,-1,-1,-1,-1,-1,-1,-1,-1],"loss_changes":[8.9516095E2,0E0,1.9877066E2,1.045886E2,0E0,1.2476231E2,3.469644E1,3.598915E0,8.980534E1,1.4170511E2,2.008339E1,0E0,0E0,1.25874916E2,2.7755814E0,3.8745117E-1,2.8472328E1,1.4604212E1,2.5497742E1,0E0,0E0,0E0,0E0,0E0,0E0,0E0,0E0,0E0,0E0,0E0,0E0],"parents":[2147483647,0,0,2,2,3,3,5,5,6,6,7,7,8,8,9,9,10,10,13,13,14,14,15,15,16,16,17,17,18,18],"right_children":[2,-1,4,6,-1,8,10,12,14,16,18,-1,-1,20,22,24,26,28,30,-1,-1,-1,-1,-1,-1,-1,-1,-1,-1,-1,-1],"split_conditions":[7.5254235E0,2.1229822E-2,1E0,9.5E1,6.2037762E-2,2.8E2,2.98E2,1.9863014E0,7E0,2.0204082E1,2.142857E0,2.3621632E-2,-5.9185103E-2,1.5373666E1,2.03125E0,2.65625E0,1.23E2,1.2512035E0,1.0373845E0,2.5742872E-2,1.8717274E-1,-4.3955747E-2,2.515643E-1,-3.9680535E-1,-1.4042793E-1,8.10747E-2,6.182571E-2,1.5345985E-1,-1.879424E-1,-1.7462718E-1,1.8010421E-1],"split_indices":[93,0,9,91,0,92,92,94,111,93,94,0,0,93,94,94,91,101,101,0,0,0,0,0,0,0,0,0,0,0,0],"split_type":[0,0,0,0,0,0,0,0,0,0,0,0,0,0,0,0,0,0,0,0,0,0,0,0,0,0,0,0,0,0,0],"sum_hessian":[2.602099E3,5.8887415E2,2.013225E3,1.6489989E3,3.64226E2,9.2341876E2,7.2558014E2,6.898125E1,8.5443756E2,4.67724E2,2.5785617E2,4.3724594E1,2.5256653E1,7.7894763E2,7.548992E1,1.6124609E1,4.515994E2,1.08549515E2,1.4930666E2,4.4803815E2,3.3090945E2,1.5097325E1,6.0392593E1,1.134582E1,4.7787886E0,2.160105E2,2.355889E2,9.714173E1,1.1407779E1,3.0800993E0,1.4622655E2],"tree_param":{"num_deleted":"0","num_feature":"114","num_nodes":"31","size_leaf_vector":"1"}},{"base_weights":[1.0823894E-2,2.779205E-1,-1.0304431E-1,1.2142037E-1,1.027635E-1,-7.498767E-1,2.4330154E-1,-1.0557349E-1,-9.326635E-2,3.1370935E-1,-6.22815E-1,4.7293785E-1,-1.1005749E-1,1.7858382E-1,6.69644E-1,7.9896706E-1,-1.070123E0,7.595252E-2,-1.0220181E-1,7.3654644E-2,-9.29737E-4,8.1928186E-2,-7.869139E-2,-1.1323189E-1,1.1651216E-1,-1.695929E-1,1.0800841E-1],"categories":[],"categories_nodes":[],"categories_segments":[],"categories_sizes":[],"default_left":[0,0,0,0,0,0,0,0,0,0,0,0,0,0,0,0,0,0,0,0,0,0,0,0,0,0,0],"id":27,"left_children":[1,3,-1,5,-1,7,9,-1,11,13,15,17,-1,19,21,23,25,-1,-1,-1,-1,-1,-1,-1,-1,-1,-1],"loss_changes":[6.823734E2,2.2884868E2,0E0,1.72151E2,0E0,3.9769295E1,8.702376E1,0E0,3.836125E1,6.3015198E1,7.006072E1,2.0098602E1,0E0,1.0023213E2,8.000865E1,2.163656E1,1.14822426E2,0E0,0E0,0E0,0E0,0E0,0E0,0E0,0E0,0E0,0E0],"parents":[2147483647,0,0,1,1,3,3,5,5,6,6,8,8,9,9,10,10,11,11,13,13,14,14,15,15,16,16],"right_children":[2,4,-1,6,-1,8,10,-1,12,14,16,18,-1,20,22,24,26,-1,-1,-1,-1,-1,-1,-1,-1,-1,-1],"split_conditions":[1E0,1E0,-1.3426377E-1,6.2E1,1.2406341E-1,1.0198659E0,2.7710843E0,-1.653345E-1,1E0,1.2341264E0,1.015943E0,1.1158311E0,-1.0017803E-1,3.0421052E0,1.878297E1,1.0090253E0,1.06E2,8.743674E-2,-1.878066E-1,2.5234753E-1,5.232677E-2,3.7802616E-1,-5.538801E-2,-1.4977132E-1,3.3809267E-2,-2.3022766E-1,1.5334459E-2],"split_indices":[83,9,0,91,0,101,94,0,99,101,101,101,0,100,95,101,91,0,0,0,0,0,0,0,0,0,0],"split_type":[0,0,0,0,0,0,0,0,0,0,0,0,0,0,0,0,0,0,0,0,0,0,0,0,0,0,0],"sum_hessian":[2.4494722E3,1.9505901E3,4.98882E2,1.6156525E3,3.3493762E2,1.9700555E2,1.418647E3,1.3357074E2,6.3434814E1,1.313173E3,1.05474045E2,4.1287987E1,2.214683E1,9.540028E2,3.5917014E2,2.4865604E1,8.060844E1,3.547182E1,5.8161664E0,2.3884605E2,7.1515674E2,3.2650232E2,3.2667797E1,3.2959824E0,2.1569622E1,6.2763893E1,1.7844545E1],"tree_param":{"num_deleted":"0","num_feature":"114","num_nodes":"27","size_leaf_vector":"1"}},{"base_weights":[-1.6245095E-3,2.526391E-1,-1.02665745E-1,1.0286011E-1,1.0235818E-1,-5.5781925E-1,2.5247437E-1,-9.339447E-1,9.581594E-2,3.4647802E-1,-2.3201895E-1,-5.182448E-1,-1.1641871E0,1.0545199E0,-5.5291325E-1,5.233687E-2,4.9517506E-1,6.477897E-1,-1.3048044E0,-9.989338E-2,7.289889E-2,-1.0679432E-1,-1.7694113E-1,1.2329542E-1,7.059922E-2,-1.22332744E-1,9.423867E-2,4.1204475E-2,-4.4694982E-2,5.826668E-2,1.6148955E-2,-1.3204928E-1,9.999924E-2,-1.8416905E-1,1.0534781E-1],"categories":[],"categories_nodes":[],"categories_segments":[],"categories_sizes":[],"default_left":[0,0,0,0,0,0,0,0,0,0,0,0,0,0,0,0,0,0,0,0,0,0,0,0,0,0,0,0,0,0,0,0,0,0,0],"id":28,"left_children":[1,3,-1,5,-1,7,9,11,13,15,17,19,21,23,25,27,29,31,33,-1,-1,-1,-1,-1,-1,-1,-1,-1,-1,-1,-1,-1,-1,-1,-1],"loss_changes":[5.9802435E2,2.1208398E2,0E0,1.5266942E2,0E0,7.0313965E1,5.7472366E1,1.6142426E1,6.7099625E1,4.6078377E1,1.9581996E2,4.2353558E1,2.9222412E0,9.6261597E-1,6.700524E1,6.437397E1,2.0257233E1,8.190526E1,1.2206006E2,0E0,0E0,0E0,0E0,0E0,0E0,0E0,0E0,0E0,0E0,0E0,0E0,0E0,0E0,0E0,0E0],"parents":[2147483647,0,0,1,1,3,3,5,5,6,6,7,7,8,8,9,9,10,10,11,11,12,12,13,13,14,14,15,15,16,16,17,17,18,18],"right_children":[2,4,-1,6,-1,8,10,12,14,16,18,20,22,24,26,28,30,32,34,-1,-1,-1,-1,-1,-1,-1,-1,-1,-1,-1,-1,-1,-1,-1,-1],"split_conditions":[1E0,1E0,-2.8771433E-1,6E0,1.8501873E-1,1.1497826E1,2.6119404E0,1.2096775E0,1.2049896E1,1.0660994E0,2.86E2,1.015943E0,7.918333E0,8.511105E-1,2.99E2,2.096774E0,1.8365728E1,2.82E2,3.268486E1,-2.3286179E-2,1.0811146E-1,-7.01712E-2,-1.6041489E-1,1.0693616E-2,1.1653175E-1,1.7169401E-1,2.651579E-1,6.99629E-2,-1.2915349E-1,1.5622097E-1,1.4984828E-1,-3.6456114E-1,1.2185465E-1,-6.256881E-2,-2.6249006E-1],"split_indices":[83,14,0,111,0,95,94,94,95,101,92,101,95,101,92,94,95,92,95,0,0,0,0,0,0,0,0,0,0,0,0,0,0,0,0],"split_type":[0,0,0,0,0,0,0,0,0,0,0,0,0,0,0,0,0,0,0,0,0,0,0,0,0,0,0,0,0,0,0,0,0,0,0],"sum_hessian":[2.2905557E3,1.8365092E3,4.5404657E2,1.5396519E3,2.9685727E2,2.832769E2,1.256375E3,1.7926411E2,1.0401278E2,1.0526958E3,2.0367918E2,6.621516E1,1.13048965E2,4.1472668E1,6.254011E1,3.543841E2,6.9831165E2,1.1233981E2,9.133937E1,4.8082226E1,1.8132929E1,1.0230874E2,1.0740224E1,2.407294E1,1.7399727E1,4.343148E1,1.9108631E1,2.0618729E2,1.4819682E2,5.5206805E2,1.4624362E2,1.6216352E1,9.612347E1,7.475807E1,1.6581295E1],"tree_param":{"num_deleted":"0","num_feature":"114","num_nodes":"35","size_leaf_vector":"1"}},{"base_weights":[5.3878028E-2,2.9118916E-1,-1.0232083E-1,1.6092482E-1,1.0202818E-1,3.4268135E-1,-2.675418E-1,-1.0343658E-1,3.732648E-1,2.2553208E-3,-2.1478038E0,1.042082E0,3.0292946E-1,3.7387678E-1,-5.699349E-1,-2.5067236E0,-1.4884447E-1,1.19002305E-1,3.701316E-2,-2.6582503E-1,3.369158E-2,4.1154837E-3,9.972746E-2,-1.3152757E-1,-2.590446E-2,-1.2321662E-1,-2.683296E-1],"categories":[],"categories_nodes":[],"categories_segments":[],"categories_sizes":[],"default_left":[0,0,0,0,0,0,0,0,0,0,0,0,0,0,0,0,0,0,0,0,0,0,0,0,0,0,0],"id":29,"left_children":[1,3,-1,5,-1,7,9,-1,11,13,15,17,19,21,23,25,-1,-1,-1,-1,-1,-1,-1,-1,-1,-1,-1],"loss_changes":[5.867812E2,1.7830309E2,0E0,1.2463815E2,0E0,4.806636E1,2.4204861E2,0E0,5.11167E1,8.957451E1,6.707123E0,9.443443E0,1.0224908E2,5.288822E1,3.7753746E1,1.4545898E0,0E0,0E0,0E0,0E0,0E0,0E0,0E0,0E0,0E0,0E0,0E0],"parents":[2147483647,0,0,1,1,3,3,5,5,6,6,8,8,9,9,10,10,11,11,12,12,13,13,14,14,15,15],"right_children":[2,4,-1,6,-1,8,10,-1,12,14,16,18,20,22,24,26,-1,-1,-1,-1,-1,-1,-1,-1,-1,-1,-1],"split_conditions":[1E0,1E0,-4.564607E-2,4.4375E0,8.6610995E-2,7.3E1,7.6E1,-2.7431938E-1,7.7E1,5.3454547E0,1.5517732E1,9.396808E0,1.0848963E1,1.0606061E-1,1.2E-1,7.954545E-2,-1.7339428E-1,2.2812079E-1,4.9078662E-2,-1.73219E-1,-2.0171633E-1,-2.9249307E-2,1.13255434E-1,-2.5777474E-1,-1.5420762E-1,-2.749021E-2,-3.3444285E-1],"split_indices":[83,4,0,100,0,91,91,0,91,100,95,95,95,113,113,113,0,0,0,0,0,0,0,0,0,0,0],"split_type":[0,0,0,0,0,0,0,0,0,0,0,0,0,0,0,0,0,0,0,0,0,0,0,0,0,0,0],"sum_hessian":[2.2913289E3,1.878831E3,4.1249777E2,1.5961025E3,2.8272842E2,1.1209806E3,4.7512207E2,2.292924E1,1.0980513E3,4.1724896E2,5.787308E1,1.0185761E2,9.9619366E2,2.5337938E2,1.638696E2,3.3845745E1,2.4027336E1,8.221469E1,1.9642927E1,9.55154E0,9.8664215E2,1.665955E2,8.6783875E1,4.633144E1,1.1753816E2,6.059894E0,2.7785852E1],"tree_param":{"num_deleted":"0","num_feature":"114","num_nodes":"27","size_leaf_vector":"1"}}]},"name":"gbtree"},"learner_model_param":{"base_score":"[5.0543374E-1]","boost_from_average":"1","num_class":"0","num_feature":"114","num_target":"1"},"objective":{"name":"binary:logistic","reg_loss_param":{"scale_pos_weight":"127.99585"}}},"version":[3,2,0]}