{"learner":{"attributes":{"best_iteration":"0","best_score":"1.0"},"feature_names":["dns__query_count","dns__query_rate_per_minute","dns__avg_query_length","dns__max_query_length","dns__avg_entropy","dns__max_entropy","dns__avg_subdomain_depth","dns__max_label_length","dns__avg_label_length","dns__label_entropy_max","dns__unique_subdomain_ratio","dns__base64_pattern_count","dns__hex_pattern_count","dns__numeric_ratio","dns__subdomain_has_numbers_ratio","dns__unique_base_domains","dns__top_domain_query_ratio","dns__max_unique_subdomains_per_domain","dns__txt_record_ratio","dns__null_record_ratio","dns__mx_record_ratio","dns__cname_record_ratio","dns__any_record_ratio","dns__tunneling_type_ratio","dns__record_type_count","dns__avg_response_size","dns__max_response_size","dns__response_variance","dns__nxdomain_ratio","dns__fast_flux_ratio","dns__min_ttl","dns__ttl_variance","dns__inter_query_interval_mean","dns__inter_query_interval_cv","dns__unique_process_count","dns__non_browser_dns_ratio","dns__non_standard_dns_ratio","dns__nx_subdomains_per_top_domain","dns__nx_top_domain_query_ratio","dns__consonant_run_max","dns__digit_letter_run_max","dns__vowel_ratio_min","auth__total_auth_events","auth__successful_logon_count","auth__failed_logon_count","auth__failed_logon_ratio","auth__network_logon_count","auth__interactive_logon_count","auth__remote_interactive_logon_count","auth__service_logon_count","auth__cleartext_logon_count","auth__network_logon_ratio","auth__explicit_credential_count","auth__ntlm_count","auth__kerberos_tgt_count","auth__kerberos_tgs_count","auth__special_logon_count","auth__unique_privileged_users","auth__unique_users","auth__unique_target_hosts","auth__unique_source_ips","auth__lateral_velocity_per_min","auth__max_hosts_per_user","auth__max_failures_per_user","auth__unique_failed_users","auth__max_users_per_source","auth__account_created_count","auth__account_enabled_count","auth__password_reset_count","auth__account_disabled_count","auth__account_deleted_count","auth__account_changed_count","auth__success_after_failures","auth__time_to_first_success_secs","auth__offhours_logon_count","auth__offhours_interactive_count","auth__psexec_invocations","auth__wmic_invocations","auth__winrm_invocations","auth__schtasks_invocations","auth__powershell_encoded_count","auth__lsass_access_count","process__total_process_events","process__credential_tool_count","process__lsass_access_count","process__image_load_count","process__remote_thread_count","process__process_tamper_count","process__psexec_count","process__wmic_count","process__mshta_count","process__rundll32_count","process__regsvr32_count","process__certutil_count","process__bitsadmin_count","process__schtasks_count","process__esentutl_count","process__total_lolbin_count","process__powershell_count","process__encoded_command_count","process__download_command_count","process__amsi_bypass_count","process__office_to_shell_count","process__browser_to_shell_count","process__pipe_event_count","process__pipe_attack_count","process__archive_drop_count","process__user_exe_drop_count","process__file_create_count","process__unique_image_count","process__unique_parent_count","network__total_connections","network__connections_per_minute","network__total_lateral_count","network__smb_count","network__rdp_count","network__winrm_count","network__wmi_count","network__ssh_count","network__netbios_count","network__telnet_count","network__unique_dest_ips","network__unique_dest_ports","network__unique_source_processes","network__internal_connection_count","network__external_connection_count","network__internal_to_external_ratio","network__shell_initiated_count","network__lolbin_initiated_count","network__shell_lateral_count","network__total_bytes_sent","network__total_bytes_received","network__max_bytes_per_connection","temporal__total_event_count","temporal__window_duration_seconds","temporal__events_per_minute","temporal__burst_factor","temporal__per_minute_stdev","temporal__active_minute_count","temporal__off_hours_ratio","temporal__night_hours_ratio","temporal__weekend_ratio","temporal__inter_event_interval_mean","temporal__inter_event_interval_cv","temporal__inter_event_interval_min","temporal__inter_event_interval_max","behavioral__pth_chain_count","behavioral__bruteforce_success_count","behavioral__auth_then_network_count","behavioral__auth_then_process_count","behavioral__priv_escalation_chain","behavioral__unique_users_overall","behavioral__unique_hosts_overall","behavioral__unique_processes_overall","behavioral__host_user_pair_count","behavioral__entity_diversity_score"],"feature_types":[],"gradient_booster":{"model":{"cats":{"enc":[],"feature_segments":[],"sorted_idx":[]},"gbtree_model_param":{"num_parallel_tree":"1","num_trees":"21"},"iteration_indptr":[0,1,2,3,4,5,6,7,8,9,10,11,12,13,14,15,16,17,18,19,20,21],"tree_info":[0,0,0,0,0,0,0,0,0,0,0,0,0,0,0,0,0,0,0,0,0],"trees":[{"base_weights":[1.7263848E-1,-1.9975926E-1,1.9535688E0,1.9820895E0,-1.7575757E-1,-1.6000001E-1,1.9980021E-1],"categories":[],"categories_nodes":[],"categories_segments":[],"categories_sizes":[],"default_left":[0,0,0,0,0,0,0],"id":0,"left_children":[1,-1,3,5,-1,-1,-1],"loss_changes":[7.1232886E3,0E0,1.10625E2,6.0481445E1,0E0,0E0,0E0],"parents":[2147483647,0,0,2,2,3,3],"right_children":[2,-1,4,6,-1,-1,-1],"split_conditions":[1.281356E1,-1.9975926E-1,3E2,1.7E1,-1.7575757E-1,-1.6000001E-1,1.9980021E-1],"split_indices":[135,0,30,134,0,0,0],"split_type":[0,0,0,0,0,0,0],"sum_hessian":[1.841E3,8.2975E2,1.01125006E3,1.00400006E3,7.25E0,4E0,1.00000006E3],"tree_param":{"num_deleted":"0","num_feature":"156","num_nodes":"7","size_leaf_vector":"1"}},{"base_weights":[-7.27893E-3,-1.8169872E-1,1.599816E0,1.8167259E-1,-1.785379E-1],"categories":[],"categories_nodes":[],"categories_segments":[],"categories_sizes":[],"default_left":[0,0,0,0,0],"id":1,"left_children":[1,-1,3,-1,-1],"loss_changes":[4.897976E3,0E0,6.5821045E2,0E0,0E0],"parents":[2147483647,0,0,2,2],"right_children":[2,-1,4,-1,-1],"split_conditions":[1.875E0,-1.8169872E-1,5.016949E0,1.8167259E-1,-1.785379E-1],"split_indices":[136,0,142,0,0],"split_type":[0,0,0,0,0],"sum_hessian":[1.6820953E3,7.911128E2,8.909825E2,8.3776514E2,5.3217335E1],"tree_param":{"num_deleted":"0","num_feature":"156","num_nodes":"5","size_leaf_vector":"1"}},{"base_weights":[1.6909589E-1,1.505439E0,-1.6808335E-1,-1.657967E-1,1.7079306E0,1.7282814E0,-1.4462276E-1,1.9566233E-1,1.7064474E0,1.6807954E-1,1.953563E-1],"categories":[],"categories_nodes":[],"categories_segments":[],"categories_sizes":[],"default_left":[0,0,0,0,0,0,0,0,0,0,0],"id":2,"left_children":[1,3,-1,-1,5,7,-1,-1,9,-1,-1],"loss_changes":[4.4231772E3,6.682075E2,0E0,0E0,6.519629E1,1.5014648E0,0E0,0E0,2.383789E0,0E0,0E0],"parents":[2147483647,0,0,1,1,4,4,5,5,8,8],"right_children":[2,4,-1,-1,6,8,-1,-1,10,-1,-1],"split_conditions":[5.1929827E0,5E0,-1.6808335E-1,-1.657967E-1,3E2,1.6E1,-1.4462276E-1,1.9566233E-1,1.0995025E1,1.6807954E-1,1.953563E-1],"split_indices":[142,133,0,0,30,133,0,0,8,0,0],"split_type":[0,0,0,0,0,0,0,0,0,0,0],"sum_hessian":[1.7871857E3,1.0377366E3,7.4944904E2,6.1997524E1,9.757391E2,9.699331E2,5.80599E0,7.691678E1,8.9301636E2,8.161019E2,7.691439E1],"tree_param":{"num_deleted":"0","num_feature":"156","num_nodes":"11","size_leaf_vector":"1"}},{"base_weights":[-4.85074E-2,-1.5754315E-1,1.5748208E0,1.5993273E0,-1.3601431E-1,-1.2951675E-1,1.6179596E-1],"categories":[],"categories_nodes":[],"categories_segments":[],"categories_sizes":[],"default_left":[0,0,0,0,0,0,0],"id":3,"left_children":[1,-1,3,5,-1,-1,-1],"loss_changes":[3.759987E3,0E0,5.5059814E1,4.1445557E1,0E0,0E0,0E0],"parents":[2147483647,0,0,2,2,3,3],"right_children":[2,-1,4,6,-1,-1,-1],"split_conditions":[1.281356E1,-1.5754315E-1,2.113459E6,5E0,-1.3601431E-1,-1.2951675E-1,1.6179596E-1],"split_indices":[135,0,31,133,0,0,0],"split_type":[0,0,0,0,0,0,0],"sum_hessian":[1.5149187E3,7.8065436E2,7.342644E2,7.2863544E2,5.628925E0,4.2221193E0,7.244133E2],"tree_param":{"num_deleted":"0","num_feature":"156","num_nodes":"7","size_leaf_vector":"1"}},{"base_weights":[2.7327314E-2,1.3053346E0,-1.4913586E-1,-1.4701377E-1,1.5126759E0,1.5246627E-1,-1.1644951E-1],"categories":[],"categories_nodes":[],"categories_segments":[],"categories_sizes":[],"default_left":[0,0,0,0,0,0,0],"id":4,"left_children":[1,3,-1,-1,5,-1,-1],"loss_changes":[2.931241E3,4.7416748E2,0E0,0E0,2.6279297E1,0E0,0E0],"parents":[2147483647,0,0,1,1,4,4],"right_children":[2,4,-1,-1,6,-1,-1],"split_conditions":[5.016949E0,3E0,-1.4913586E-1,-1.4701377E-1,3E2,1.5246627E-1,-1.1644951E-1],"split_indices":[142,153,0,0,30,0,0],"split_type":[0,0,0,0,0,0,0],"sum_hessian":[1.5082521E3,8.191011E2,6.8915094E2,5.6514008E1,7.625871E2,7.596165E2,2.9705713E0],"tree_param":{"num_deleted":"0","num_feature":"156","num_nodes":"7","size_leaf_vector":"1"}},{"base_weights":[-6.1173636E-2,1.2169619E0,-1.4230208E-1,-1.401604E-1,1.4271271E0,1.4379337E-1,-1.05077505E-1],"categories":[],"categories_nodes":[],"categories_segments":[],"categories_sizes":[],"default_left":[0,0,0,0,0,0,0],"id":5,"left_children":[1,3,-1,-1,5,-1,-1],"loss_changes":[2.3779375E3,3.898495E2,0E0,0E0,1.8993896E1,0E0,0E0],"parents":[2147483647,0,0,1,1,4,4],"right_children":[2,4,-1,-1,6,-1,-1],"split_conditions":[5.016949E0,5E0,-1.4230208E-1,-1.401604E-1,3E2,1.4379337E-1,-1.05077505E-1],"split_indices":[142,133,0,0,30,0,0],"split_type":[0,0,0,0,0,0,0],"sum_hessian":[1.364145E3,7.037554E2,6.6038965E2,5.1865486E1,6.518899E2,6.4947705E2,2.4127984E0],"tree_param":{"num_deleted":"0","num_feature":"156","num_nodes":"7","size_leaf_vector":"1"}},{"base_weights":[-4.126085E-2,-1.366899E-1,1.3599138E0,-1.10941164E-1,1.3769891E0,1.3872716E-1,-9.8903805E-2],"categories":[],"categories_nodes":[],"categories_segments":[],"categories_sizes":[],"default_left":[0,0,0,0,0,0,0],"id":6,"left_children":[1,-1,3,-1,5,-1,-1],"loss_changes":[2.3975107E3,0E0,2.7986572E1,0E0,1.6544556E1,0E0,0E0],"parents":[2147483647,0,0,2,2,4,4],"right_children":[2,-1,4,-1,6,-1,-1],"split_conditions":[1.3356164E1,-1.366899E-1,5E0,-1.10941164E-1,4.793103E0,1.3872716E-1,-9.8903805E-2],"split_indices":[135,0,133,0,32,0,0],"split_type":[0,0,0,0,0,0,0],"sum_hessian":[1.2887527E3,6.62239E2,6.265137E2,3.8632505E0,6.226504E2,6.2036804E2,2.2823572E0],"tree_param":{"num_deleted":"0","num_feature":"156","num_nodes":"7","size_leaf_vector":"1"}},{"base_weights":[1.8486427E-1,-1.3194482E-1,1.3784012E0,1.3981537E0,-1.19089924E-1,1.3261836E0,2.0246331E-1,-1.00778714E-1,1.3373853E-1],"categories":[],"categories_nodes":[],"categories_segments":[],"categories_sizes":[],"default_left":[0,0,0,0,0,0,0,0,0],"id":7,"left_children":[1,-1,3,5,-1,7,-1,-1,-1],"loss_changes":[2.510788E3,0E0,4.123352E1,3.2221558E1,0E0,1.9578613E1,0E0,0E0,0E0],"parents":[2147483647,0,0,2,2,3,3,5,5],"right_children":[2,-1,4,6,-1,8,-1,-1,-1],"split_conditions":[1.281356E1,-1.3194482E-1,3E2,3.9183334E1,-1.19089924E-1,3E0,2.0246331E-1,-1.00778714E-1,1.3373853E-1],"split_indices":[135,0,30,2,0,153,0,0,0],"split_type":[0,0,0,0,0,0,0,0,0],"sum_hessian":[1.3964023E3,6.17726E2,7.786763E2,7.731879E2,5.488342E0,6.963123E2,7.687557E1,2.9009912E0,6.934114E2],"tree_param":{"num_deleted":"0","num_feature":"156","num_nodes":"9","size_leaf_vector":"1"}},{"base_weights":[6.0837477E-2,-1.280555E-1,1.358343E0,1.2866493E-1,1.8343584E-1],"categories":[],"categories_nodes":[],"categories_segments":[],"categories_sizes":[],"default_left":[0,0,0,0,0],"id":8,"left_children":[1,-1,3,-1,-1],"loss_changes":[2.0881301E3,0E0,1.845166E1,0E0,0E0],"parents":[2147483647,0,0,2,2],"right_children":[2,-1,4,-1,-1],"split_conditions":[9.899495E0,-1.280555E-1,8.484849E-1,1.2866493E-1,1.8343584E-1],"split_indices":[137,0,10,0,0],"split_type":[0,0,0,0,0],"sum_hessian":[1.1977552E3,5.889242E2,6.08831E2,5.323549E2,7.647611E1],"tree_param":{"num_deleted":"0","num_feature":"156","num_nodes":"5","size_leaf_vector":"1"}},{"base_weights":[-3.140283E-2,-1.24582246E-1,1.2398007E0,1.254676E0,-9.894415E-2,-9.237769E-2,1.2676547E0,1.4203805E-1,1.2416109E-1],"categories":[],"categories_nodes":[],"categories_segments":[],"categories_sizes":[],"default_left":[0,0,0,0,0,0,0,0,0],"id":9,"left_children":[1,-1,3,5,-1,-1,7,-1,-1],"loss_changes":[1.6083733E3,0E0,1.8121338E1,1.5480286E1,0E0,0E0,2.3919678E-1,0E0,0E0],"parents":[2147483647,0,0,2,2,3,3,6,6],"right_children":[2,-1,4,6,-1,-1,8,-1,-1],"split_conditions":[1.3356164E1,-1.24582246E-1,3E2,4E0,-9.894415E-2,-9.237769E-2,1.6E1,1.4203805E-1,1.2416109E-1],"split_indices":[135,0,30,133,0,0,133,0,0],"split_type":[0,0,0,0,0,0,0,0,0],"sum_hessian":[1.0398442E3,5.318099E2,5.080343E2,5.0510104E2,2.9332757E0,2.5758278E0,5.025252E2,6.541008E1,4.3711514E2],"tree_param":{"num_deleted":"0","num_feature":"156","num_nodes":"9","size_leaf_vector":"1"}},{"base_weights":[6.4757235E-2,-1.21644214E-1,1.2910767E0,1.3157142E0,-1.062954E-1,-9.474262E-2,1.3308656E0,1.2464086E-1,1.7858091E-1],"categories":[],"categories_nodes":[],"categories_segments":[],"categories_sizes":[],"default_left":[0,0,0,0,0,0,0,0,0],"id":10,"left_children":[1,-1,3,5,-1,-1,7,-1,-1],"loss_changes":[1.5831921E3,0E0,3.1257568E1,1.8746582E1,0E0,0E0,1.725354E1,0E0,0E0],"parents":[2147483647,0,0,2,2,3,3,6,6],"right_children":[2,-1,4,6,-1,-1,8,-1,-1],"split_conditions":[1.281356E1,-1.21644214E-1,3E2,5E0,-1.062954E-1,-9.474262E-2,3.9183334E1,1.2464086E-1,1.7858091E-1],"split_indices":[135,0,30,133,0,0,2,0,0],"split_type":[0,0,0,0,0,0,0,0,0],"sum_hessian":[1.00565875E3,4.918283E2,5.1383044E2,5.0894482E2,4.8856163E0,2.9754295E0,5.0596942E2,4.29901E2,7.606839E1],"tree_param":{"num_deleted":"0","num_feature":"156","num_nodes":"9","size_leaf_vector":"1"}},{"base_weights":[-8.380449E-2,-1.1917915E-1,1.196459E0,-9.240664E-2,1.21440925E-1],"categories":[],"categories_nodes":[],"categories_segments":[],"categories_sizes":[],"default_left":[0,0,0,0,0],"id":11,"left_children":[1,-1,3,-1,-1],"loss_changes":[1.2297009E3,0E0,1.6432007E1,0E0,0E0],"parents":[2147483647,0,0,2,2],"right_children":[2,-1,4,-1,-1],"split_conditions":[1.4166667E1,-1.1917915E-1,5E0,-9.240664E-2,1.21440925E-1],"split_indices":[135,0,133,0,0],"split_type":[0,0,0,0,0],"sum_hessian":[8.648877E2,4.6367523E2,4.0121246E2,2.9440353E0,3.9826843E2],"tree_param":{"num_deleted":"0","num_feature":"156","num_nodes":"5","size_leaf_vector":"1"}},{"base_weights":[8.425345E-2,-1.1693193E-1,1.2537646E0,1.278482E0,-1.0102991E-1,1.1816053E0,1.73958E-1,-8.682898E-2,1.1975204E-1],"categories":[],"categories_nodes":[],"categories_segments":[],"categories_sizes":[],"default_left":[0,0,0,0,0,0,0,0,0],"id":12,"left_children":[1,-1,3,5,-1,7,-1,-1,-1],"loss_changes":[1.296484E3,0E0,2.6892395E1,1.8178589E1,0E0,1.3353455E1,0E0,0E0,0E0],"parents":[2147483647,0,0,2,2,3,3,5,5],"right_children":[2,-1,4,6,-1,8,-1,-1,-1],"split_conditions":[1.281356E1,-1.1693193E-1,3E2,3.9183334E1,-1.0102991E-1,5E0,1.73958E-1,-8.682898E-2,1.1975204E-1],"split_indices":[135,0,30,2,0,133,0,0,0],"split_type":[0,0,0,0,0,0,0,0,0],"sum_hessian":[8.823278E2,4.2585913E2,4.564687E2,4.5196973E2,4.4989676E0,3.764419E2,7.552781E1,2.487492E0,3.739544E2],"tree_param":{"num_deleted":"0","num_feature":"156","num_nodes":"9","size_leaf_vector":"1"}},{"base_weights":[-8.6248405E-3,-1.1502699E-1,1.1461266E0,-8.405176E-2,1.1605184E0,1.1714532E-1,-7.774453E-2],"categories":[],"categories_nodes":[],"categories_segments":[],"categories_sizes":[],"default_left":[0,0,0,0,0,0,0],"id":13,"left_children":[1,-1,3,-1,5,-1,-1],"loss_changes":[1.02007794E3,0E0,1.1973999E1,0E0,9.0130005E0,0E0,0E0],"parents":[2147483647,0,0,2,2,4,4],"right_children":[2,-1,4,-1,6,-1,-1],"split_conditions":[1.3356164E1,-1.1502699E-1,4E0,-8.405176E-2,2.1709955E6,1.1714532E-1,-7.774453E-2],"split_indices":[135,0,133,0,31,0,0],"split_type":[0,0,0,0,0,0,0],"sum_hessian":[7.717733E2,3.88091E2,3.8368228E2,2.3466647E0,3.8133563E2,3.7958932E2,1.7462934E0],"tree_param":{"num_deleted":"0","num_feature":"156","num_nodes":"7","size_leaf_vector":"1"}},{"base_weights":[1.2857553E-1,-1.13426104E-1,1.2455158E0,1.13943435E-1,1.696312E-1],"categories":[],"categories_nodes":[],"categories_segments":[],"categories_sizes":[],"default_left":[0,0,0,0,0],"id":14,"left_children":[1,-1,3,-1,-1],"loss_changes":[1.0873157E3,0E0,1.7626343E1,0E0,0E0],"parents":[2147483647,0,0,2,2],"right_children":[2,-1,4,-1,-1],"split_conditions":[9.899495E0,-1.13426104E-1,3.9183334E1,1.13943435E-1,1.696312E-1],"split_indices":[137,0,2,0,0],"split_type":[0,0,0,0,0],"sum_hessian":[7.688639E2,3.6085638E2,4.0800748E2,3.331404E2,7.486706E1],"tree_param":{"num_deleted":"0","num_feature":"156","num_nodes":"5","size_leaf_vector":"1"}},{"base_weights":[1.2904103E-1,-1.1183559E-1,1.2025626E0,1.2238599E0,-9.07252E-2,-8.0448575E-2,1.2380749E0,1.14888184E-1,1.5848772E-1],"categories":[],"categories_nodes":[],"categories_segments":[],"categories_sizes":[],"default_left":[0,0,0,0,0,0,0,0,0],"id":15,"left_children":[1,-1,3,5,-1,-1,7,-1,-1],"loss_changes":[9.389961E2,0E0,1.8041931E1,1.1764221E1,0E0,0E0,9.663391E0,0E0,0E0],"parents":[2147483647,0,0,2,2,3,3,6,6],"right_children":[2,-1,4,6,-1,-1,8,-1,-1],"split_conditions":[1.281356E1,-1.1183559E-1,3E2,5E0,-9.07252E-2,-8.0448575E-2,3.9183334E1,1.14888184E-1,1.5848772E-1],"split_indices":[135,0,30,133,0,0,2,0,0],"split_type":[0,0,0,0,0,0,0,0,0],"sum_hessian":[6.9920605E2,3.2339264E2,3.7581345E2,3.7247345E2,3.33999E0,2.2052708E0,3.702682E2,2.979517E2,7.231649E1],"tree_param":{"num_deleted":"0","num_feature":"156","num_nodes":"9","size_leaf_vector":"1"}},{"base_weights":[2.3235466E-1,-1.1052046E-1,1.1615802E0,1.1782812E0,-8.794936E-2,-7.9391554E-2,1.190372E0,1.1264439E-1,1.4962237E-1],"categories":[],"categories_nodes":[],"categories_segments":[],"categories_sizes":[],"default_left":[0,0,0,0,0,0,0,0,0],"id":16,"left_children":[1,-1,3,5,-1,-1,7,-1,-1],"loss_changes":[9.032546E2,0E0,1.564978E1,1.1094971E1,0E0,0E0,6.5942383E0,0E0,0E0],"parents":[2147483647,0,0,2,2,3,3,6,6],"right_children":[2,-1,4,6,-1,-1,8,-1,-1],"split_conditions":[1.281356E1,-1.1052046E-1,3E2,1.7E1,-8.794936E-2,-7.9391554E-2,3.9183334E1,1.1264439E-1,1.4962237E-1],"split_indices":[135,0,30,134,0,0,2,0,0],"split_type":[0,0,0,0,0,0,0,0,0],"sum_hessian":[7.2470197E2,2.9700024E2,4.2770175E2,4.246498E2,3.051953E0,2.1935203E0,4.2245627E2,3.532947E2,6.9161575E1],"tree_param":{"num_deleted":"0","num_feature":"156","num_nodes":"9","size_leaf_vector":"1"}},{"base_weights":[2.2932611E-1,1.0375129E0,-1.0933093E-1,-1.0520432E-1,1.1531792E0,1.1687216E0,-8.3674036E-2,1.1126578E-1,1.4241907E-1],"categories":[],"categories_nodes":[],"categories_segments":[],"categories_sizes":[],"default_left":[0,0,0,0,0,0,0,0,0],"id":17,"left_children":[1,3,-1,-1,5,7,-1,-1,-1],"loss_changes":[7.1308014E2,1.0125632E2,0E0,0E0,1.3123291E1,4.0021973E0,0E0,0E0,0E0],"parents":[2147483647,0,0,1,1,4,4,5,5],"right_children":[2,4,-1,-1,6,8,-1,-1,-1],"split_conditions":[5.1929827E0,5E0,-1.0933093E-1,-1.0520432E-1,3E2,3.9183334E1,-8.3674036E-2,1.1126578E-1,1.4241907E-1],"split_indices":[142,133,0,0,30,2,0,0,0],"split_type":[0,0,0,0,0,0,0,0,0],"sum_hessian":[6.650319E2,4.1292975E2,2.5210216E2,2.1233978E1,3.9169577E2,3.8906958E2,2.626185E0,3.2344376E2,6.562582E1],"tree_param":{"num_deleted":"0","num_feature":"156","num_nodes":"9","size_leaf_vector":"1"}},{"base_weights":[2.2999626E-1,-1.0830503E-1,1.1224512E0,1.1389318E0,-8.244423E-2,-7.139111E-2,1.1497778E0,1.100379E-1,1.3646494E-1],"categories":[],"categories_nodes":[],"categories_segments":[],"categories_sizes":[],"default_left":[0,0,0,0,0,0,0,0,0],"id":18,"left_children":[1,-1,3,5,-1,-1,7,-1,-1],"loss_changes":[7.147278E2,0E0,1.2585876E1,8.062653E0,0E0,0E0,2.3052368E0,0E0,0E0],"parents":[2147483647,0,0,2,2,3,3,6,6],"right_children":[2,-1,4,6,-1,-1,8,-1,-1],"split_conditions":[1.281356E1,-1.0830503E-1,3E2,5E0,-8.244423E-2,-7.139111E-2,3.9183334E1,1.100379E-1,1.3646494E-1],"split_indices":[135,0,30,133,0,0,2,0,0],"split_type":[0,0,0,0,0,0,0,0,0],"sum_hessian":[6.078845E2,2.458937E2,3.619908E2,3.5936377E2,2.6270294E0,1.7141235E0,3.5764966E2,2.957729E2,6.187676E1],"tree_param":{"num_deleted":"0","num_feature":"156","num_nodes":"9","size_leaf_vector":"1"}},{"base_weights":[1.0873635E-1,-1.0737182E-1,1.1096672E0,1.1302782E0,-8.021244E-2,-7.07863E-2,1.1449434E0,1.0904546E-1,1.3147223E-1],"categories":[],"categories_nodes":[],"categories_segments":[],"categories_sizes":[],"default_left":[0,0,0,0,0,0,0,0,0],"id":19,"left_children":[1,-1,3,5,-1,-1,7,-1,-1],"loss_changes":[5.8396716E2,0E0,1.1433685E1,7.9465027E0,0E0,0E0,9.994812E-1,0E0,0E0],"parents":[2147483647,0,0,2,2,3,3,6,6],"right_children":[2,-1,4,6,-1,-1,8,-1,-1],"split_conditions":[1.281356E1,-1.0737182E-1,3E2,5E0,-8.021244E-2,-7.07863E-2,3.9183334E1,1.0904546E-1,1.3147223E-1],"split_indices":[135,0,30,133,0,0,2,0,0],"split_type":[0,0,0,0,0,0,0,0,0],"sum_hessian":[4.9139417E2,2.2523683E2,2.6615735E2,2.6372293E2,2.4344141E0,1.7132626E0,2.6200967E2,2.0397029E2,5.8039387E1],"tree_param":{"num_deleted":"0","num_feature":"156","num_nodes":"9","size_leaf_vector":"1"}},{"base_weights":[1.5198466E-1,-1.06535435E-1,1.0963742E0,1.1083261E0,-6.548627E-2,-6.4876825E-2,1.1200976E0,1.07506394E-1,1.2723391E-1],"categories":[],"categories_nodes":[],"categories_segments":[],"categories_sizes":[],"default_left":[0,0,0,0,0,0,0,0,0],"id":20,"left_children":[1,-1,3,5,-1,-1,7,-1,-1],"loss_changes":[5.484491E2,0E0,6.347107E0,6.2517395E0,0E0,0E0,4.538269E-1,0E0,0E0],"parents":[2147483647,0,0,2,2,3,3,6,6],"right_children":[2,-1,4,6,-1,-1,8,-1,-1],"split_conditions":[1.281356E1,-1.06535435E-1,2.1709955E6,4E0,-6.548627E-2,-6.4876825E-2,3.9183334E1,1.07506394E-1,1.2723391E-1],"split_indices":[135,0,31,133,0,0,2,0,0],"split_type":[0,0,0,0,0,0,0,0,0],"sum_hessian":[4.7504477E2,2.0747578E2,2.6756897E2,2.6611987E2,1.4491184E0,1.4108659E0,2.6470898E2,2.1050294E2,5.4206055E1],"tree_param":{"num_deleted":"0","num_feature":"156","num_nodes":"9","size_leaf_vector":"1"}}]},"name":"gbtree"},"learner_model_param":{"base_score":"[5E-1]","boost_from_average":"1","num_class":"0","num_feature":"156","num_target":"1"},"objective":{"name":"binary:logistic","reg_loss_param":{"scale_pos_weight":"307.692322"}}},"version":[3,2,0]}